{
  "version": "1.0",
  "ebm": {
    "outputs": [
      {
        "task": "classification",
        "classes": [
          0,
          1
        ],
        "link": "logit",
        "link_param": "nan"
      }
    ],
    "intercept": [
      -1.2119818998742342
    ],
    "bagged_intercept": [
      -1.1883841026102078,
      -1.2449607206185678,
      -1.240371787661492,
      -1.1295609938443525,
      -1.22092277700157,
      -1.2731587971554794,
      -1.1597448929954346,
      -1.221813868507862,
      -1.1841219563175158,
      -1.255501762796219,
      -1.217050297080799,
      -1.189929951606734,
      -1.2589381912497049,
      -1.1832864987933398
    ],
    "bag_weights": [
      3738.0,
      3738.0,
      3738.0,
      3738.0,
      3738.0,
      3738.0,
      3738.0,
      3738.0,
      3738.0,
      3738.0,
      3738.0,
      3738.0,
      3738.0,
      3738.0
    ],
    "best_iteration": [
      [
        13508,
        98510,
        60440,
        6019,
        27958,
        144709,
        7750,
        43062,
        24471,
        142063,
        25083,
        13294,
        161527,
        14081
      ]
    ],
    "implementation": "python",
    "implementation_params": {
      "feature_names": null,
      "feature_types": null,
      "max_bins": 1024,
      "max_interaction_bins": 64,
      "interactions": false,
      "exclude": null,
      "validation_size": 0.15,
      "outer_bags": 14,
      "inner_bags": 0,
      "learning_rate": 0.015,
      "greedy_ratio": 10.0,
      "smoothing_rounds": 75,
      "interaction_smoothing_rounds": 75,
      "max_rounds": 25000,
      "early_stopping_rounds": 100,
      "early_stopping_tolerance": 1e-05,
      "min_samples_leaf": 4,
      "min_hessian": 0.0001,
      "reg_alpha": 0.0,
      "reg_lambda": 0.0,
      "max_delta_step": 0.0,
      "max_leaves": 2,
      "objective": "log_loss",
      "n_jobs": -2,
      "random_state": 42
    },
    "features": [
      {
        "name": "Make",
        "type": "nominal",
        "num_unique_vals": 17,
        "categories": [
          [
            "Accura",
            "BMW",
            "Chevrolet",
            "Dodge",
            "Ford",
            "Honda",
            "Jaguar",
            "Mazda",
            "Mecedes",
            "Mercury",
            "Nisson",
            "Pontiac",
            "Porche",
            "Saab",
            "Saturn",
            "Toyota",
            "VW"
          ]
        ]
      },
      {
        "name": "VehiclePrice_num",
        "type": "nominal",
        "num_unique_vals": 3,
        "categories": [
          [
            "30000 to 59000",
            "less than 30000",
            "more than 60000"
          ]
        ]
      },
      {
        "name": "VehicleCategory",
        "type": "nominal",
        "num_unique_vals": 3,
        "categories": [
          [
            "Sedan",
            "Sport",
            "Utility"
          ]
        ]
      },
      {
        "name": "AgeOfVehicle",
        "type": "nominal",
        "num_unique_vals": 8,
        "categories": [
          [
            "2 years",
            "3 years",
            "4 years",
            "5 years",
            "6 years",
            "7 years",
            "more than 7",
            "new"
          ]
        ]
      },
      {
        "name": "Sex",
        "type": "nominal",
        "num_unique_vals": 2,
        "categories": [
          [
            "Female",
            "Male"
          ]
        ]
      },
      {
        "name": "MaritalStatus",
        "type": "nominal",
        "num_unique_vals": 4,
        "categories": [
          [
            "Divorced",
            "Married",
            "Single",
            "Widow"
          ]
        ]
      },
      {
        "name": "Age",
        "type": "continuous",
        "num_unique_vals": 64,
        "cuts": [
          [
            9.0,
            18.5,
            19.5,
            20.5,
            21.5,
            22.5,
            23.5,
            24.5,
            25.5,
            26.5,
            27.5,
            28.5,
            29.5,
            30.5,
            31.5,
            32.5,
            33.5,
            34.5,
            35.5,
            36.5,
            37.5,
            38.5,
            39.5,
            40.5,
            41.5,
            42.5,
            43.5,
            44.5,
            45.5,
            46.5,
            47.5,
            48.5,
            49.5,
            50.5,
            51.5,
            52.5,
            53.5,
            54.5,
            55.5,
            56.5,
            57.5,
            58.5,
            59.5,
            60.5,
            61.5,
            62.5,
            63.5,
            64.5,
            65.5,
            66.5,
            67.5,
            68.5,
            69.5,
            70.5,
            71.5,
            72.5,
            73.5,
            74.5,
            75.5,
            76.5,
            77.5,
            78.5,
            79.5
          ]
        ],
        "min": 0.0,
        "max": 80.0,
        "histogram_weights": [
          0.0,
          123.0,
          0.0,
          0.0,
          97.0,
          456.0,
          904.0,
          558.0,
          671.0,
          537.0,
          439.0,
          238.0,
          197.0,
          105.0,
          72.0,
          0.0
        ]
      },
      {
        "name": "DriverRating",
        "type": "continuous",
        "num_unique_vals": 4,
        "cuts": [
          [
            1.5,
            2.5,
            3.5
          ]
        ],
        "min": 1.0,
        "max": 4.0,
        "histogram_weights": [
          0.0,
          1185.0,
          0.0,
          0.0,
          0.0,
          0.0,
          1083.0,
          0.0,
          0.0,
          0.0,
          0.0,
          1126.0,
          0.0,
          0.0,
          0.0,
          1003.0,
          0.0
        ]
      },
      {
        "name": "AgeOfPolicyHolder",
        "type": "nominal",
        "num_unique_vals": 8,
        "categories": [
          [
            "16 to 17",
            "21 to 25",
            "26 to 30",
            "31 to 35",
            "36 to 40",
            "41 to 50",
            "51 to 65",
            "over 65"
          ]
        ]
      },
      {
        "name": "NumberOfCars",
        "type": "nominal",
        "num_unique_vals": 5,
        "categories": [
          [
            "1 vehicle",
            "2 vehicles",
            "3 to 4",
            "5 to 8",
            "more than 8"
          ]
        ]
      },
      {
        "name": "PastNumberOfClaims",
        "type": "nominal",
        "num_unique_vals": 4,
        "categories": [
          [
            "1",
            "2 to 4",
            "more than 4",
            "none"
          ]
        ]
      },
      {
        "name": "PolicyType",
        "type": "nominal",
        "num_unique_vals": 3,
        "categories": [
          [
            "Sedan - All Perils",
            "Sport - All Perils",
            "Utility - All Perils"
          ]
        ]
      },
      {
        "name": "Deductible",
        "type": "continuous",
        "num_unique_vals": 6,
        "cuts": [
          [
            306.0,
            338.5,
            382.5,
            450.0,
            600.0
          ]
        ],
        "min": 300.0,
        "max": 700.0,
        "histogram_weights": [
          0.0,
          2.0,
          0.0,
          0.0,
          1.0,
          0.0,
          4223.0,
          0.0,
          0.0,
          0.0,
          0.0,
          87.0,
          0.0,
          0.0,
          0.0,
          0.0,
          0.0,
          0.0,
          0.0,
          0.0,
          0.0,
          84.0,
          0.0
        ]
      },
      {
        "name": "AgentType",
        "type": "nominal",
        "num_unique_vals": 1,
        "categories": [
          [
            "External"
          ]
        ]
      },
      {
        "name": "NumberOfSuppliments",
        "type": "nominal",
        "num_unique_vals": 4,
        "categories": [
          [
            "1 to 2",
            "3 to 5",
            "more than 5",
            "none"
          ]
        ]
      },
      {
        "name": "Days_Policy_Accident",
        "type": "nominal",
        "num_unique_vals": 5,
        "categories": [
          [
            "1 to 7",
            "15 to 30",
            "8 to 15",
            "more than 30",
            "none"
          ]
        ]
      },
      {
        "name": "Days_Policy_Claim",
        "type": "nominal",
        "num_unique_vals": 3,
        "categories": [
          [
            "15 to 30",
            "8 to 15",
            "more than 30"
          ]
        ]
      },
      {
        "name": "PoliceReportFiled",
        "type": "nominal",
        "num_unique_vals": 2,
        "categories": [
          [
            "No",
            "Yes"
          ]
        ]
      },
      {
        "name": "WitnessPresent",
        "type": "nominal",
        "num_unique_vals": 2,
        "categories": [
          [
            "No",
            "Yes"
          ]
        ]
      },
      {
        "name": "AddressChange_Claim_2",
        "type": "nominal",
        "num_unique_vals": 2,
        "categories": [
          [
            "change",
            "no_change"
          ]
        ]
      }
    ],
    "terms": [
      {
        "term_features": [
          "Make"
        ],
        "scores": [
          0.0,
          0.4723664744490646,
          -1.0410160842816447,
          -0.1874101227123349,
          -0.4046564910649314,
          -0.25190676874481177,
          -0.5325484535042988,
          -1.0383527608940952,
          -0.08763388926604124,
          -1.0045415449907833,
          -0.6121179225027065,
          -0.9721358247219473,
          0.3321393501865147,
          -0.9609770790952449,
          0.13529266805406057,
          -0.5195154880208418,
          -0.0014078569924194256,
          -0.4321577308259623,
          0.0
        ],
        "standard_deviations": [
          0.0,
          0.061206813442847216,
          0.3870603545946905,
          0.04968338977445204,
          0.29716331220748643,
          0.06930045894769435,
          0.04273308196195984,
          0.39116254363251063,
          0.04261302345285889,
          0.39041111306791476,
          0.41543114240493856,
          0.3924394647218232,
          0.022210186631820554,
          0.39251703571266705,
          0.18620995688387112,
          0.2372315879441814,
          0.036269360524770346,
          0.11799255288602374,
          0.0
        ],
        "bagged_scores": [
          [
            0.0,
            0.5468417879543587,
            -0.6607657143189681,
            -0.15094608191462816,
            -0.2766860619339536,
            -0.27323728681058423,
            -0.5780192473811921,
            -0.6649447610569821,
            -0.02272836571602089,
            -0.6295009566138932,
            -0.37024410887753706,
            -0.5986686444244826,
            0.3159962822380693,
            -0.6006009863049965,
            0.05259568339917775,
            -0.6235989206530074,
            -0.026709709603923014,
            -0.4062286888202844,
            0.0
          ],
          [
            0.0,
            0.5539434203855148,
            -1.224054224719443,
            -0.11104802197432556,
            -0.04457138875402441,
            -0.24515511695087125,
            -0.5924227018034538,
            -1.2445611232636966,
            -0.04001674325404598,
            -1.2147013388379917,
            -0.8034719890537999,
            -1.1764718445835831,
            0.32635234848381933,
            -1.1654851907694237,
            -0.1808578748027126,
            -0.4942890910695831,
            -0.012950574340957477,
            -0.5722866936875687,
            0.0
          ],
          [
            0.0,
            0.4717880056053375,
            -1.281846414665471,
            -0.19539063669325363,
            -1.307468319144109,
            -0.14015942495545514,
            -0.48678452025729935,
            -1.3065313977774664,
            -0.12056435882854181,
            -1.266865964851717,
            -0.3032330869156191,
            -1.2353137767757747,
            0.32217095479322994,
            -1.228306072135417,
            0.07636324868973166,
            -0.34228584425771746,
            -0.01870707172947115,
            -0.32509066063204983,
            0.0
          ],
          [
            0.0,
            0.37355132252346185,
            -0.5181717903696267,
            -0.20973732592197258,
            -0.2553015559242064,
            -0.2964249546915688,
            -0.5282740772089525,
            -0.5121391361581668,
            -0.11420871826314465,
            -0.4799977430644112,
            -0.44559931760806754,
            -0.43120456376248123,
            0.31783575717415824,
            -0.4223567854125974,
            -0.02827916167889412,
            -0.4006118611092109,
            0.0593500411884564,
            -0.4931987548205187,
            0.0
          ],
          [
            0.0,
            0.43454580582070285,
            -1.031198303634563,
            -0.15792070419786863,
            -0.6228034023583172,
            -0.34831708833529196,
            -0.47382675513440575,
            -1.0372026202191442,
            -0.20771524404974162,
            -1.0009051240228892,
            -0.460462619730309,
            -0.9665132526002296,
            0.3524761330717824,
            -0.9279787895300711,
            -0.06945029730900887,
            -0.35189461662296323,
            0.01762616051622428,
            -0.6480529989190819,
            0.0
          ],
          [
            0.0,
            0.48737077135638834,
            -1.1086620128008047,
            -0.14325802334635285,
            -0.44333297908805597,
            -0.267825393590306,
            -0.527028822816405,
            -1.1072874263953902,
            -0.0543502050811303,
            -1.0695548998325615,
            -0.28082847756476276,
            -1.0397884504290635,
            0.3623210089183598,
            -1.0446990505668547,
            0.4209068868115906,
            -0.4330494359484063,
            -0.09377497474141167,
            -0.48594466952934734,
            0.0
          ],
          [
            0.0,
            0.4256325417814272,
            -0.5956199739602518,
            -0.2046851918552378,
            -0.19268822928382706,
            -0.2576292449071746,
            -0.48548568513119433,
            -0.5893845220928302,
            -0.07562245258913271,
            -0.5701438749657277,
            -0.5590442637754974,
            -0.5434496147727208,
            0.2833555797334276,
            -0.543475439728434,
            0.08830189331986253,
            -0.4071470390625144,
            0.02850891128574346,
            -0.3170870585696119,
            0.0
          ],
          [
            0.0,
            0.43153734475822114,
            -0.9112587354105305,
            -0.18380889475782022,
            -0.33949507535205486,
            -0.33186126940356314,
            -0.5966342559291864,
            -0.8742029725371346,
            -0.07209066762109709,
            -0.8480815189722644,
            -0.5743364734528286,
            -0.8259794815265636,
            0.33065014248489033,
            -0.8135333610870134,
            0.3762353760843276,
            -0.5176647169695744,
            0.03871289304570121,
            -0.38470050379465415,
            0.0
          ],
          [
            0.0,
            0.41723539457709846,
            -1.2121824376809467,
            -0.24418948921745345,
            -0.29723098674122406,
            -0.19929760881700737,
            -0.49017559382318865,
            -1.1861024006419922,
            -0.10164513867331865,
            -1.153636925619527,
            -0.521459518738615,
            -1.1219592170765447,
            0.3705199757024562,
            -1.1176992765136857,
            0.49563474094886395,
            -1.1315661985209335,
            -0.02528842404153879,
            -0.5750376364462567,
            0.0
          ],
          [
            0.0,
            0.49159174309435916,
            -1.0445553011610527,
            -0.2544021960930031,
            -0.07427834843902106,
            -0.37333074238789943,
            -0.5171320099463229,
            -1.038949903938612,
            -0.09192237844259017,
            -1.0051597179893537,
            -0.6297821460632375,
            -0.9705372986580765,
            0.3441395462087582,
            -0.9436486194253191,
            0.011313937965818434,
            -0.18993841846302367,
            0.010172070192594066,
            -0.410637645225659,
            0.0
          ],
          [
            0.0,
            0.5491526909300942,
            -2.08351060192779,
            -0.10573350533002294,
            -0.4112711682110439,
            -0.14158139053967056,
            -0.5687884967726264,
            -2.089057876441779,
            -0.10488689610881168,
            -2.0600941337056176,
            -1.9578145570396375,
            -2.0300032148345397,
            0.3132009169404691,
            -2.0298911105481428,
            0.08522764859294518,
            -0.8251064220544873,
            0.031234435297557477,
            -0.24223786286600602,
            0.0
          ],
          [
            0.0,
            0.47421601143129255,
            -1.049398535065674,
            -0.1654155200987799,
            -0.47869983954269246,
            -0.2532746000472795,
            -0.5423852909504567,
            -1.0690110481624708,
            -0.07675244560251787,
            -1.020032973416896,
            -0.9432496575399919,
            -0.9813879194115923,
            0.34944867453348594,
            -0.9753440745063243,
            0.26229421210601733,
            -0.7818856533043723,
            -0.02019807223508411,
            -0.4129740396488333,
            0.0
          ],
          [
            0.0,
            0.38952703677723677,
            -1.2624106600609104,
            -0.2226327865593801,
            -0.5658396977682114,
            -0.22245279176349383,
            -0.4866629281985502,
            -1.2387348989251175,
            -0.08025168084336815,
            -1.2011872318574945,
            -0.4088780118272779,
            -1.18267851378299,
            0.34343415236114844,
            -1.1461746566194475,
            0.14054765433988956,
            -0.35424297891365236,
            -0.011551157932030216,
            -0.5173334728801107,
            0.0
          ],
          [
            0.0,
            0.5661967652914114,
            -0.5905904741669926,
            -0.2745733400125898,
            -0.3555238223682986,
            -0.17614784922719848,
            -0.5820579637069498,
            -0.5788285649065494,
            -0.06411915465111596,
            -0.5437192261206218,
            -0.3112466868507089,
            -0.5059457534686207,
            0.31804942996715047,
            -0.49448569418569943,
            0.16326340428923847,
            -0.41993563534233946,
            0.0038654752042675614,
            -0.2593975457234903,
            0.0
          ]
        ],
        "bin_weights": [
          0.0,
          265.0,
          5.0,
          448.0,
          14.0,
          163.0,
          588.0,
          1.0,
          430.0,
          1.0,
          31.0,
          9.0,
          1309.0,
          1.0,
          28.0,
          24.0,
          1005.0,
          75.0,
          0.0
        ]
      },
      {
        "term_features": [
          "VehiclePrice_num"
        ],
        "scores": [
          0.0,
          -0.5451922828001557,
          0.15151958781231892,
          -0.07742001529940326,
          0.0
        ],
        "standard_deviations": [
          0.0,
          0.04036532297101474,
          0.01744489396195682,
          0.05409489423630785,
          0.0
        ],
        "bagged_scores": [
          [
            0.0,
            -0.5756681735941807,
            0.1458876767068179,
            -0.029952276159827596,
            0.0
          ],
          [
            0.0,
            -0.5672900222381115,
            0.1577024336897904,
            -0.08071025773469018,
            0.0
          ],
          [
            0.0,
            -0.5520757292713446,
            0.17256709355813066,
            -0.1486779893784672,
            0.0
          ],
          [
            0.0,
            -0.4977582244226156,
            0.11932645365728499,
            -0.0008597594582089637,
            0.0
          ],
          [
            0.0,
            -0.47775490445415186,
            0.11225362910047479,
            0.007539907129808615,
            0.0
          ],
          [
            0.0,
            -0.57686770882898,
            0.17025740150309057,
            -0.1184076459943442,
            0.0
          ],
          [
            0.0,
            -0.5716576420852032,
            0.14638227583869906,
            -0.03529333525691196,
            0.0
          ],
          [
            0.0,
            -0.5880866036467554,
            0.17718296163761857,
            -0.1339860596789025,
            0.0
          ],
          [
            0.0,
            -0.5811369170027807,
            0.1558785161345967,
            -0.06184256212324028,
            0.0
          ],
          [
            0.0,
            -0.4769455284766953,
            0.15415280381665208,
            -0.14706618495310708,
            0.0
          ],
          [
            0.0,
            -0.5621382727910665,
            0.14704772042044692,
            -0.04610300611173961,
            0.0
          ],
          [
            0.0,
            -0.5892989924531741,
            0.14910038965708022,
            -0.02977390753161271,
            0.0
          ],
          [
            0.0,
            -0.5133613454407708,
            0.16040152676539454,
            -0.13801583956282365,
            0.0
          ],
          [
            0.0,
            -0.5026518944963504,
            0.15313334688638763,
            -0.12073129737757828,
            0.0
          ]
        ],
        "bin_weights": [
          0.0,
          696.0,
          2909.0,
          792.0,
          0.0
        ]
      },
      {
        "term_features": [
          "VehicleCategory"
        ],
        "scores": [
          0.0,
          0.007247706641432926,
          -3.1985334000781385,
          0.07520600307342137,
          0.0
        ],
        "standard_deviations": [
          0.0,
          0.002644514657727078,
          0.7914980366028542,
          0.03454857735826086,
          0.0
        ],
        "bagged_scores": [
          [
            0.0,
            0.008709562624212224,
            -2.547989428163032,
            0.024228889905659686,
            0.0
          ],
          [
            0.0,
            0.012945271044536997,
            -4.210472025153989,
            0.057623160691821634,
            0.0
          ],
          [
            0.0,
            0.008194088647767842,
            -3.839193806565354,
            0.09641086472701071,
            0.0
          ],
          [
            0.0,
            0.0041928991733167584,
            -1.5907738919161447,
            0.030253733357842476,
            0.0
          ],
          [
            0.0,
            0.009034477427860364,
            -3.216264723421332,
            0.05439630674958483,
            0.0
          ],
          [
            0.0,
            0.009671356467515801,
            -4.109406618860734,
            0.09225205074052861,
            0.0
          ],
          [
            0.0,
            0.004170110013134066,
            -2.0335814756805166,
            0.053136486076321966,
            0.0
          ],
          [
            0.0,
            0.004905769332428603,
            -3.5630940241164257,
            0.12227912889381586,
            0.0
          ],
          [
            0.0,
            0.008263221415553905,
            -3.114248600848724,
            0.05856146890595092,
            0.0
          ],
          [
            0.0,
            0.0032895320537931413,
            -3.8523261372550306,
            0.15668711144635036,
            0.0
          ],
          [
            0.0,
            0.008011341055952827,
            -3.0975929543673173,
            0.06077232123364356,
            0.0
          ],
          [
            0.0,
            0.0053343453276259185,
            -2.5447377273553644,
            0.0650824198923096,
            0.0
          ],
          [
            0.0,
            0.009383540803664003,
            -4.206722976383423,
            0.10071802091918909,
            0.0
          ],
          [
            0.0,
            0.005362377592698504,
            -2.8530632110065564,
            0.08048207948786976,
            0.0
          ]
        ],
        "bin_weights": [
          0.0,
          4047.0,
          17.0,
          333.0,
          0.0
        ]
      },
      {
        "term_features": [
          "AgeOfVehicle"
        ],
        "scores": [
          0.0,
          -2.603354611338477,
          -0.6154898531001856,
          -1.1971042380504668,
          -0.4163168569243449,
          0.2646793348387003,
          0.09958697753887168,
          0.006776018686637719,
          -1.0389172493344057,
          0.0
        ],
        "standard_deviations": [
          0.0,
          0.7659369956698937,
          0.2388474677618578,
          0.19701802780591005,
          0.08231252944149658,
          0.04971487900408248,
          0.040749302686797315,
          0.03300728322069249,
          0.6696642198309621,
          0.0
        ],
        "bagged_scores": [
          [
            0.0,
            -2.099718170402289,
            -0.41334966297902126,
            -1.1175019706511655,
            -0.48828955201845875,
            0.22319817020007598,
            0.10527804809101855,
            0.0006871045221405374,
            -0.7540069809003982,
            0.0
          ],
          [
            0.0,
            -3.4623805520442805,
            -0.4564108841565593,
            -1.1089884696946541,
            -0.2679819103494382,
            0.24871594944366637,
            0.15169474225561191,
            0.027156084910706504,
            -2.094856251855635,
            0.0
          ],
          [
            0.0,
            -3.56816888110731,
            -0.9479274974633127,
            -1.4462052707191964,
            -0.41254022423173714,
            0.3686241000976159,
            0.0857816627032786,
            0.05702631745105459,
            -1.7561797041921565,
            0.0
          ],
          [
            0.0,
            -1.1498130520701362,
            -0.4634409859274514,
            -0.9092339944452472,
            -0.2700321368061163,
            0.2188416489304432,
            0.0153305074464673,
            -0.05784767601974554,
            0.23561631298503022,
            0.0
          ],
          [
            0.0,
            -2.9184324829246875,
            -0.6660657961342106,
            -1.4011128090303544,
            -0.41819196310058476,
            0.3061302597771723,
            0.11658088274372887,
            -0.01123921395356733,
            -1.188249370271394,
            0.0
          ],
          [
            0.0,
            -3.5297465063027245,
            -0.8489025040738404,
            -1.616590254864681,
            -0.36920983049663,
            0.36971060644856857,
            0.07689551957520979,
            0.027081492601982,
            -1.4306342469270008,
            0.0
          ],
          [
            0.0,
            -1.382361733522335,
            -0.15054483437374502,
            -1.1107991754184963,
            -0.4912167908773706,
            0.20244954621842898,
            0.06675324769574524,
            -0.04014010341137632,
            0.08087988508695038,
            0.0
          ],
          [
            0.0,
            -2.697720128081586,
            -0.4686845786964877,
            -1.312468650802109,
            -0.4567109898624835,
            0.2446313731431301,
            0.1392623613378648,
            -0.02461406929864042,
            -0.958117179185326,
            0.0
          ],
          [
            0.0,
            -2.143556444814932,
            -0.8869386294978644,
            -1.0325356563997312,
            -0.36010464766509154,
            0.2436099148100168,
            0.049138999491942364,
            0.03635208884217375,
            -0.7606554770512732,
            0.0
          ],
          [
            0.0,
            -3.5285426040791377,
            -0.8229303363674872,
            -1.0842152356164554,
            -0.4834208152141274,
            0.2623752458451162,
            0.17982713545898282,
            0.038945675316786596,
            -2.0150045292784666,
            0.0
          ],
          [
            0.0,
            -2.6016163391757487,
            -0.9587857554090785,
            -1.1927412534830042,
            -0.4409055625445075,
            0.2548771375013739,
            0.1070129624322057,
            0.018591875782682704,
            -1.0100643302531325,
            0.0
          ],
          [
            0.0,
            -1.9572932270415442,
            -0.5363525023365375,
            -0.9388264062992486,
            -0.5689174933132146,
            0.22045359289385363,
            0.1122234817068728,
            0.0011134453719476075,
            -0.683369100266371,
            0.0
          ],
          [
            0.0,
            -3.032316304164555,
            -0.36448498092868875,
            -1.111673485140619,
            -0.4491215733130238,
            0.2633031201996293,
            0.10999738563760252,
            0.04297507144895853,
            -1.5179078178362637,
            0.0
          ],
          [
            0.0,
            -2.3752981330074183,
            -0.6320389950583113,
            -1.3765667001415742,
            -0.35179250714804383,
            0.27859002223271373,
            0.07844074896767213,
            -0.02122383195217514,
            -0.6922927007362385,
            0.0
          ]
        ],
        "bin_weights": [
          0.0,
          9.0,
          46.0,
          60.0,
          315.0,
          881.0,
          1584.0,
          1362.0,
          140.0,
          0.0
        ]
      },
      {
        "term_features": [
          "Sex"
        ],
        "scores": [
          0.0,
          -0.7035128545257208,
          0.0831977307615616,
          0.0
        ],
        "standard_deviations": [
          0.0,
          0.07276775819858013,
          0.008605546175569627,
          0.0
        ],
        "bagged_scores": [
          [
            0.0,
            -0.7727994232949712,
            0.09139158998783357,
            0.0
          ],
          [
            0.0,
            -0.6674769728329197,
            0.07893611199575482,
            0.0
          ],
          [
            0.0,
            -0.7425202147681746,
            0.08781075785025466,
            0.0
          ],
          [
            0.0,
            -0.638158924527233,
            0.07546894707659287,
            0.0
          ],
          [
            0.0,
            -0.8284741340561521,
            0.09797570507022142,
            0.0
          ],
          [
            0.0,
            -0.7022696652756842,
            0.08305071066968292,
            0.0
          ],
          [
            0.0,
            -0.6882646472810141,
            0.08139447125780047,
            0.0
          ],
          [
            0.0,
            -0.5933089194676877,
            0.07016496631548196,
            0.0
          ],
          [
            0.0,
            -0.5894631140257476,
            0.06971015972074586,
            0.0
          ],
          [
            0.0,
            -0.6361658011069724,
            0.07523323944932406,
            0.0
          ],
          [
            0.0,
            -0.7055268630598095,
            0.08343590827131517,
            0.0
          ],
          [
            0.0,
            -0.6974710724933567,
            0.08248322703698141,
            0.0
          ],
          [
            0.0,
            -0.8080705611776885,
            0.0955627698239129,
            0.0
          ],
          [
            0.0,
            -0.779209649992678,
            0.0921496661359602,
            0.0
          ]
        ],
        "bin_weights": [
          0.0,
          465.0,
          3932.0,
          0.0
        ]
      },
      {
        "term_features": [
          "MaritalStatus"
        ],
        "scores": [
          0.0,
          -0.6300693657483285,
          0.057117812206016756,
          -0.143002616840983,
          -0.8649382746474564,
          0.0
        ],
        "standard_deviations": [
          0.0,
          0.32400513333429176,
          0.010080422256186942,
          0.025352254376612003,
          0.26580743103374616,
          0.0
        ],
        "bagged_scores": [
          [
            0.0,
            -0.5856534091524053,
            0.05822226306315969,
            -0.14726179723037447,
            -0.7110859304916884,
            0.0
          ],
          [
            0.0,
            -0.7327693671653737,
            0.06502782721599652,
            -0.16219426171384638,
            -1.0794126704259186,
            0.0
          ],
          [
            0.0,
            -0.7193266464466016,
            0.05477774061717433,
            -0.13474789850820945,
            -1.0252978694065162,
            0.0
          ],
          [
            0.0,
            -0.35407754969213606,
            0.04255774771105844,
            -0.1081559196722579,
            -0.6354953356708329,
            0.0
          ],
          [
            0.0,
            -0.16942471237309423,
            0.04185781114381824,
            -0.10949758425598514,
            -0.46273715636211166,
            0.0
          ],
          [
            0.0,
            -0.6750183881111845,
            0.05037485676097935,
            -0.12378640171077816,
            -0.9304555510015864,
            0.0
          ],
          [
            0.0,
            -0.37049274416303535,
            0.05905670427896208,
            -0.15315809702747596,
            -0.545486576090374,
            0.0
          ],
          [
            0.0,
            -1.4149401761170048,
            0.07023630268970311,
            -0.16553182334806452,
            -1.4431866811632197,
            0.0
          ],
          [
            0.0,
            -0.5183690769905703,
            0.07403312485934803,
            -0.19079553135434857,
            -0.7943441578273661,
            0.0
          ],
          [
            0.0,
            -0.6115878489576037,
            0.07198564557805963,
            -0.18358140968339534,
            -0.8842710847069667,
            0.0
          ],
          [
            0.0,
            -0.2744734823675803,
            0.04479915548302978,
            -0.11566731173214737,
            -0.5560993527186864,
            0.0
          ],
          [
            0.0,
            -0.5507469624416668,
            0.05675413860448439,
            -0.14330833244740954,
            -0.8141261412155278,
            0.0
          ],
          [
            0.0,
            -0.6397538140866242,
            0.0580639019942371,
            -0.1447109099468548,
            -1.0371240893461349,
            0.0
          ],
          [
            0.0,
            -1.2043369424117167,
            0.051902150884223966,
            -0.11963935714261476,
            -1.1900132486374608,
            0.0
          ]
        ],
        "bin_weights": [
          0.0,
          16.0,
          3199.0,
          1177.0,
          5.0,
          0.0
        ]
      },
      {
        "term_features": [
          "Age"
        ],
        "scores": [
          0.0,
          1.1418598900491326,
          1.1299084532304422,
          1.6238719706282185,
          -1.4093798457001387,
          -1.4195790932698735,
          -0.27718669326323864,
          -0.42109573142025486,
          -0.8190980465666445,
          -0.7803101235268962,
          -0.3225452861031906,
          -0.11444907137361396,
          0.08450357645844439,
          0.0003909889709408183,
          -0.008580754769149688,
          -0.00686693303804237,
          0.04131705816620193,
          -0.03234888790833163,
          -0.05988749863050412,
          0.01665840579981945,
          0.15016824073513035,
          0.14802500082479256,
          0.18423397073794856,
          0.19874088915405458,
          0.43341747513579504,
          0.2808932023430228,
          -0.04635141485074071,
          -0.07186723286105039,
          -0.0487619783952679,
          -0.3305679271876507,
          -0.3370419532207139,
          -0.31560234602675696,
          0.3624097643071278,
          0.40180048472507524,
          0.40900803146117914,
          0.3605558175918979,
          0.26075053874318704,
          0.3157385420497256,
          0.25131909585969814,
          -0.19542252988151243,
          -0.4406852044816978,
          -0.42510390888925476,
          -0.236482706900572,
          -0.3799767507458267,
          -0.19495747415577855,
          0.30461264887069317,
          0.16246535566374992,
          -0.34123844260091374,
          0.04235169041558963,
          -0.4304045161636306,
          -0.409596542755166,
          -0.2876436283712175,
          -0.0072336284347186705,
          -0.10828273762573691,
          -0.8103696504366936,
          -0.7191900758356052,
          -0.07953913061347163,
          -0.10889527947386031,
          -0.4090051336039372,
          -1.3820441796269458,
          -1.2689606524758448,
          -1.6992697623387438,
          -1.2334735473427962,
          -4.93740891074831,
          -4.953044857350313,
          0.0
        ],
        "standard_deviations": [
          0.0,
          0.5066277805258786,
          0.5061791978874235,
          1.1115191980819348,
          1.4898599637951289,
          1.4895280724148914,
          0.4391029941346796,
          0.5578373135113448,
          0.8589182389093459,
          0.798205706374261,
          0.25854060105250826,
          0.186059441256629,
          0.04881259161328067,
          0.13502661508091085,
          0.13946749006083192,
          0.14210735521075857,
          0.11629092733392594,
          0.15658235987123884,
          0.17268075880481543,
          0.1094612345256672,
          0.12015055489414413,
          0.12127931861165689,
          0.12995601772825285,
          0.149887872865971,
          0.32126110668551766,
          0.2566556819403206,
          0.18065304573405566,
          0.16422572761291612,
          0.19937926436139475,
          0.14171481874007646,
          0.14457239448015236,
          0.15218829539114068,
          0.2803180090076803,
          0.331043981991954,
          0.3376698839450461,
          0.30201769522761546,
          0.21447040106676077,
          0.30574765011701655,
          0.2964523665932267,
          0.14845519015206926,
          0.357160823350388,
          0.32441161860533807,
          0.21744332534649566,
          0.32411278697855384,
          0.30609468464323014,
          0.30840601958485875,
          0.2737297042350212,
          0.4507221873455532,
          0.23565283334072554,
          0.31896413662142875,
          0.270951006603836,
          0.15687336782729458,
          0.2556124165619398,
          0.19376873399357605,
          0.6293339332338415,
          0.5188576714202386,
          0.1721032274806757,
          0.2756378197653725,
          0.3441756511472848,
          0.42831901533678035,
          0.4813128769122716,
          0.7351379720125827,
          0.30916139760289074,
          2.024980496069515,
          2.024636839564355,
          0.0
        ],
        "bagged_scores": [
          [
            0.0,
            0.9833539570599082,
            0.9720623692377935,
            0.9720623692377935,
            -0.029662687426530818,
            -0.029662687426530818,
            0.06307400390200513,
            0.04955801825068909,
            -0.16795110256368853,
            -0.16795110256368853,
            -0.1704286240095668,
            -0.022967346287838614,
            0.08110497978239409,
            0.08110497978239409,
            0.08110497978239409,
            0.08110497978239409,
            0.07884026168175756,
            0.07884026168175756,
            0.0736972186642604,
            0.06977619684049396,
            0.06977619684049396,
            0.06977619684049396,
            0.06977619684049396,
            0.06613317232468087,
            0.05568466998459752,
            0.048745018341520965,
            -0.3230207684079312,
            -0.33055314111073436,
            -0.352409597597286,
            -0.35905965562042047,
            -0.3702613826763142,
            -0.38866861274411685,
            0.16034726593935825,
            0.16034726593935825,
            0.16034726593935825,
            0.15353200342698745,
            0.1490113066513362,
            0.13934319873947287,
            -0.025361542597002774,
            -0.17776041467193043,
            -0.18319888319658517,
            -0.19578686242420856,
            -0.06518756179896482,
            -0.06619056161851353,
            0.07996132787739901,
            0.31478207765776844,
            0.31220529741477254,
            0.11974996639592522,
            0.11974996639592522,
            -0.17787143672264488,
            -0.17787143672264488,
            -0.18401858454750147,
            -0.18695691604185005,
            -0.20312234786928762,
            -0.2076679775512177,
            -0.21776677867812028,
            -0.08474200436970147,
            -0.08474200436970147,
            -0.10456561601220418,
            -0.8557793822821519,
            -0.8661933763904278,
            -0.985854981768437,
            -1.0432644039021641,
            -3.5420823134594284,
            -3.5420823134594284,
            0.0
          ],
          [
            0.0,
            1.4386419279528055,
            1.4306101440992618,
            2.6463148549274824,
            -2.847442451055679,
            -2.847442451055679,
            -0.5973459276869283,
            -1.018093686175074,
            -1.6053307490381743,
            -1.4857283832045638,
            -0.5355206835559125,
            -0.49975951752183695,
            0.007557389082682213,
            -0.2533812667270894,
            -0.3040325771296347,
            -0.23137172332772798,
            -0.23523658487723248,
            -0.43993196919596605,
            -0.44580641978888996,
            -0.2225353324260993,
            0.2852770734824071,
            0.28054185199373616,
            0.4353854892254154,
            0.4264798704992899,
            0.7759566513383804,
            0.6518863773112838,
            0.30558991534219715,
            0.13003269138227205,
            0.11792025194828985,
            -0.3688762508404012,
            -0.3785494929631207,
            -0.38171113292718223,
            0.49501268093555584,
            0.4877603931934742,
            0.5839765526231349,
            0.5486794842291779,
            0.416060395415029,
            0.5883945375400973,
            0.546718377439024,
            -0.4253626892065184,
            -0.4387214389530429,
            -0.41966073396745335,
            0.07999285778903702,
            -0.24870133838527836,
            0.16440933020974907,
            0.8134842243506805,
            0.4140020179948479,
            -0.5578982289255487,
            0.3506677197014945,
            -0.3743451281278795,
            -0.3743451281278795,
            -0.3757095309672765,
            0.44288996487047505,
            0.44288996487047505,
            -0.648637794780634,
            -0.6549454208678654,
            0.22112562673331065,
            0.6212489241379787,
            -0.15022733990599635,
            -1.318687526024908,
            -1.0283407870994852,
            -1.918226695027911,
            -0.9142897610328254,
            -6.627693548162623,
            -6.647765075170928,
            0.0
          ],
          [
            0.0,
            1.9699621030046237,
            1.9321937718764444,
            2.367707746471681,
            -1.8465354447039464,
            -1.8769345375029571,
            -0.08947057922383005,
            -0.6339801447121837,
            -1.012441599640575,
            -1.012441599640575,
            -0.49008418144660715,
            -0.27163914020104896,
            0.10131268614331261,
            -0.10948937109640818,
            -0.11233823683799073,
            -0.11233823683799073,
            -0.11609871235179943,
            -0.19055366462733592,
            -0.19055366462733592,
            -0.2036828286145062,
            0.15340105663628745,
            0.13663410709811552,
            0.3039338958483211,
            0.3039338958483211,
            0.8097584935139301,
            0.5053680834391875,
            -0.07175925521716946,
            -0.07175925521716946,
            -0.019500230233065005,
            -0.41749437842291165,
            -0.42686965118581144,
            -0.43486352148036794,
            0.46248272987287736,
            0.4551621125643515,
            0.4854993942009542,
            0.3831149566606521,
            0.2914444092754186,
            0.28777815914902183,
            0.28777815914902183,
            -0.3905743858254822,
            -0.5791708130864001,
            -0.5883896917674435,
            -0.2733491242276183,
            -0.44642445484349824,
            -0.11531482584734344,
            0.5157991403190839,
            0.3277255173787932,
            -0.485273449482729,
            0.25460523359305354,
            -0.41307291999823165,
            -0.4171079639099267,
            -0.25744890585292984,
            0.05333465947979996,
            -0.022206450731084765,
            -0.9093235110494101,
            -0.9093235110494101,
            0.15693369796405962,
            -0.1176928510482576,
            -0.4873758069444408,
            -1.6675327715803945,
            -1.6675327715803945,
            -1.6814907431952049,
            -1.182381291001152,
            -5.6654360075246695,
            -5.6654360075246695,
            0.0
          ],
          [
            0.0,
            0.2105284875700165,
            0.2105284875700165,
            0.198068426893131,
            0.17344484766524254,
            0.16628065115025192,
            0.15637381963701774,
            0.14787866815545275,
            0.14252659270416498,
            0.13772248960743314,
            0.13772248960743314,
            0.13837688094541234,
            0.14359858131508255,
            0.14359858131508255,
            0.14359858131508255,
            0.13579669472159545,
            0.13579669472159545,
            0.11265772728537327,
            0.11265772728537327,
            0.09450702439838529,
            0.08338499458335724,
            0.07901052675303523,
            0.0675652646686014,
            0.0675652646686014,
            0.0675652646686014,
            0.05836081432736538,
            -0.05929738965902755,
            -0.07940866866757314,
            -0.086097886896344,
            -0.086097886896344,
            -0.086097886896344,
            -0.08982910617175459,
            -0.08982910617175459,
            -0.09403636850192028,
            -0.10691393187786423,
            -0.10691393187786423,
            -0.11049023136381499,
            -0.11049023136381499,
            -0.1183451368128934,
            -0.12228856404418191,
            -0.12776644868632525,
            -0.1329250962568548,
            -0.13366141728913059,
            -0.13995601553482165,
            -0.13995601553482165,
            -0.1398080560629115,
            -0.1431208530905068,
            -0.1458941210740661,
            -0.1458941210740661,
            -0.15240236280224148,
            -0.15403779154428335,
            -0.1544139051086564,
            -0.15722106947536077,
            -0.15722106947536077,
            -0.15722106947536077,
            -0.1709656258547925,
            -0.17305358783976674,
            -0.1930507924994854,
            -0.23262204520132218,
            -0.8085519781686672,
            -0.819881154561038,
            -0.8511988954309948,
            -0.8511988954309948,
            -1.2041907774126877,
            -1.244265906337488,
            0.0
          ],
          [
            0.0,
            1.4742668403935706,
            1.4742668403935706,
            1.4396241397801892,
            -0.5969146458230841,
            -0.6134063729777526,
            0.12709311593716688,
            0.119165846399922,
            -0.2066993163350267,
            -0.21564706664823768,
            -0.21901774399444118,
            -0.09870197155794841,
            0.033167444849374464,
            -0.07124443816005716,
            -0.07623675007139846,
            -0.07623675007139846,
            -0.07623675007139846,
            -0.07966826768192434,
            -0.08432355690467355,
            0.004330816252225415,
            -0.0015214760658399037,
            -0.00635487045085676,
            -0.001912183148965886,
            0.0033153465155735737,
            0.2949081008281616,
            0.0376710345632019,
            -0.2821740494323318,
            -0.2875376603443157,
            -0.2875376603443157,
            -0.45046680974366854,
            -0.47226123013160554,
            -0.47226123013160554,
            0.45633720812959316,
            0.4522594727402373,
            0.44924762543481495,
            0.44562154301527784,
            0.27743686619708896,
            0.27743686619708896,
            0.26963521187878914,
            -0.07576906140106782,
            -0.07576906140106782,
            -0.07576906140106782,
            -0.08087163052059965,
            -0.08326926775176047,
            0.2250285718371428,
            0.725728216743647,
            0.6239094916107418,
            0.05084142711611397,
            0.4745948357745125,
            -0.19629977542594643,
            -0.19847019644983313,
            -0.19935554285138893,
            -0.05970850602043675,
            -0.06459625619118856,
            -0.8763532163982224,
            -0.8889222978908435,
            -0.186192343119235,
            -0.22954375477704536,
            -0.2812589846660223,
            -1.7616421014316304,
            -2.7064538027367777,
            -2.7250709371809374,
            -2.115726116128384,
            -4.976302726516457,
            -4.976302726516457,
            0.0
          ],
          [
            0.0,
            1.7062704707962122,
            1.6951471810290086,
            3.4456731526964917,
            -3.641139474224821,
            -3.6553735246633767,
            -0.7413052339504977,
            -1.2018047580687654,
            -2.2436943933310385,
            -1.9132110735418184,
            -0.7201602795796762,
            -0.23240681277784525,
            0.02653235535285861,
            -0.16707056407480853,
            -0.13652316180047205,
            -0.08041291507283718,
            0.15380713288889758,
            -0.10347140840591129,
            -0.2567816719156271,
            0.05979905749111052,
            0.38389343688168814,
            0.36118886222419516,
            0.343497028690608,
            0.4676336324512305,
            0.8904850247462863,
            0.6936514841250032,
            0.21819538609312408,
            0.20197610998531423,
            0.1904145506568125,
            -0.34976969372558214,
            -0.36383537265721716,
            -0.3698673368681819,
            0.5681857843885816,
            0.9423550712698281,
            0.9423550712698281,
            0.7344239333459028,
            0.5111975514992456,
            0.5374269472627741,
            0.5057805047835408,
            -0.03718574258122069,
            -0.9956918331199376,
            -0.8025301494675663,
            -0.2521285689190794,
            -1.0409954225792917,
            -0.4280073280404874,
            0.10346634267998342,
            -0.040672051094976264,
            -0.732654340353317,
            -0.16714351447813391,
            -0.8911214435326917,
            -0.8902388218354547,
            -0.4502036389674056,
            -0.05191331887744907,
            -0.05191331887744907,
            -2.0629055070090407,
            -2.077637418498478,
            -0.2768633657304238,
            -0.6559079136145318,
            -0.878302868979657,
            -1.9872128606779635,
            -1.5373380050982723,
            -2.976075842614961,
            -1.4206632800164767,
            -8.010076746562559,
            -8.010076746562559,
            0.0
          ],
          [
            0.0,
            0.20714765937612828,
            0.18296989331852542,
            0.16441906386463234,
            0.16441906386463234,
            0.15733706009878823,
            0.15427154840003565,
            0.15020105537248968,
            0.13348797058643913,
            0.13089701498371956,
            0.13089701498371956,
            0.12010008352878565,
            0.17449259849673907,
            0.15933131770927003,
            0.1501149322172892,
            0.1501149322172892,
            0.14615244702213884,
            0.13472359278341373,
            0.13472359278341373,
            0.13472359278341373,
            0.1204011016272819,
            0.11627924841403439,
            0.11627924841403439,
            0.11065762478936814,
            0.10492907428325526,
            0.10492907428325526,
            -0.13843718344738462,
            -0.1457703843695976,
            -0.1457703843695976,
            -0.16886849817932229,
            -0.17534715493871242,
            -0.17534715493871242,
            -0.05251690504940689,
            -0.056125188270661895,
            -0.06180948624314649,
            -0.06618291940557314,
            -0.07082744404079305,
            -0.07082744404079305,
            -0.1629734068127246,
            -0.16903506400867815,
            -0.17869947044777126,
            -0.18700723061611615,
            -0.1893775966679242,
            -0.19239067595024248,
            -0.19590914919790878,
            -0.04864242885937944,
            -0.04864242885937944,
            -0.05349434667558469,
            -0.055062166450337145,
            -0.06530934126353966,
            -0.06813023376008703,
            -0.06813023376008703,
            -0.07186922047041808,
            -0.07849928442983761,
            -0.09546394629633756,
            -0.09546394629633756,
            -0.09546394629633756,
            -0.11858219226460348,
            -0.8904420919570863,
            -0.963175664242232,
            -1.0122295723283325,
            -1.0283203819800772,
            -1.0536222892039273,
            -2.1897544273120437,
            -2.1897544273120437,
            0.0
          ],
          [
            0.0,
            1.061783267724193,
            1.0523235954725803,
            1.0683308770803015,
            -1.5901822964655938,
            -1.5901822964655938,
            -0.6144546054928641,
            -0.742528911630141,
            -1.0510494431705526,
            -1.0554693134669666,
            -0.48567674071777656,
            -0.10599232285312112,
            0.054339592696915205,
            0.048268985337530754,
            0.015304109100693575,
            0.05727803891865061,
            0.11580606238925759,
            -0.07599816488824392,
            -0.0850889209032498,
            0.1266772489633953,
            0.21076954282383176,
            0.20452610814036842,
            0.20069347192700837,
            0.2772569165201719,
            0.6348103234792271,
            0.19576007123505307,
            0.0406257473905301,
            0.0406257473905301,
            0.03620024386566939,
            -0.2860893145056023,
            -0.2860893145056023,
            -0.2894101005966914,
            0.6041576783629566,
            0.5961329500942357,
            0.5901785904176831,
            0.46588949634469473,
            0.25067405463050296,
            0.2384404027297224,
            0.229655863262048,
            -0.4144034436561214,
            -0.5321990575855803,
            -0.540777491733074,
            -0.38587725986283533,
            -0.38587725986283533,
            -0.38587725986283533,
            0.46438511772123575,
            0.011688269141864237,
            -0.38400758402301877,
            0.026564201013454303,
            -0.5348302695948456,
            -0.539702173877688,
            -0.539702173877688,
            -0.07587603456880508,
            -0.3644831553771757,
            -0.9293500923177624,
            -0.9293500923177624,
            -0.080018536751796,
            -0.09895347329840522,
            -0.3306590119175735,
            -2.132156620941374,
            -1.5632814886282582,
            -1.5940425801972635,
            -1.4494091647725555,
            -5.546971002070474,
            -5.546971002070474,
            0.0
          ],
          [
            0.0,
            0.7359447780567029,
            0.7188713866793842,
            0.7188713866793842,
            -0.5691098686901443,
            -0.5860689871875557,
            -0.19160407421716857,
            -0.19585927230403138,
            -0.558717702762331,
            -0.558717702762331,
            -0.535240578504484,
            0.10089844394811327,
            0.09809373816927168,
            0.09809373816927168,
            0.0784879333857479,
            0.0784879333857479,
            0.0784879333857479,
            0.045673434228477874,
            0.031818428164805464,
            0.02372153332141694,
            0.015259951809378374,
            0.00931573289027295,
            0.15760854210307237,
            0.15280975918244183,
            0.3774912977376666,
            0.3774912977376666,
            -0.04799831919610384,
            -0.053344063578596335,
            -0.053344063578596335,
            -0.4216146906270585,
            -0.4216146906270585,
            -0.43088867867607816,
            0.4069777715791349,
            0.4069777715791349,
            0.4023613675774878,
            0.37976067234250505,
            0.3264900264817119,
            0.3264900264817119,
            0.20834109298810383,
            -0.26065525917983867,
            -0.26514463910732466,
            -0.2717339903881114,
            -0.27230595500436905,
            -0.28032714327796404,
            -0.17580098536421035,
            0.3184411791891568,
            0.09319065860162079,
            -0.27535848641645416,
            0.07472627212794561,
            -0.5446154361594957,
            -0.5446154361594957,
            -0.5478663010224256,
            -0.3370463505371616,
            -0.3393920236402749,
            -0.9340008426128311,
            -0.9356397537552567,
            -0.3161305442417087,
            -0.3233636545426275,
            -0.41750862129735034,
            -1.3736154557843605,
            -1.3872177082756645,
            -1.4178208011456892,
            -1.4270588043263375,
            -4.555827566930682,
            -4.5961472928963945,
            0.0
          ],
          [
            0.0,
            1.5157771800230233,
            1.5157771800230233,
            3.30510920127732,
            -3.7631052180148132,
            -3.77729806833817,
            -1.0745536495067243,
            -1.1458095170230786,
            -2.3221822536545904,
            -2.199121241789865,
            -0.4634240947364742,
            -0.23381223628407766,
            0.049698206477276616,
            -0.10857878123912353,
            -0.13557993385666078,
            -0.10228627133629352,
            0.07333751577969805,
            0.01926544856014107,
            -0.06451407634126392,
            0.008933174424652697,
            0.37788834011130107,
            0.37145133882063236,
            0.364072192445719,
            0.4106335273304714,
            0.8573770412754957,
            0.6497864175001635,
            0.1707025222371878,
            0.16449080287156223,
            0.332876608370172,
            0.0011995163312933793,
            0.0011995163312933793,
            -0.009552028055887854,
            0.6145936448406633,
            0.8965966715143818,
            0.8915263857150866,
            0.7750617246063365,
            0.5596293166299554,
            0.9155764117026286,
            0.78480480293988,
            0.06437064426046996,
            -1.3531046174420691,
            -1.2865580267565992,
            -0.9051698703263205,
            -1.1465562814775958,
            -1.0858304858764571,
            -0.25249851152119984,
            -0.47115771586108385,
            -1.632736577773543,
            -0.5395842141745307,
            -1.2174461014469107,
            -0.940182914137918,
            -0.28581288670397714,
            0.3760160268348432,
            -0.17539636938426112,
            -1.339601454860433,
            -1.1172783747762849,
            -0.2151972100723591,
            -0.2370702599047973,
            -0.28412937511466424,
            -1.7795647069391711,
            -0.9276335607151687,
            -2.756077306742177,
            -1.3408765247950436,
            -7.723037777142948,
            -7.742518250390103,
            0.0
          ],
          [
            0.0,
            1.3853341587336552,
            1.377864056791217,
            1.377864056791217,
            -0.6643319392267665,
            -0.6767750135075165,
            0.2390611493441942,
            0.22115256493714394,
            -0.2776596341506849,
            -0.28173599853833403,
            -0.26250150713831943,
            -0.030501142788102877,
            0.14943875170778492,
            0.13928289839855912,
            0.1370693434261884,
            0.13194881001578918,
            0.13194881001578918,
            0.08511479523481288,
            0.08086812163833376,
            0.08086812163833376,
            0.07594351714828831,
            0.054818938279956916,
            0.10747554105502533,
            0.09672235058483902,
            0.39682464438862874,
            0.13836274693681033,
            -0.13918517468474922,
            -0.2315685803692049,
            -0.23743703317525722,
            -0.5016891543849716,
            -0.5071276044840818,
            -0.5071276044840818,
            0.1790169317079897,
            0.17285845561844326,
            0.17285845561844326,
            0.11830933381774533,
            0.1126739283180701,
            0.10875184385282696,
            0.10875184385282696,
            -0.3350348552488496,
            -0.3452396297496836,
            -0.35112809842565607,
            -0.3126555985097193,
            -0.3162791268646831,
            -0.3162791268646831,
            0.32117834818638197,
            0.29263177844375843,
            -0.15086486715801983,
            0.01452175503980599,
            -0.4535258192506418,
            -0.45778502955229755,
            -0.1783149296939909,
            -0.1813807982412812,
            -0.1875847668004537,
            -0.7996972250020035,
            -0.8047505431860188,
            -0.2103740192768516,
            -0.2103740192768516,
            -0.2204530137217744,
            -1.2384646875837062,
            -1.2625414009403892,
            -1.2948785587579945,
            -1.260526996160389,
            -4.492912411201264,
            -4.532968117186867,
            0.0
          ],
          [
            0.0,
            0.7585140828392432,
            0.7318355825067857,
            0.7135168677555648,
            -0.21470989435435878,
            -0.21470989435435878,
            -0.21852508621169514,
            -0.22482971393437823,
            -0.23169353204596235,
            -0.2349884809250242,
            -0.2380714508886014,
            -0.01517110060701641,
            0.12566241441210044,
            0.12373887276706327,
            0.12373887276706327,
            0.11523203825945627,
            0.1106448224788622,
            0.09512388277758818,
            0.08962225196087023,
            0.08625622751517986,
            0.08305454355902374,
            0.07962372961352346,
            0.10798526506755579,
            0.09615483414323636,
            0.0839887833271685,
            0.07212018545538057,
            -0.11068768987792424,
            -0.11833032506300209,
            -0.11833032506300209,
            -0.3894437995791181,
            -0.3894437995791181,
            -0.3894437995791181,
            0.1074894025571459,
            0.10391213925856421,
            0.10391213925856421,
            0.10391213925856421,
            0.09896023785948357,
            0.09517195884626142,
            0.05729113296137836,
            -0.14062833931330845,
            -0.14368129221168072,
            -0.14798261348911543,
            -0.13142304803255686,
            -0.13375681061182879,
            -0.13528040648545006,
            0.2688964897666782,
            0.2688964897666782,
            0.14073520641506604,
            0.13774885097630116,
            -0.29792829581847646,
            -0.3050008937691302,
            -0.3061821596015064,
            -0.31082768608326516,
            -0.31082768608326516,
            -0.31082768608326516,
            -0.3135335969666935,
            -0.06583402335879043,
            -0.07242227178696356,
            -0.11533688623583227,
            -1.0011462026015803,
            -1.0131614971088132,
            -1.0888860850229594,
            -1.1023606079455424,
            -3.34461023420151,
            -3.34461023420151,
            0.0
          ],
          [
            0.0,
            1.4624418736384301,
            1.44819618270924,
            3.240573771820524,
            -4.013490218032986,
            -4.013490218032986,
            -1.056938039345287,
            -1.3751730832073221,
            -2.00808048545739,
            -2.0100622678126796,
            -0.6062406223903484,
            -0.40949958051087926,
            0.048282957546383176,
            -0.16554326913912804,
            -0.16818373838266365,
            -0.31815959463616467,
            -0.09351582018538375,
            -0.20936509991772262,
            -0.30278853070835576,
            -0.09859938773143707,
            0.18991065343718141,
            0.26062180351244396,
            0.255359657291936,
            0.25152027339608296,
            0.6872793589530584,
            0.4641083223763865,
            0.04773596558526121,
            0.03421498167185803,
            0.21165019717994998,
            -0.4559560096692243,
            -0.46370735944594493,
            -0.09672298597100405,
            0.9587868807981773,
            0.9022401117084244,
            0.9210812331245145,
            0.9210812331245145,
            0.6467553474537355,
            0.9037825489603828,
            0.7969623746024396,
            -0.02583125874149328,
            -0.7217772486395976,
            -0.7217772486395976,
            -0.1576112149003328,
            -0.6030324990740246,
            -0.06653561734619769,
            0.6735297759789967,
            0.4562898291156609,
            -0.6461034872374644,
            0.07463533988084452,
            -0.6745083742332121,
            -0.6281874674564832,
            -0.43596701324498327,
            0.5031734420420751,
            0.040279428226074165,
            -2.0302397916799664,
            -0.9091987105633823,
            0.26167191569197007,
            0.2548196444409547,
            -1.265281368795874,
            -1.590332511525256,
            -1.07765521319913,
            -2.5758440676781365,
            -1.170503457069014,
            -7.766517011090273,
            -7.805867734045228,
            0.0
          ],
          [
            0.0,
            1.0760716735193423,
            1.0760716735193423,
            1.0760716735193423,
            -0.292557613313094,
            -0.3163809655147959,
            -0.03629014727076509,
            -0.045217305944290576,
            -0.05788700307361361,
            -0.05788700307361361,
            -0.05788700307361361,
            -0.04121123626319087,
            0.08976837438604587,
            0.08736216255061477,
            0.08334507931626584,
            0.07470500144889682,
            0.07470500144889682,
            0.07470500144889682,
            0.06804451986528164,
            0.06844223634090742,
            0.054916437417144096,
            0.054916437417144096,
            0.051555979902454946,
            0.051555979902454946,
            0.030785923376672828,
            -0.06573609482995975,
            -0.2592095146360484,
            -0.2592095146360484,
            -0.2713023682971803,
            -0.37372435476377786,
            -0.3785819213303565,
            -0.38273955174981444,
            0.2026947324089167,
            0.19876592744320096,
            0.19149177739764886,
            0.19149177739764886,
            0.19149177739764886,
            0.18306436263877815,
            0.029428064401342963,
            -0.22575698472295286,
            -0.22942842911670297,
            -0.22942842911670297,
            -0.23113190833759373,
            -0.23591765260923564,
            -0.15401266768479538,
            0.18583516803958303,
            0.17756867872970694,
            -0.024379307220151532,
            -0.027206492508014747,
            -0.03238652191407101,
            -0.038676111269201896,
            -0.04388499099722713,
            -0.04388499099722713,
            -0.04388499099722713,
            -0.04388499099722713,
            -0.04388499099722713,
            -0.0494094879209727,
            -0.0588992938297075,
            -0.06790883970532315,
            -0.8707560449938494,
            -0.8959887959996697,
            -0.8959887959996697,
            -0.9367480710143397,
            -3.478312200888721,
            -3.4978621692302423,
            0.0
          ]
        ],
        "bin_weights": [
          0.0,
          123.0,
          13.0,
          12.0,
          5.0,
          25.0,
          42.0,
          36.0,
          28.0,
          19.0,
          114.0,
          120.0,
          139.0,
          150.0,
          153.0,
          152.0,
          158.0,
          157.0,
          134.0,
          122.0,
          99.0,
          98.0,
          112.0,
          127.0,
          136.0,
          115.0,
          117.0,
          114.0,
          104.0,
          85.0,
          77.0,
          75.0,
          86.0,
          100.0,
          93.0,
          106.0,
          95.0,
          88.0,
          89.0,
          78.0,
          48.0,
          41.0,
          50.0,
          47.0,
          51.0,
          52.0,
          38.0,
          54.0,
          57.0,
          43.0,
          14.0,
          16.0,
          13.0,
          16.0,
          6.0,
          21.0,
          29.0,
          17.0,
          16.0,
          18.0,
          13.0,
          7.0,
          15.0,
          8.0,
          11.0,
          0.0
        ]
      },
      {
        "term_features": [
          "DriverRating"
        ],
        "scores": [
          0.0,
          0.10156279069546,
          0.15028992940794692,
          0.10204842396588754,
          -0.3968319301181615,
          0.0
        ],
        "standard_deviations": [
          0.0,
          0.02183033200288397,
          0.02234401731037903,
          0.0266338374337281,
          0.04448556933295523,
          0.0
        ],
        "bagged_scores": [
          [
            0.0,
            0.08295465424881227,
            0.136446287568312,
            0.08308899599240335,
            -0.3386149593307783,
            0.0
          ],
          [
            0.0,
            0.13173731599119776,
            0.1412749975713969,
            0.08081692369270463,
            -0.3989126599176247,
            0.0
          ],
          [
            0.0,
            0.10765982038443057,
            0.16795932554618764,
            0.10728862321736851,
            -0.4289968359569575,
            0.0
          ],
          [
            0.0,
            0.13486958745268673,
            0.1195337515953398,
            0.05546982352947814,
            -0.35068248793956047,
            0.0
          ],
          [
            0.0,
            0.0855001106263541,
            0.14396906532354936,
            0.09543969103383763,
            -0.3636103897724175,
            0.0
          ],
          [
            0.0,
            0.058935784947011786,
            0.1483323767397664,
            0.13133174258326036,
            -0.3772307191626392,
            0.0
          ],
          [
            0.0,
            0.11130331695464925,
            0.1091684074264801,
            0.07627720013319393,
            -0.33500692241686314,
            0.0
          ],
          [
            0.0,
            0.10421382884528968,
            0.1798469533460889,
            0.15621078265310162,
            -0.49268293013247755,
            0.0
          ],
          [
            0.0,
            0.11693820318919086,
            0.12221804109313633,
            0.08166552431387111,
            -0.36180387802639746,
            0.0
          ],
          [
            0.0,
            0.08309590176908645,
            0.14997997228643964,
            0.14546701151329564,
            -0.42342254092378107,
            0.0
          ],
          [
            0.0,
            0.10801036646926945,
            0.18031675439134162,
            0.10485727692998499,
            -0.4400245494467302,
            0.0
          ],
          [
            0.0,
            0.1211747301400228,
            0.16361233260928632,
            0.10941029654069916,
            -0.44265224859083885,
            0.0
          ],
          [
            0.0,
            0.06895427039743607,
            0.17935275598753522,
            0.09527303705836032,
            -0.38208104175790236,
            0.0
          ],
          [
            0.0,
            0.10653117832100208,
            0.16204799022639693,
            0.10608100633086619,
            -0.41992485827929277,
            0.0
          ]
        ],
        "bin_weights": [
          0.0,
          1185.0,
          1083.0,
          1126.0,
          1003.0,
          0.0
        ]
      },
      {
        "term_features": [
          "AgeOfPolicyHolder"
        ],
        "scores": [
          0.0,
          1.769970222869372,
          -0.6274807148117564,
          1.0224164796408377,
          0.2340123354792748,
          -0.14241616958790226,
          -0.5745787510824956,
          -0.14270871678046868,
          0.19908856822215132,
          0.0
        ],
        "standard_deviations": [
          0.0,
          0.3979138566706571,
          0.7209885316115334,
          0.650512559000803,
          0.1220968354683192,
          0.16540324666875425,
          0.23574582356383933,
          0.23960956788025098,
          0.2017806385753386,
          0.0
        ],
        "bagged_scores": [
          [
            0.0,
            1.6231468752676137,
            -0.28178550148808623,
            0.5777430635894412,
            0.11411220845841935,
            0.04395267368950188,
            -0.4324608458180559,
            -0.2571382706937047,
            0.0672266718010543,
            0.0
          ],
          [
            0.0,
            2.5893846822007887,
            -1.1360950729879715,
            1.5225298640273877,
            0.47958734653644375,
            -0.39448181746080824,
            -0.6749707563786117,
            -0.3609454076171061,
            0.028983722645487577,
            0.0
          ],
          [
            0.0,
            1.6708634539317102,
            -1.053203385454045,
            1.1419126770901202,
            0.32971215270503534,
            -0.23489941447590107,
            -0.5745457944425675,
            -0.16942782189192168,
            0.1343626408714042,
            0.0
          ],
          [
            0.0,
            1.1561106317603416,
            -0.00044424876744102865,
            0.017748118390983888,
            0.10437475845525529,
            0.0005293981378816752,
            -0.27524752574076305,
            -0.14984772702935917,
            0.10684357848400494,
            0.0
          ],
          [
            0.0,
            1.3962262106885763,
            -0.30303927133172043,
            0.6142698335490542,
            0.26151220505560835,
            0.011910150740266232,
            -0.5525328073106086,
            -0.4972708223873718,
            0.40228814126401713,
            0.0
          ],
          [
            0.0,
            1.687332170334278,
            -1.7389439203925434,
            1.891137702318617,
            0.334644554431505,
            -0.3467177788819705,
            -0.841881288014779,
            0.12457991495812151,
            0.6288014371501762,
            0.0
          ],
          [
            0.0,
            1.4686141916493365,
            0.005733919629775626,
            0.3596769254873208,
            0.10702425917545004,
            -0.033947780752325664,
            -0.28427105834536515,
            -0.15452361658508407,
            -0.11019872614354188,
            0.0
          ],
          [
            0.0,
            1.978807375195581,
            -0.29695610033080216,
            1.2744396565599365,
            0.23509532361774535,
            -0.2521723086319086,
            -0.5999230474904969,
            -0.06919843624248168,
            0.3451780024567196,
            0.0
          ],
          [
            0.0,
            1.7938205969118655,
            0.0815625623272252,
            0.780570355349194,
            0.18547775833629077,
            -0.05059388754117313,
            -0.5696359012850299,
            -0.2949277372225254,
            0.43510427220477876,
            0.0
          ],
          [
            0.0,
            2.598005130538411,
            -1.7051320314404825,
            2.1880533182283504,
            0.3194173975002865,
            -0.43358535826502476,
            -1.0482636551158515,
            0.5463628792264648,
            0.33558795166277455,
            0.0
          ],
          [
            0.0,
            1.4798681582597062,
            -0.32101756387689306,
            0.682153138790233,
            0.1273532271210336,
            -0.06371206814914052,
            -0.3475619371792048,
            -0.23451103028811815,
            0.1429597963277596,
            0.0
          ],
          [
            0.0,
            1.732929947481188,
            -0.08867131061049906,
            0.6635734619173123,
            0.1384027355427409,
            -0.05005431462353423,
            -0.3836668320837451,
            -0.2663467906738378,
            0.06216535201662782,
            0.0
          ],
          [
            0.0,
            2.005075533836412,
            -2.018961402998498,
            2.078786908202067,
            0.4251816309238162,
            -0.25928790994461626,
            -0.994996407761157,
            -0.01964689219645222,
            0.2678597720201116,
            0.0
          ],
          [
            0.0,
            1.5993981621153952,
            0.07222332035739179,
            0.5212356914717092,
            0.11427713885021673,
            0.06923404192812138,
            -0.4641446581887022,
            -0.19508027628318447,
            -0.059922657651256234,
            0.0
          ]
        ],
        "bin_weights": [
          0.0,
          123.0,
          27.0,
          157.0,
          1401.0,
          1103.0,
          882.0,
          484.0,
          220.0,
          0.0
        ]
      },
      {
        "term_features": [
          "NumberOfCars"
        ],
        "scores": [
          0.0,
          0.03465105265280943,
          -0.40978832658465586,
          -0.8463501051170348,
          -1.2558302497001557,
          -1.5816321403243094,
          0.0
        ],
        "standard_deviations": [
          0.0,
          0.009831803557342929,
          0.2764814297978372,
          0.10207353115501733,
          0.11539735832851938,
          0.19271226582746157,
          0.0
        ],
        "bagged_scores": [
          [
            0.0,
            0.049345911939417106,
            -0.8045284115490573,
            -0.784797271234432,
            -1.245679891396455,
            -1.5819158126770876,
            0.0
          ],
          [
            0.0,
            0.02364385926519187,
            -0.11587995003058682,
            -0.891161569676066,
            -1.2240309481556053,
            -1.5479902034633684,
            0.0
          ],
          [
            0.0,
            0.033836562476960944,
            -0.35496043186177634,
            -0.9157090869736899,
            -1.2885235684068603,
            -1.6137924651131745,
            0.0
          ],
          [
            0.0,
            0.040343495810452504,
            -0.6467716629958713,
            -0.6549956708234778,
            -1.1427356338132666,
            -1.5469870462499167,
            0.0
          ],
          [
            0.0,
            0.03837471571764875,
            -0.5196426117272281,
            -0.8183155996013455,
            -1.1206253081178228,
            -1.4784409753090197,
            0.0
          ],
          [
            0.0,
            0.03748359872518669,
            -0.4091787697614954,
            -0.9745097098970417,
            -1.5403742394474926,
            -1.9023951075535623,
            0.0
          ],
          [
            0.0,
            0.043681517360610114,
            -0.6163960495896709,
            -0.8871732367783159,
            -1.2434083204769202,
            -1.2434021999420204,
            0.0
          ],
          [
            0.0,
            0.026249778100755235,
            -0.22781236096302745,
            -0.8027532362089876,
            -1.0815864483791882,
            -1.3850582422593578,
            0.0
          ],
          [
            0.0,
            0.03359823085687894,
            -0.33383251050268054,
            -0.9415667182677817,
            -1.3525412645121444,
            -1.803970179219784,
            0.0
          ],
          [
            0.0,
            0.010596207995694773,
            0.26478053288300507,
            -0.998534037380278,
            -1.3570589824010484,
            -1.8195419682142662,
            0.0
          ],
          [
            0.0,
            0.028005110512618267,
            -0.24075355824171943,
            -0.860027438056044,
            -1.2370238133529525,
            -1.2370160019715835,
            0.0
          ],
          [
            0.0,
            0.04262563372574587,
            -0.6941536483962449,
            -0.6729943740979825,
            -1.143161577692726,
            -1.6317762646104665,
            0.0
          ],
          [
            0.0,
            0.03197977781393028,
            -0.3105484290372274,
            -0.9078135087229219,
            -1.350938547079037,
            -1.725963216837269,
            0.0
          ],
          [
            0.0,
            0.04535033683824069,
            -0.7273587104116014,
            -0.7385500139201217,
            -1.2539349525706611,
            -1.6246002811194569,
            0.0
          ]
        ],
        "bin_weights": [
          0.0,
          4144.0,
          167.0,
          81.0,
          4.0,
          1.0,
          0.0
        ]
      },
      {
        "term_features": [
          "PastNumberOfClaims"
        ],
        "scores": [
          0.0,
          0.08191339184645732,
          0.052142165874283546,
          -0.6120007505003469,
          -0.01670271605999062,
          0.0
        ],
        "standard_deviations": [
          0.0,
          0.01859653416666255,
          0.031439286426030354,
          0.08978156594186522,
          0.01986311046650666,
          0.0
        ],
        "bagged_scores": [
          [
            0.0,
            0.08215296401292065,
            0.06158530290108799,
            -0.6223442784039832,
            -0.02161748610155573,
            0.0
          ],
          [
            0.0,
            0.07205241685471343,
            0.10044778174744937,
            -0.8008027777492301,
            -0.018688884488286962,
            0.0
          ],
          [
            0.0,
            0.1144678101849259,
            0.06343417552147984,
            -0.6190978115225445,
            -0.0447556948173843,
            0.0
          ],
          [
            0.0,
            0.06065654319358831,
            0.01116106941990784,
            -0.6061351097968356,
            0.022659301156771627,
            0.0
          ],
          [
            0.0,
            0.11097179699446821,
            0.006801519181819686,
            -0.6363112399161778,
            -0.004722212707678919,
            0.0
          ],
          [
            0.0,
            0.062375521203853077,
            0.05892950593669201,
            -0.6554736573273775,
            -0.0028869524570757817,
            0.0
          ],
          [
            0.0,
            0.058289576850373795,
            -0.003943488128478246,
            -0.4292733022773799,
            0.013270387767773343,
            0.0
          ],
          [
            0.0,
            0.09758345065547563,
            0.06522462964400283,
            -0.6111839971528201,
            -0.03551735907731139,
            0.0
          ],
          [
            0.0,
            0.06790360032806252,
            0.08534657176030964,
            -0.6613004544028647,
            -0.022560214223549223,
            0.0
          ],
          [
            0.0,
            0.07433783171616974,
            0.0793114889331334,
            -0.5503357718159136,
            -0.03591317003880172,
            0.0
          ],
          [
            0.0,
            0.10230920901510333,
            0.017925176049039794,
            -0.5401381494169817,
            -0.017089104859250574,
            0.0
          ],
          [
            0.0,
            0.0693753057176321,
            0.059471912911105096,
            -0.7455529163249245,
            0.002530566866695297,
            0.0
          ],
          [
            0.0,
            0.09982695589609783,
            0.0406484517358715,
            -0.5833573836187614,
            -0.024747622171758854,
            0.0
          ],
          [
            0.0,
            0.07448450322701812,
            0.08364622462654883,
            -0.5067036572790602,
            -0.043799579688455464,
            0.0
          ]
        ],
        "bin_weights": [
          0.0,
          1217.0,
          1148.0,
          211.0,
          1821.0,
          0.0
        ]
      },
      {
        "term_features": [
          "PolicyType"
        ],
        "scores": [
          0.0,
          0.007068948370064926,
          -3.120343652319187,
          0.07338681091823855,
          0.0
        ],
        "standard_deviations": [
          0.0,
          0.0029125541686984835,
          0.7240622909841852,
          0.040835583896037815,
          0.0
        ],
        "bagged_scores": [
          [
            0.0,
            0.00992170062264339,
            -2.6730397396954833,
            0.01588154100596223,
            0.0
          ],
          [
            0.0,
            0.012603364385032158,
            -4.076678308649415,
            0.05494809483728197,
            0.0
          ],
          [
            0.0,
            0.007105080347888289,
            -3.3328935978326655,
            0.08379859157733158,
            0.0
          ],
          [
            0.0,
            0.004223544776158749,
            -1.5940445819821738,
            0.03004826481856606,
            0.0
          ],
          [
            0.0,
            0.009678111869392948,
            -3.0177258948259302,
            0.03643850293275544,
            0.0
          ],
          [
            0.0,
            0.007566455592269561,
            -3.9026111195229762,
            0.10727610585578284,
            0.0
          ],
          [
            0.0,
            0.0041023488131581845,
            -2.0011252422811467,
            0.05230307348927423,
            0.0
          ],
          [
            0.0,
            0.002571167417127736,
            -3.3892095411861236,
            0.14177491790705157,
            0.0
          ],
          [
            0.0,
            0.00847547130383883,
            -2.9995851022762507,
            0.05012827138756916,
            0.0
          ],
          [
            0.0,
            0.0030974345841322595,
            -4.017112212526185,
            0.1674342037566423,
            0.0
          ],
          [
            0.0,
            0.008802437675592752,
            -3.1316505825988754,
            0.05289668057374482,
            0.0
          ],
          [
            0.0,
            0.0061293292573968,
            -2.762455410525051,
            0.06653557499772078,
            0.0
          ],
          [
            0.0,
            0.009991976976848026,
            -4.028497356379851,
            0.08422499769715766,
            0.0
          ],
          [
            0.0,
            0.0046968535594292884,
            -2.7581824421864987,
            0.08372653201849896,
            0.0
          ]
        ],
        "bin_weights": [
          0.0,
          4047.0,
          17.0,
          333.0,
          0.0
        ]
      },
      {
        "term_features": [
          "Deductible"
        ],
        "scores": [
          0.0,
          1.457974673767021,
          1.1028826391924853,
          0.5794123150746682,
          -0.021423694146427565,
          1.1001407528296678,
          -0.09976493742680345,
          0.0
        ],
        "standard_deviations": [
          0.0,
          0.18767063502202241,
          0.12365403772946384,
          0.11767511420659149,
          0.007980115773996549,
          0.4545501284638253,
          0.15083242418764997,
          0.0
        ],
        "bagged_scores": [
          [
            0.0,
            1.5621759594783646,
            1.094249774795376,
            0.6311792966321407,
            -0.010205849391281583,
            0.5784837785870437,
            -0.12519514034042428,
            0.0
          ],
          [
            0.0,
            1.319444865857586,
            0.8270630969982992,
            0.4036938625700544,
            -0.02357508504790661,
            1.316384069152441,
            -0.20854799624259876,
            0.0
          ],
          [
            0.0,
            1.2577028405164765,
            1.257697096186375,
            0.78010918941865,
            -0.029617730059303043,
            1.4741415542248275,
            -0.07702559884815421,
            0.0
          ],
          [
            0.0,
            1.6367757196409753,
            1.0512701648002323,
            0.48305053606400755,
            -0.008464758272683188,
            0.2689369658810815,
            0.10926263968311986,
            0.0
          ],
          [
            0.0,
            1.6282670567619708,
            1.2515254476168025,
            0.49891097458946543,
            -0.016614610486177527,
            0.9850577348925522,
            -0.22518126585110324,
            0.0
          ],
          [
            0.0,
            0.963512807066868,
            0.9635076297154533,
            0.4542171751571628,
            -0.024378914499481968,
            1.3412938124679572,
            -0.19192432577785187,
            0.0
          ],
          [
            0.0,
            1.6079120274905847,
            1.2526495719041042,
            0.8085348497237013,
            -0.013212209754918014,
            0.5253412092769907,
            0.07644500165241311,
            0.0
          ],
          [
            0.0,
            1.5011786988070552,
            1.1314907704875046,
            0.5054483494366464,
            -0.02653128342240993,
            1.3016330647836751,
            -0.05164981621516757,
            0.0
          ],
          [
            0.0,
            1.3483074861781918,
            1.1534609266263711,
            0.5373037149286568,
            -0.021775629595725283,
            1.115731310133384,
            -0.09701443245940423,
            0.0
          ],
          [
            0.0,
            1.4904158685117275,
            1.0433370295333537,
            0.6498916205349666,
            -0.029225927778226583,
            1.846100908149759,
            -0.4806348871447363,
            0.0
          ],
          [
            0.0,
            1.3614342993866868,
            1.0603755176895384,
            0.5186244039703508,
            -0.027182509001922577,
            1.216799745112147,
            0.07130623177757718,
            0.0
          ],
          [
            0.0,
            1.6474432844968754,
            1.1821401894566148,
            0.6428684394107479,
            -0.011278081847791215,
            0.6449615067429241,
            -0.14234242091400007,
            0.0
          ],
          [
            0.0,
            1.4430951367360219,
            0.9598244207533791,
            0.6866997455040412,
            -0.03566909090901411,
            1.8124124862141875,
            -0.12070160351025198,
            0.0
          ],
          [
            0.0,
            1.643979381808909,
            1.211765312131391,
            0.5112402531047615,
            -0.022200037983144266,
            0.9746923939963805,
            0.06649449021533382,
            0.0
          ]
        ],
        "bin_weights": [
          0.0,
          1.0,
          1.0,
          1.0,
          4223.0,
          87.0,
          84.0,
          0.0
        ]
      },
      {
        "term_features": [
          "AgentType"
        ],
        "scores": [
          0.0,
          0.0,
          0.0
        ],
        "standard_deviations": [
          0.0,
          0.0,
          0.0
        ],
        "bagged_scores": [
          [
            0.0,
            0.0,
            0.0
          ],
          [
            0.0,
            0.0,
            0.0
          ],
          [
            0.0,
            0.0,
            0.0
          ],
          [
            0.0,
            0.0,
            0.0
          ],
          [
            0.0,
            0.0,
            0.0
          ],
          [
            0.0,
            0.0,
            0.0
          ],
          [
            0.0,
            0.0,
            0.0
          ],
          [
            0.0,
            0.0,
            0.0
          ],
          [
            0.0,
            0.0,
            0.0
          ],
          [
            0.0,
            0.0,
            0.0
          ],
          [
            0.0,
            0.0,
            0.0
          ],
          [
            0.0,
            0.0,
            0.0
          ],
          [
            0.0,
            0.0,
            0.0
          ],
          [
            0.0,
            0.0,
            0.0
          ]
        ],
        "bin_weights": [
          0.0,
          4397.0,
          0.0
        ]
      },
      {
        "term_features": [
          "NumberOfSuppliments"
        ],
        "scores": [
          0.0,
          0.17944566952727542,
          -0.8154586224407849,
          -0.16868470283081813,
          0.20485394859727196,
          0.0
        ],
        "standard_deviations": [
          0.0,
          0.03837376897636424,
          0.053745203730512406,
          0.02263704005191487,
          0.01391395542736765,
          0.0
        ],
        "bagged_scores": [
          [
            0.0,
            0.11469871418706043,
            -0.8377823106358581,
            -0.14562430090010045,
            0.2225919616757413,
            0.0
          ],
          [
            0.0,
            0.17262363338767409,
            -0.8482564839711627,
            -0.1838503107061942,
            0.22145143072175122,
            0.0
          ],
          [
            0.0,
            0.2542968232640782,
            -0.826604459809282,
            -0.1699001025316249,
            0.18239900497976314,
            0.0
          ],
          [
            0.0,
            0.16404728577829084,
            -0.7805732585012226,
            -0.17670839173897915,
            0.20519059359811026,
            0.0
          ],
          [
            0.0,
            0.20743892125914876,
            -0.8472561318339161,
            -0.15204090147815838,
            0.19581467427658927,
            0.0
          ],
          [
            0.0,
            0.23054708575600338,
            -0.9062980347305685,
            -0.14864313092434703,
            0.20056943795019505,
            0.0
          ],
          [
            0.0,
            0.17481535223761152,
            -0.7420887137164534,
            -0.17863795865946902,
            0.1931248609446521,
            0.0
          ],
          [
            0.0,
            0.20814376096739326,
            -0.8563200293987958,
            -0.166014583402478,
            0.20365858590942038,
            0.0
          ],
          [
            0.0,
            0.16669550834530744,
            -0.7127711421019309,
            -0.1723499868125324,
            0.18623661169308195,
            0.0
          ],
          [
            0.0,
            0.19128698722424342,
            -0.8287497023905676,
            -0.14002357744065466,
            0.1918332056952206,
            0.0
          ],
          [
            0.0,
            0.15684009529903417,
            -0.8735077882628481,
            -0.15880994311349977,
            0.22228253836415823,
            0.0
          ],
          [
            0.0,
            0.1100713100090994,
            -0.7565554150677196,
            -0.20082606121796842,
            0.2281527106931802,
            0.0
          ],
          [
            0.0,
            0.19865410664542882,
            -0.7600828385261496,
            -0.22358898004875832,
            0.20830293468412303,
            0.0
          ],
          [
            0.0,
            0.16207978902148243,
            -0.8395744052245133,
            -0.1445676106566889,
            0.2063467291758212,
            0.0
          ]
        ],
        "bin_weights": [
          0.0,
          751.0,
          524.0,
          929.0,
          2193.0,
          0.0
        ]
      },
      {
        "term_features": [
          "Days_Policy_Accident"
        ],
        "scores": [
          0.0,
          0.027155494060169476,
          0.17613632139892435,
          -0.07427161705462001,
          0.00015412363149712316,
          -0.13029993357912253,
          0.0
        ],
        "standard_deviations": [
          0.0,
