{
  "version": "1.0",
  "ebm": {
    "outputs": [
      {
        "task": "classification",
        "classes": [
          0,
          1
        ],
        "link": "logit",
        "link_param": "nan"
      }
    ],
    "intercept": [
      -1.544720774921856
    ],
    "bagged_intercept": [
      -1.530215304986529,
      -1.5529348881915825,
      -1.5934747264880231,
      -1.4733919251223762,
      -1.5855046949095748,
      -1.5907280432224726,
      -1.5936140277907889,
      -1.4691839139448921,
      -1.5750070219592975,
      -1.5263480266704872,
      -1.5576827296137827,
      -1.4253657748554611,
      -1.5709176152961635,
      -1.5817221558545538
    ],
    "bag_weights": [
      4778.0,
      4778.0,
      4778.0,
      4778.0,
      4778.0,
      4778.0,
      4778.0,
      4778.0,
      4778.0,
      4778.0,
      4778.0,
      4778.0,
      4778.0,
      4778.0
    ],
    "best_iteration": [
      [
        13687,
        21777,
        33549,
        6625,
        51126,
        42437,
        29101,
        5494,
        37515,
        11964,
        20863,
        4664,
        26290,
        32042
      ]
    ],
    "implementation": "python",
    "implementation_params": {
      "feature_names": null,
      "feature_types": null,
      "max_bins": 1024,
      "max_interaction_bins": 64,
      "interactions": false,
      "exclude": null,
      "validation_size": 0.15,
      "outer_bags": 14,
      "inner_bags": 0,
      "learning_rate": 0.015,
      "greedy_ratio": 10.0,
      "smoothing_rounds": 75,
      "interaction_smoothing_rounds": 75,
      "max_rounds": 25000,
      "early_stopping_rounds": 100,
      "early_stopping_tolerance": 1e-05,
      "min_samples_leaf": 4,
      "min_hessian": 0.0001,
      "reg_alpha": 0.0,
      "reg_lambda": 0.0,
      "max_delta_step": 0.0,
      "max_leaves": 2,
      "objective": "log_loss",
      "n_jobs": -2,
      "random_state": 42
    },
    "features": [
      {
        "name": "Make",
        "type": "nominal",
        "num_unique_vals": 18,
        "categories": [
          [
            "Accura",
            "BMW",
            "Chevrolet",
            "Dodge",
            "Ferrari",
            "Ford",
            "Honda",
            "Jaguar",
            "Mazda",
            "Mecedes",
            "Mercury",
            "Nisson",
            "Pontiac",
            "Porche",
            "Saab",
            "Saturn",
            "Toyota",
            "VW"
          ]
        ]
      },
      {
        "name": "VehiclePrice_num",
        "type": "nominal",
        "num_unique_vals": 3,
        "categories": [
          [
            "30000 to 59000",
            "less than 30000",
            "more than 60000"
          ]
        ]
      },
      {
        "name": "VehicleCategory",
        "type": "nominal",
        "num_unique_vals": 3,
        "categories": [
          [
            "Sedan",
            "Sport",
            "Utility"
          ]
        ]
      },
      {
        "name": "AgeOfVehicle",
        "type": "nominal",
        "num_unique_vals": 8,
        "categories": [
          [
            "2 years",
            "3 years",
            "4 years",
            "5 years",
            "6 years",
            "7 years",
            "more than 7",
            "new"
          ]
        ]
      },
      {
        "name": "Sex",
        "type": "nominal",
        "num_unique_vals": 2,
        "categories": [
          [
            "Female",
            "Male"
          ]
        ]
      },
      {
        "name": "MaritalStatus",
        "type": "nominal",
        "num_unique_vals": 4,
        "categories": [
          [
            "Divorced",
            "Married",
            "Single",
            "Widow"
          ]
        ]
      },
      {
        "name": "Age",
        "type": "continuous",
        "num_unique_vals": 66,
        "cuts": [
          [
            8.0,
            16.5,
            17.5,
            18.5,
            19.5,
            20.5,
            21.5,
            22.5,
            23.5,
            24.5,
            25.5,
            26.5,
            27.5,
            28.5,
            29.5,
            30.5,
            31.5,
            32.5,
            33.5,
            34.5,
            35.5,
            36.5,
            37.5,
            38.5,
            39.5,
            40.5,
            41.5,
            42.5,
            43.5,
            44.5,
            45.5,
            46.5,
            47.5,
            48.5,
            49.5,
            50.5,
            51.5,
            52.5,
            53.5,
            54.5,
            55.5,
            56.5,
            57.5,
            58.5,
            59.5,
            60.5,
            61.5,
            62.5,
            63.5,
            64.5,
            65.5,
            66.5,
            67.5,
            68.5,
            69.5,
            70.5,
            71.5,
            72.5,
            73.5,
            74.5,
            75.5,
            76.5,
            77.5,
            78.5,
            79.5
          ]
        ],
        "min": 0.0,
        "max": 80.0,
        "histogram_weights": [
          0.0,
          58.0,
          0.0,
          0.0,
          13.0,
          197.0,
          393.0,
          1203.0,
          926.0,
          591.0,
          673.0,
          439.0,
          397.0,
          263.0,
          228.0,
          134.0,
          34.0,
          32.0,
          40.0,
          0.0
        ]
      },
      {
        "name": "DriverRating",
        "type": "continuous",
        "num_unique_vals": 4,
        "cuts": [
          [
            1.5,
            2.5,
            3.5
          ]
        ],
        "min": 1.0,
        "max": 4.0,
        "histogram_weights": [
          0.0,
          1452.0,
          0.0,
          0.0,
          0.0,
          0.0,
          1487.0,
          0.0,
          0.0,
          0.0,
          0.0,
          1484.0,
          0.0,
          0.0,
          0.0,
          0.0,
          1198.0,
          0.0
        ]
      },
      {
        "name": "AgeOfPolicyHolder",
        "type": "nominal",
        "num_unique_vals": 9,
        "categories": [
          [
            "16 to 17",
            "18 to 20",
            "21 to 25",
            "26 to 30",
            "31 to 35",
            "36 to 40",
            "41 to 50",
            "51 to 65",
            "over 65"
          ]
        ]
      },
      {
        "name": "NumberOfCars",
        "type": "nominal",
        "num_unique_vals": 5,
        "categories": [
          [
            "1 vehicle",
            "2 vehicles",
            "3 to 4",
            "5 to 8",
            "more than 8"
          ]
        ]
      },
      {
        "name": "PastNumberOfClaims",
        "type": "nominal",
        "num_unique_vals": 4,
        "categories": [
          [
            "1",
            "2 to 4",
            "more than 4",
            "none"
          ]
        ]
      },
      {
        "name": "PolicyType",
        "type": "nominal",
        "num_unique_vals": 3,
        "categories": [
          [
            "Sedan - Collision",
            "Sport - Collision",
            "Utility - Collision"
          ]
        ]
      },
      {
        "name": "Deductible",
        "type": "continuous",
        "num_unique_vals": 5,
        "cuts": [
          [
            340.5,
            390.5,
            450.0,
            600.0
          ]
        ],
        "min": 300.0,
        "max": 700.0,
        "histogram_weights": [
          0.0,
          2.0,
          0.0,
          0.0,
          0.0,
          1.0,
          5401.0,
          0.0,
          0.0,
          0.0,
          0.0,
          0.0,
          120.0,
          0.0,
          0.0,
          0.0,
          0.0,
          0.0,
          0.0,
          0.0,
          0.0,
          0.0,
          97.0,
          0.0
        ]
      },
      {
        "name": "AgentType",
        "type": "nominal",
        "num_unique_vals": 2,
        "categories": [
          [
            "External",
            "Internal"
          ]
        ]
      },
      {
        "name": "NumberOfSuppliments",
        "type": "nominal",
        "num_unique_vals": 4,
        "categories": [
          [
            "1 to 2",
            "3 to 5",
            "more than 5",
            "none"
          ]
        ]
      },
      {
        "name": "Days_Policy_Accident",
        "type": "nominal",
        "num_unique_vals": 5,
        "categories": [
          [
            "1 to 7",
            "15 to 30",
            "8 to 15",
            "more than 30",
            "none"
          ]
        ]
      },
      {
        "name": "Days_Policy_Claim",
        "type": "nominal",
        "num_unique_vals": 3,
        "categories": [
          [
            "15 to 30",
            "8 to 15",
            "more than 30"
          ]
        ]
      },
      {
        "name": "PoliceReportFiled",
        "type": "nominal",
        "num_unique_vals": 2,
        "categories": [
          [
            "No",
            "Yes"
          ]
        ]
      },
      {
        "name": "WitnessPresent",
        "type": "nominal",
        "num_unique_vals": 2,
        "categories": [
          [
            "No",
            "Yes"
          ]
        ]
      },
      {
        "name": "AddressChange_Claim_2",
        "type": "nominal",
        "num_unique_vals": 2,
        "categories": [
          [
            "change",
            "no_change"
          ]
        ]
      }
    ],
    "terms": [
      {
        "term_features": [
          "Make"
        ],
        "scores": [
          0.0,
          0.583260120480941,
          -1.3956339862821896,
          0.03175903200662048,
          -2.1048518706468187,
          -1.4429145335261284,
          -0.9932835719233862,
          0.2964008459996499,
          -1.4562880873347666,
          -0.03834935156108783,
          -1.4813650969001118,
          -3.5408796320819707,
          -1.4980436180451175,
          -0.015538822239391265,
          -1.5099371242509678,
          -0.5160015186795428,
          -1.1364010106026403,
          0.07285839420499617,
          -1.6511502463612882,
          0.0
        ],
        "standard_deviations": [
          0.0,
          0.08633151960801086,
          0.7170536008087934,
          0.033668891959579623,
          0.2371682170453702,
          0.7095873906214245,
          0.17541498045927323,
          0.028431580680307936,
          0.7069892566340759,
          0.03344727893366661,
          0.7089023466287602,
          0.9069546115244473,
          0.7075581368039389,
          0.028116460520744044,
          0.7068150867083004,
          0.14424332801102252,
          0.19687887417098565,
          0.027008847993432034,
          0.24147258244354927,
          0.0
        ],
        "bagged_scores": [
          [
            0.0,
            0.5807053101323246,
            -0.936968425191619,
            0.012447785241715057,
            -2.0609249829597913,
            -0.9595641315084851,
            -0.9433888924299733,
            0.2827836060178982,
            -0.973929588539016,
            -0.011398385139718088,
            -0.9919063564083739,
            -3.152529366230253,
            -1.0071001464103533,
            -0.04859511390638473,
            -1.0215002817577867,
            -0.3962612886246534,
            -0.9604961706684878,
            0.07295924201906047,
            -1.4656764670826639,
            0.0
          ],
          [
            0.0,
            0.5391138433923417,
            -1.4708272531417317,
            0.06970655669745666,
            -2.2297672500474284,
            -1.472031462275026,
            -1.5171043048138542,
            0.32952572749682607,
            -1.4766516198597104,
            -0.01642890115368846,
            -1.5124678110343124,
            -3.9056866307525824,
            -1.5321784751997443,
            -0.007323866600870685,
            -1.5449652519496724,
            -0.7296010946250411,
            -1.298372540274624,
            0.07398544675522617,
            -1.6478259003278501,
            0.0
          ],
          [
            0.0,
            0.6840585499045435,
            -1.3303822961016705,
            0.060772416896100766,
            -2.1076787139999578,
            -1.4078306548164,
            -0.8276244306811481,
            0.34251526075690997,
            -1.4372999799178423,
            -0.10734364690362942,
            -1.454815219498638,
            -4.150257431681054,
            -1.4691304331863555,
            -6.775991828587846e-05,
            -1.485576390783418,
            -0.5346639057486349,
            -1.300261768263391,
            0.07136370937620118,
            -2.2269402399950216,
            0.0
          ],
          [
            0.0,
            0.4795176698566534,
            -1.0701717893980274,
            0.01805392235593536,
            -1.856142839758354,
            -1.1394831428749093,
            -0.8634278398205573,
            0.2929368710441778,
            -1.1490054499524538,
            -0.015294222314340224,
            -1.1729073170063091,
            -2.6068780524579536,
            -1.1839670276383416,
            -0.044083244386855375,
            -1.1979615319284542,
            -0.3485659261995909,
            -1.0478146410249638,
            0.04490823074245339,
            -1.5053081620734388,
            0.0
          ],
          [
            0.0,
            0.7132099263580531,
            -1.0164333280996516,
            0.09741781500967747,
            -2.227128286099448,
            -1.121779411386874,
            -0.8973445079965018,
            0.2953720384971585,
            -1.1432426215079063,
            -0.08776951160044229,
            -1.1552764856336184,
            -4.7244256673300935,
            -1.1756786960580778,
            0.04738815130457974,
            -1.195672970802646,
            -0.6498847994172088,
            -1.190403517287842,
            0.013317811132608798,
            -1.6536503677108683,
            0.0
          ],
          [
            0.0,
            0.6217353379307211,
            -1.1286274310565174,
            0.08451664705228862,
            -2.28329332416295,
            -1.1784195797443442,
            -1.0290428394169155,
            0.30479542868283654,
            -1.1934346413551544,
            -0.011547944534644215,
            -1.2159988370007766,
            -4.402909631736279,
            -1.2466425055257764,
            -0.025349119604319244,
            -1.2648596216839625,
            -0.5937636543527284,
            -1.2047053690122353,
            0.04557630889256994,
            -1.6097808899506105,
            0.0
          ],
          [
            0.0,
            0.5662690184289818,
            -1.1528421671273306,
            -0.013094162743258204,
            -2.298056228462271,
            -1.2354613832495163,
            -1.0490414654775566,
            0.29742394395093313,
            -1.2442876493335964,
            -0.04028536142587328,
            -1.2754862868154249,
            -3.926704252100845,
            -1.2871212861811074,
            0.009847412842725313,
            -1.2961220542331564,
            -0.4850971057423768,
            -1.3419015596768133,
            0.08345902730966016,
            -1.5771360201508893,
            0.0
          ],
          [
            0.0,
            0.45806756360604006,
            -1.2173282631399782,
            0.04677714723309117,
            -2.0313194326501387,
            -1.2510428845284702,
            -0.7582959799207009,
            0.3214473600942254,
            -1.2740459776944058,
            -0.09862877016910503,
            -1.307947106053059,
            -2.2180376177637102,
            -1.3223836502380955,
            -0.03616630296480895,
            -1.3336706772543339,
            -0.6560875211159356,
            -0.8873943304159019,
            0.06644630271678018,
            -1.4890204692020934,
            0.0
          ],
          [
            0.0,
            0.6468369819691936,
            -1.3777475708963474,
            -0.0017817950381204123,
            -2.100654566305833,
            -1.398301119211278,
            -1.003348905438909,
            0.28544524679752953,
            -1.4058670125230868,
            -0.012107138714432517,
            -1.4299407574989607,
            -4.421432741185027,
            -1.4459808030719568,
            0.0011339325636092537,
            -1.4562369921049518,
            -0.5968413736817979,
            -1.2345443217704026,
            0.10457389666022981,
            -2.217219407319807,
            0.0
          ],
          [
            0.0,
            0.6925798258054343,
            -1.3401384181526526,
            0.011070899060134955,
            -2.1145420777705075,
            -1.4001849522611496,
            -1.0014573484577114,
            0.3213935907322819,
            -1.4164712428976192,
            -0.02437073106575341,
            -1.4602447589247105,
            -3.0776292994971377,
            -1.4686490025862424,
            -0.042476134710218286,
            -1.478407599345654,
            -0.5952358562777508,
            -1.122833409392206,
            0.05295693867611803,
            -1.5810430710146144,
            0.0
          ],
          [
            0.0,
            0.6258327169333658,
            -1.3751563360899155,
            -0.008188691085847369,
            -2.1585060992855056,
            -1.4038866289256302,
            -0.9163320869462224,
            0.29827856116593215,
            -1.420738479833779,
            -0.0523776035200957,
            -1.4365055057206035,
            -3.609859058809269,
            -1.4622660351268133,
            -0.0387468273026912,
            -1.4654761879605789,
            -0.2826857978698748,
            -1.3111019239553237,
            0.11470831767559694,
            -1.6223907290005557,
            0.0
          ],
          [
            0.0,
            0.41957445729718995,
            -1.0243469472915203,
            0.011694040972829702,
            -1.3828824011560439,
            -1.0681585444789692,
            -0.9479381051126466,
            0.22845872982479107,
            -1.0684151650515408,
            -0.007607774414767152,
            -1.0856825908502972,
            -1.409186606780912,
            -1.1041494264797542,
            -0.042409381510721086,
            -1.1174995692871368,
            -0.2949192521109835,
            -0.6457704573056535,
            0.06969469550240966,
            -1.4437190968465816,
            0.0
          ],
          [
            0.0,
            0.601746583431197,
            -3.920871617150011,
            0.035041744906213396,
            -2.233116959725639,
            -3.947278556422088,
            -0.9782823160857422,
            0.2536116377253023,
            -3.9501837301889577,
            -0.022132962724442887,
            -3.9792862005419827,
            -3.8961913026724044,
            -3.9911512397400117,
            0.022646075475296117,
            -4.00152286313594,
            -0.6748776262548255,
            -1.3459454290334596,
            0.10358455262349123,
            -1.51689631657922,
            0.0
          ],
          [
            0.0,
            0.5363939016871329,
            -1.1770339651136792,
            0.02019212153446953,
            -2.3839130266715967,
            -1.217381017682659,
            -1.1733409843289688,
            0.2956238412082963,
            -1.2344600640316643,
            -0.029597968174296968,
            -1.2606461236144955,
            -4.07058719015007,
            -1.2762119251890167,
            -0.01334133263253269,
            -1.2796477472858574,
            -0.3855360594921964,
            -1.018068710355661,
            0.10248303878754046,
            -1.5594963118038199,
            0.0
          ]
        ],
        "bin_weights": [
          0.0,
          127.0,
          3.0,
          551.0,
          46.0,
          2.0,
          124.0,
          1184.0,
          1.0,
          1016.0,
          1.0,
          22.0,
          8.0,
          1328.0,
          2.0,
          35.0,
          14.0,
          1093.0,
          64.0,
          0.0
        ]
      },
      {
        "term_features": [
          "VehiclePrice_num"
        ],
        "scores": [
          0.0,
          0.2670781181433326,
          -0.0364453478472926,
          -0.3862383713905621,
          0.0
        ],
        "standard_deviations": [
          0.0,
          0.05182531145163818,
          0.016876329858980302,
          0.12927213612392444,
          0.0
        ],
        "bagged_scores": [
          [
            0.0,
            0.202393833936471,
            -0.008653459036346534,
            -0.3817935937548122,
            0.0
          ],
          [
            0.0,
            0.27579706053952807,
            -0.05150223675251712,
            -0.33369886865447473,
            0.0
          ],
          [
            0.0,
            0.29607148026982294,
            -0.047869998009444914,
            -0.39308128465178116,
            0.0
          ],
          [
            0.0,
            0.1822405915553254,
            -0.004713864968951227,
            -0.3582370380875248,
            0.0
          ],
          [
            0.0,
            0.2786781849724601,
            -0.04327293729333079,
            -0.3783742679425477,
            0.0
          ],
          [
            0.0,
            0.2997304838937597,
            -0.037654885434190065,
            -0.44870978924532323,
            0.0
          ],
          [
            0.0,
            0.3210730549326933,
            -0.023701100729620367,
            -0.5588129641394689,
            0.0
          ],
          [
            0.0,
            0.2299281874588926,
            -0.06597417618650918,
            -0.16996866049295278,
            0.0
          ],
          [
            0.0,
            0.3171330798554663,
            -0.04434497223409857,
            -0.4536030547425559,
            0.0
          ],
          [
            0.0,
            0.2686654788795702,
            -0.04197227404036516,
            -0.36358576610331533,
            0.0
          ],
          [
            0.0,
            0.2771095637099725,
            -0.04627724630805642,
            -0.36098572442382443,
            0.0
          ],
          [
            0.0,
            0.16237074941257457,
            -0.04830316949625767,
            -0.11197834963080881,
            0.0
          ],
          [
            0.0,
            0.28360900912971976,
            -0.029180539550600373,
            -0.454873111638298,
            0.0
          ],
          [
            0.0,
            0.34429289546040037,
            -0.01681400982180798,
            -0.6396347259601813,
            0.0
          ]
        ],
        "bin_weights": [
          0.0,
          1507.0,
          3392.0,
          722.0,
          0.0
        ]
      },
      {
        "term_features": [
          "VehicleCategory"
        ],
        "scores": [
          0.0,
          -0.013247806452546685,
          0.2069407971145051,
          -0.12158493889851384,
          0.0
        ],
        "standard_deviations": [
          0.0,
          0.0028969204743589504,
          0.036422307948032105,
          0.1470643453511031,
          0.0
        ],
        "bagged_scores": [
          [
            0.0,
            -0.013891570499314406,
            0.21367551239302332,
            -0.07905662198564498,
            0.0
          ],
          [
            0.0,
            -0.014213283287866307,
            0.21348088487066572,
            -0.005883845554103903,
            0.0
          ],
          [
            0.0,
            -0.013940067617962473,
            0.2151559729020028,
            -0.09004398851049529,
            0.0
          ],
          [
            0.0,
            -0.010349747875294456,
            0.1746008902352521,
            -0.2835493533611763,
            0.0
          ],
          [
            0.0,
            -0.010500824486152836,
            0.17620172800539405,
            -0.27386578012683266,
            0.0
          ],
          [
            0.0,
            -0.011027010107099954,
            0.19385826194496117,
            -0.41631956869928943,
            0.0
          ],
          [
            0.0,
            -0.013787299111751234,
            0.2074449246302524,
            -0.010990215884567497,
            0.0
          ],
          [
            0.0,
            -0.011998537441607391,
            0.1855660535644464,
            -0.08299136631009389,
            0.0
          ],
          [
            0.0,
            -0.01114147500988743,
            0.1910749471006985,
            -0.3507046711818805,
            0.0
          ],
          [
            0.0,
            -0.022130561490924308,
            0.32256118626469676,
            0.13427670625983248,
            0.0
          ],
          [
            0.0,
            -0.015475425293009458,
            0.23348433140256228,
            -0.021664978269840495,
            0.0
          ],
          [
            0.0,
            -0.012205165169016602,
            0.1884177115041516,
            -0.07940405769262304,
            0.0
          ],
          [
            0.0,
            -0.013434483605059984,
            0.20829688481062084,
            -0.10054892533198156,
            0.0
          ],
          [
            0.0,
            -0.011373839340706746,
            0.17335186997434346,
            -0.04144247793049673,
            0.0
          ]
        ],
        "bin_weights": [
          0.0,
          5247.0,
          350.0,
          24.0,
          0.0
        ]
      },
      {
        "term_features": [
          "AgeOfVehicle"
        ],
        "scores": [
          0.0,
          -1.7460713622223887,
          -0.364480252248424,
          -0.7793150828355218,
          0.35347315625705195,
          0.11049976145657592,
          0.0019274485585290058,
          -0.08861444523737565,
          -1.5918494742207356,
          0.0
        ],
        "standard_deviations": [
          0.0,
          0.4560343127679337,
          0.22979180169361865,
          0.22108562161526918,
          0.09222177307290085,
          0.03700587166675691,
          0.01696490933061889,
          0.030307356791266518,
          0.6354655268891345,
          0.0
        ],
        "bagged_scores": [
          [
            0.0,
            -2.3362754845780156,
            -0.3825612303603583,
            -0.907289256247603,
            0.3334410509557549,
            0.13256884480736703,
            0.014866698193233639,
            -0.10734677931046382,
            -1.439473240654183,
            0.0
          ],
          [
            0.0,
            -1.6704465182112938,
            -0.3792211821414583,
            -0.8305807867677587,
            0.47303098139324024,
            0.10960401898742772,
            -0.023187194171546778,
            -0.09309107755626714,
            -1.7424828299243318,
            0.0
          ],
          [
            0.0,
            -1.574773573657813,
            -0.03929029125472179,
            -0.7385545785124774,
            0.3688458627881142,
            0.09244540181067415,
            0.013411445254906606,
            -0.08248395038737616,
            -2.27502588669702,
            0.0
          ],
          [
            0.0,
            -1.008807738658004,
            -0.23321349101579664,
            -0.5808148024301666,
            0.23409184393986057,
            0.04694571780191881,
            0.009426161175957463,
            -0.07010050283233289,
            -0.5611021463362195,
            0.0
          ],
          [
            0.0,
            -1.7870623570047166,
            -0.37292342961755176,
            -0.4341326593705548,
            0.3898026350489586,
            0.15692568836293297,
            0.007276211578688686,
            -0.14683240981827375,
            -2.2976307832184912,
            0.0
          ],
          [
            0.0,
            -1.8409850523282885,
            -0.8707965018715033,
            -1.1907849891001598,
            0.4225031137376802,
            0.16787323796475742,
            0.014768092485225934,
            -0.10997341959512884,
            -2.33531257030215,
            0.0
          ],
          [
            0.0,
            -1.677348934314623,
            -0.44245846001743516,
            -0.847449784815628,
            0.3900689956618525,
            0.07468216338384877,
            0.02237075962412128,
            -0.07445631333677317,
            -1.9340791559394865,
            0.0
          ],
          [
            0.0,
            -1.1336197744449845,
            -0.08796168493425956,
            -0.9029025043845557,
            0.2573088648501845,
            0.09658244048018975,
            -0.009115520614592726,
            -0.08011690640376035,
            -0.7531808208284018,
            0.0
          ],
          [
            0.0,
            -1.7116367003257151,
            -0.3925907165622944,
            -0.8322978622585953,
            0.4749386669113752,
            0.15713414536603545,
            -0.013909786595591025,
            -0.12570491561975772,
            -2.3684562785143632,
            0.0
          ],
          [
            0.0,
            -1.389594749305542,
            -0.46245252861376507,
            -0.8135464392878915,
            0.31063807150586986,
            0.13134114078829198,
            -0.03746073762366151,
            -0.06032232866700984,
            -1.0390690178023427,
            0.0
          ],
          [
            0.0,
            -2.6569282700781,
            -0.6742852820045133,
            -1.097826249654897,
            0.37635356118098295,
            0.1227837183672294,
            -0.009995307147980116,
            -0.034512012413241804,
            -1.5454141520122218,
            0.0
          ],
          [
            0.0,
            -1.5132021405447091,
            0.043192514252772846,
            -0.40647673062632184,
            0.12457351301679324,
            0.047845759423849166,
            0.014553163470598974,
            -0.04288802221288376,
            -0.49748775771490705,
            0.0
          ],
          [
            0.0,
            -1.6424746596415112,
            -0.3810135061186967,
            -0.514258632291139,
            0.39695389379650564,
            0.0870723509213146,
            0.010697785196340393,
            -0.11544703301893262,
            -1.5914306529880529,
            0.0
          ],
          [
            0.0,
            -2.5018431180201204,
            -0.4271477412183553,
            -0.813495883949557,
            0.3960731328115553,
            0.12319203192622558,
            0.013282508993705259,
            -0.09732656215105728,
            -1.9057473461581265,
            0.0
          ]
        ],
        "bin_weights": [
          0.0,
          36.0,
          69.0,
          78.0,
          600.0,
          1414.0,
          2072.0,
          1283.0,
          69.0,
          0.0
        ]
      },
      {
        "term_features": [
          "Sex"
        ],
        "scores": [
          0.0,
          -0.723381473740178,
          0.11777021510829955,
          0.0
        ],
        "standard_deviations": [
          0.0,
          0.05242594725309531,
          0.00853521317504884,
          0.0
        ],
        "bagged_scores": [
          [
            0.0,
            -0.762037172522016,
            0.12406356118635224,
            0.0
          ],
          [
            0.0,
            -0.7303706135612714,
            0.11890808292774527,
            0.0
          ],
          [
            0.0,
            -0.7847180145811385,
            0.12775611863371042,
            0.0
          ],
          [
            0.0,
            -0.6645302640242093,
            0.10818893624059837,
            0.0
          ],
          [
            0.0,
            -0.8181381343759079,
            0.13319708559243676,
            0.0
          ],
          [
            0.0,
            -0.7442961037066014,
            0.12117522416572092,
            0.0
          ],
          [
            0.0,
            -0.7293846411603546,
            0.11874756156251527,
            0.0
          ],
          [
            0.0,
            -0.6951290071137253,
            0.11317056859712483,
            0.0
          ],
          [
            0.0,
            -0.7507622847765992,
            0.122227951617539,
            0.0
          ],
          [
            0.0,
            -0.7340613169101082,
            0.11950894836745043,
            0.0
          ],
          [
            0.0,
            -0.6784741589748392,
            0.11045907387529967,
            0.0
          ],
          [
            0.0,
            -0.5961666395932892,
            0.09705898745550642,
            0.0
          ],
          [
            0.0,
            -0.7060828796330287,
            0.11495391524021384,
            0.0
          ],
          [
            0.0,
            -0.7331894014294046,
            0.11936699605398042,
            0.0
          ]
        ],
        "bin_weights": [
          0.0,
          787.0,
          4834.0,
          0.0
        ]
      },
      {
        "term_features": [
          "MaritalStatus"
        ],
        "scores": [
          0.0,
          -1.648761380736318,
          0.12385564408466333,
          -0.25000989262278045,
          0.20739935101828905,
          0.0
        ],
        "standard_deviations": [
          0.0,
          0.7925745013106978,
          0.019245314568672227,
          0.04186621877971965,
          0.4683139683191215,
          0.0
        ],
        "bagged_scores": [
          [
            0.0,
            -1.2350293243740076,
            0.13292124077249523,
            -0.27217189378703327,
            -0.43246898813220813,
            0.0
          ],
          [
            0.0,
            -1.5535712167307172,
            0.11630648866135179,
            -0.23896996119334787,
            0.6551282922890794,
            0.0
          ],
          [
            0.0,
            -1.4121303803484893,
            0.12389937074474057,
            -0.24804425973055716,
            -0.4869773971642138,
            0.0
          ],
          [
            0.0,
            -1.1971484699423482,
            0.132324327487696,
            -0.2754244096036174,
            -0.015836917266438474,
            0.0
          ],
          [
            0.0,
            -1.650737718609903,
            0.11950958291761973,
            -0.24526640175615153,
            0.7514211954041905,
            0.0
          ],
          [
            0.0,
            -1.4422753715598602,
            0.14453186959282066,
            -0.3043785163069615,
            0.6318190050845547,
            0.0
          ],
          [
            0.0,
            -4.445243751931792,
            0.1438450568258239,
            -0.23821270477961984,
            -0.28460613979792937,
            0.0
          ],
          [
            0.0,
            -1.1299632813164644,
            0.0963105108378329,
            -0.19763641048541336,
            0.20283570318305524,
            0.0
          ],
          [
            0.0,
            -1.58030329479144,
            0.15680868364678657,
            -0.33244024490985513,
            0.9529734384917893,
            0.0
          ],
          [
            0.0,
            -1.3361186951185646,
            0.1162027792604766,
            -0.23891127423302994,
            0.2389498195642608,
            0.0
          ],
          [
            0.0,
            -1.6041939074314984,
            0.1201991617123708,
            -0.23682804981664873,
            -0.4119426640309,
            0.0
          ],
          [
            0.0,
            -1.3264925841919915,
            0.07985340289065394,
            -0.15519636982792268,
            0.018753676510633033,
            0.0
          ],
          [
            0.0,
            -1.5314579956286287,
            0.11402739184793927,
            -0.23387698213710253,
            0.6150061313695786,
            0.0
          ],
          [
            0.0,
            -1.6379933383327443,
            0.1372391499866785,
            -0.28278101815166484,
            0.4685357587505946,
            0.0
          ]
        ],
        "bin_weights": [
          0.0,
          32.0,
          3859.0,
          1714.0,
          16.0,
          0.0
        ]
      },
      {
        "term_features": [
          "Age"
        ],
        "scores": [
          0.0,
          0.6807772403356867,
          0.6881537703193339,
          0.784149431082549,
          0.7397394346878704,
          0.7251515416248717,
          0.1017407002777586,
          0.1010331344788807,
          -0.016254211486190488,
          -0.016350568760129636,
          0.2664948567546126,
          0.3133682893098917,
          0.29951679448270474,
          0.5012495564139046,
          0.19649260191690274,
          0.22540136194068783,
          0.30675471975617863,
          0.42219837434903373,
          0.37982517058102083,
          0.0584651452572294,
          0.050469085673260014,
          0.013672950926355225,
          0.0010996668077613999,
          0.08703586923701762,
          0.25859967768313785,
          0.39000406526779097,
          0.22415458647210115,
          0.16207112246953814,
          0.07906404286228201,
          0.09780847546340574,
          0.04480501755010987,
          -0.13920484849757278,
          -0.1401683597277615,
          -0.6069074083383459,
          -0.6114356661795443,
          -0.6068336960587682,
          -0.6256683992886409,
          -0.6962713637013572,
          -0.7199613804758326,
          -0.7245230912295418,
          -0.884419485551557,
          -1.1874146848506886,
          -0.9957473592575006,
          -0.5222770895523073,
          -0.010856460482869252,
          0.038639851431898964,
          -0.0843586701059855,
          -0.10167969152484221,
          -0.14626770994930985,
          -0.14271947789529957,
          -0.17254938881133206,
          -0.47382864908898253,
          -0.48442246171952763,
          -0.48260447271763085,
          -2.101672054320056,
          -2.116626364676499,
          -2.1260125652022634,
          -2.134530675315841,
          -1.8395238790388468,
          -1.852513870797243,
          -1.954426509938591,
          -1.9602241383564243,
          -1.694509181078852,
          -0.6576502177014883,
          -1.041749700062946,
          -3.8716602809088365,
          -3.897062051552967,
          0.0
        ],
        "standard_deviations": [
          0.0,
          0.42159720183238814,
          0.4190405859895972,
          0.5625497800268394,
          0.46985075968545603,
          0.4578051287378482,
          0.13813915918717123,
          0.13778464077752414,
          0.1758459722565254,
          0.17560151304941762,
          0.19396695844670253,
          0.16082405189680804,
          0.15969404821905395,
          0.27646079587898226,
          0.10178642191225779,
          0.11957122346500529,
          0.15197705555319488,
          0.23691491043197616,
          0.2037079578243103,
          0.07706689790372671,
          0.07941226221713449,
          0.03753673105172187,
          0.03596955227348152,
          0.09445365033456946,
          0.17481122301157084,
          0.25216152417589915,
          0.1526747570599383,
          0.12443404610324975,
          0.07104016034083632,
          0.10080257968380603,
          0.06808122929869967,
          0.14715421239777715,
          0.1473995444448538,
          0.38893073368158926,
          0.3901349908515909,
          0.37795311504958645,
          0.3869160972993228,
          0.41483984213774105,
          0.41562857742735587,
          0.4176027035650485,
          0.5140588954836368,
          0.684163665348223,
          0.5272589674368389,
          0.3375626214208164,
          0.18727918377500738,
          0.22437491187586786,
          0.22584024937542113,
          0.20157128192597346,
          0.21075299573906547,
          0.21140173473866294,
          0.21178048584250223,
          0.3322157633753618,
          0.3358182840342809,
          0.3371480905256025,
          1.1799755371002385,
          1.1845666990946495,
          1.1851158791434053,
          1.1841303841561124,
          0.9727674471701637,
          0.9551398363539515,
          1.0343221612205995,
          1.0367412670177163,
          0.9269205622347441,
          0.492230781716229,
          0.5585828309471469,
          2.0827551370783746,
          2.083342921659001,
          0.0
        ],
        "bagged_scores": [
          [
            0.0,
            0.6388048018380776,
            0.6434414684947283,
            0.6434414684947283,
            0.6434414684947283,
            0.6419650750997183,
            0.16924074758005236,
            0.1634529598872677,
            0.15555339598076745,
            0.1555022691741954,
            0.35930874225483117,
            0.3608536391865726,
            0.36235662874645597,
            0.42353664105052596,
            0.20905832311995637,
            0.20830278600272728,
            0.33863450891641544,
            0.33489761415486413,
            0.33260774995325376,
            -0.0014923806956206181,
            -0.0014923806956206181,
            -0.0035296914774448004,
            -0.005035898271585237,
            -0.005035898271585237,
            0.26643441768359233,
            0.26499881085120214,
            0.10796173252681708,
            0.10579260334379477,
            0.06821004346495796,
            0.0660111144533316,
            0.0639606113058145,
            0.05604270327304524,
            0.05469016552355144,
            -0.5801125884629744,
            -0.5835495823933449,
            -0.5913790860710225,
            -0.5959519342734289,
            -0.6588570463107822,
            -0.7372086235281511,
            -0.7481966027542762,
            -0.8608414516314643,
            -0.8717964105593655,
            -0.8717964105593655,
            -0.6092672446234119,
            -0.07105897352192869,
            -0.07407298580778471,
            -0.07407298580778471,
            -0.07883555434902154,
            -0.10234875349593037,
            -0.10234875349593037,
            -0.1108799556499292,
            -0.6269543781788968,
            -0.6269543781788968,
            -0.6269543781788968,
            -1.7371441689365839,
            -1.7371441689365839,
            -1.747551360201233,
            -1.7571838621612317,
            -1.7672140748033864,
            -1.7763488908736509,
            -1.7858385738344913,
            -1.7941572916009034,
            -1.8011168856444573,
            -1.0530868086030005,
            -1.0804553899074567,
            -2.9103151631379873,
            -2.9846561615531435,
            0.0
          ],
          [
            0.0,
            0.7322861576631251,
            0.7367094169633827,
            0.7367094169633827,
            0.6907196666829634,
            0.688405434529554,
            0.04549964900820231,
            0.041098465225501334,
            0.041098465225501334,
            0.041098465225501334,
            0.22225020224153738,
            0.3337675646693574,
            0.3370466876088538,
            0.5755673442759912,
            0.2241763331416696,
            0.22368671139081245,
            0.47548958980644024,
            0.5386048972806564,
            0.5278492888773308,
            0.03445466031103524,
            0.01634195041743554,
            0.014538655528820311,
            0.014538655528820311,
            0.19784378235611788,
            0.2908939733190921,
            0.6239003545205076,
            0.3564628247190007,
            0.2643527765435835,
            0.12927624793142736,
            0.12927624793142736,
            -0.005273628694253636,
            -0.13106617211149021,
            -0.13191427223924462,
            -0.7609658818497451,
            -0.774216851072037,
            -0.7802992500499041,
            -0.9626792387546749,
            -0.9626792387546749,
            -0.965840370265837,
            -0.9738087258331848,
            -0.9784853543501487,
            -1.399964506970852,
            -1.3116559721967844,
            -0.7521447982380338,
            -0.13656311829624435,
            -0.13656311829624435,
            -0.1548385257436452,
            -0.15760966983436459,
            -0.21574561297905034,
            -0.21926001195841519,
            -0.22348107237336748,
            -0.5495719361160223,
            -0.5613895290093802,
            -0.5814506183439542,
            -2.1276821216727573,
            -2.1276821216727573,
            -2.1500112301320997,
            -2.1559671525512063,
            -2.167382050596315,
            -2.1742479375243584,
            -2.1742479375243584,
            -2.185325051122606,
            -1.6231161083753578,
            -0.23661902523400538,
            -1.2553657562016762,
            -4.223834228579275,
            -4.260967502957915,
            0.0
          ],
          [
            0.0,
            1.1952919689570223,
            1.1952919689570223,
            1.1952919689570223,
            1.1952919689570223,
            1.1843583085863207,
            -0.05476448220294421,
            -0.06532174589214682,
            -0.1498483363609319,
            -0.1498483363609319,
            0.12401082866461685,
            0.24310125737029425,
            0.24310125737029425,
            0.7464721967173168,
            0.3057583616958023,
            0.30486752771345094,
            0.48575941919378873,
            0.5902606909549661,
            0.44203429984019954,
            0.11639653790695131,
            0.11394534188720302,
            0.03852809015325198,
            0.037203060728517416,
            0.0942851896817189,
            0.3698344189616925,
            0.6045263764964893,
            0.274562775377162,
            0.274562775377162,
            0.2023600531681112,
            0.21999303096036366,
            0.2184086649304886,
            -0.08761087690823965,
            -0.08761087690823965,
            -0.8934127117956864,
            -0.8990290231128247,
            -0.8990290231128247,
            -0.8990290231128247,
            -1.064755106090571,
            -1.064755106090571,
            -1.074031570621306,
            -1.0966431646427657,
            -1.5692489168951362,
            -1.3951966574721992,
            -0.5248757280582301,
            0.035197606696158096,
            0.26213246566245685,
            -0.25576848421249826,
            -0.25576848421249826,
            -0.26025125714429537,
            -0.1827774115788547,
            -0.19748580903178073,
            -0.7565227324011268,
            -0.7655687782596872,
            -0.7745252493817241,
            -3.3929956059686592,
            -3.453107047676438,
            -3.453107047676438,
            -3.464037653994077,
            -3.464037653994077,
            -3.0491647109284616,
            -3.078476883161524,
            -3.0876442903910273,
            -2.8670916462380185,
            -1.1247736709588012,
            -1.4723800178855255,
            -5.709279625354265,
            -5.709279625354265,
            0.0
          ],
          [
            0.0,
            0.07161522444862935,
            0.08644570488467454,
            0.09992349962338722,
            0.10768608338928304,
            0.10384366426678318,
            0.08936616435714027,
            0.08458806633751279,
            0.08458806633751279,
            0.08458806633751279,
            0.08622657022597038,
            0.09014214524210065,
            0.09014214524210065,
            0.09516368636083955,
            0.08135978356070069,
            0.08038998810373821,
            0.07929555391278188,
            0.07863875484296659,
            0.07863875484296659,
            -0.0007756606306948363,
            -0.0007756606306948363,
            -0.002391918806644046,
            -0.002391918806644046,
            -0.0025522624754076603,
            -0.002630297033550354,
            -0.0025021597073343065,
            -0.0036541479510105493,
            -0.005687793168712353,
            -0.0078109764180775195,
            -0.011340430132667613,
            -0.01322740138360672,
            -0.014817229404933253,
            -0.01528821145603495,
            -0.020516029522330614,
            -0.02293825946982455,
            -0.02293825946982455,
            -0.02958157173563701,
            -0.14617718552001044,
            -0.15026455665295388,
            -0.15464766983836356,
            -0.15464766983836356,
            -0.15464766983836356,
            -0.15464766983836356,
            -0.15741337184426982,
            -0.0774778749151024,
            -0.0818563979817566,
            -0.0818563979817566,
            -0.09107447987904833,
            -0.09930862872678621,
            -0.11262316921323741,
            -0.11904160375550958,
            -0.13311016769910106,
            -0.13311016769910106,
            -0.13311016769910106,
            -0.3802675104128653,
            -0.38974888306337413,
            -0.3984626006260141,
            -0.41530417227570454,
            -0.42241451034125516,
            -0.42241451034125516,
            -0.42241451034125516,
            -0.43070720486991004,
            -0.4377856689642611,
            -0.4454789018811831,
            -0.4731563780902202,
            -0.6128123912689616,
            -0.6503731804872611,
            0.0
          ],
          [
            0.0,
            0.9191707878394613,
            0.931398924979373,
            2.153897339628026,
            1.5509954680236777,
            1.5509954680236777,
            0.4770066748840662,
            0.4770066748840662,
            0.1282668855031156,
            0.1282668855031156,
            0.6249168957859081,
            0.6249168957859081,
            0.6300967561296444,
            0.9566457316411818,
            0.38759399492318425,
            0.4773389369190775,
            0.47631481434631007,
            0.8349122097456261,
            0.7100582665287181,
            0.22572623619133486,
            0.22368753531337215,
            0.06952072024923031,
            -0.006021450133287663,
            -0.006021450133287663,
            0.3836929552856623,
            0.5747289021332775,
            0.26768130313697114,
            0.1640580772647186,
            0.045795860339294,
            0.045795860339294,
            0.039506440006152534,
            -0.42659072458108754,
            -0.42746357624402487,
            -1.2835213699841055,
            -1.2907435425483413,
            -1.1887091982498004,
            -1.1887091982498004,
            -1.4188194454174252,
            -1.4297881612556411,
            -1.4372734956993183,
            -1.6937863270752014,
            -2.307498987231151,
            -1.3585798794590374,
            -0.6522103596642363,
            0.12777495827000687,
            0.12777495827000687,
            -0.06825577836637564,
            -0.07386429833099614,
            -0.21776550276685375,
            -0.22154562962170082,
            -0.23157489883522514,
            -0.8324305031981463,
            -0.8366905023626168,
            -0.8366905023626168,
            -3.782042114570425,
            -3.807258896022492,
            -3.8217568168045233,
            -3.828890713212692,
            -2.1296927833178634,
            -2.412691824200303,
            -3.0388268750412206,
            -3.0388268750412206,
            -2.7294547267292515,
            -0.9012292569354514,
            -1.801633441041778,
            -6.734766962896539,
            -6.791490290200341,
            0.0
          ],
          [
            0.0,
            1.2237999828534547,
            1.2431279868111005,
            1.258197653565523,
            1.258197653565523,
            1.1054031408634382,
            0.19878958574308814,
            0.1954930165011237,
            -0.05441411108669573,
            -0.05272540443948307,
            0.4764828598263347,
            0.4764828598263347,
            0.4764828598263347,
            0.8069301710525812,
            0.2646983424501413,
            0.3710205259675603,
            0.49360470219584424,
            0.6691534705259611,
            0.6281044555400938,
            0.19927832904351545,
            0.19718566568362603,
            0.036495421955752776,
            -0.04471933346286843,
            0.15787976559914113,
            0.20239189449522413,
            0.5697262436069596,
            0.32575762818533954,
            0.32575762818533954,
            0.14805962385705668,
            0.26511107408268575,
            -0.02243440871826228,
            -0.3979657696998146,
            -0.4002006419171911,
            -1.0385086846900666,
            -1.0497925398895132,
            -1.0497925398895132,
            -1.0773814095558238,
            -1.0773814095558238,
            -1.0819856193627961,
            -1.0875563304689333,
            -1.5419891492100164,
            -2.030870345237524,
            -1.2176738815597292,
            -0.8456533401142341,
            0.03330802682431777,
            0.031029584381053417,
            -0.08971471913236845,
            -0.0948476181372721,
            -0.25888323335809704,
            -0.2807276624901165,
            -0.4565592952833715,
            -0.6081816950721635,
            -0.6144663660274639,
            -0.6144663660274639,
            -3.1166191761465276,
            -3.1271657325215783,
            -3.1358041088283723,
            -3.144699356390312,
            -2.598301473333689,
            -2.598301473333689,
            -2.693341899979553,
            -2.693341899979553,
            -2.5356710489116328,
            -0.6407840868861655,
            -1.4903964598054515,
            -5.72588389679867,
            -5.72588389679867,
            0.0
          ],
          [
            0.0,
            0.6840337275401253,
            0.6884810832117244,
            0.7122999359605106,
            0.7066860994977897,
            0.7066860994977897,
            0.13043528824931577,
            0.13043528824931577,
            -0.3352426107551578,
            -0.3353642360116236,
            0.431764656370468,
            0.4336245337558384,
            0.22129703236178008,
            0.4606823005468835,
            0.1148756248558227,
            0.2337366469995873,
            0.23477466657219254,
            0.4544832812171755,
            0.45164921611015063,
            0.023376117313394146,
            0.023376117313394146,
            -0.02815275504594949,
            -0.029286566478309677,
            0.20285577118547582,
            0.38867011358258174,
            0.5017608244812928,
            0.26828097594775535,
            0.21667098484202962,
            0.12747766739438982,
            0.12351494065927845,
            0.10889599250092843,
            -0.19568193781818094,
            -0.19709586670288654,
            -0.7348033395472421,
            -0.7409421310896619,
            -0.7470511245695103,
            -0.75083873741578,
            -0.9319597341294018,
            -0.9474584582862654,
            -0.9474584582862654,
            -1.1543734253370321,
            -1.3624283123255205,
            -0.9202631455980729,
            -0.17894061064084404,
            0.28817731553680903,
            0.28610675762695215,
            0.28610675762695215,
            0.23188744674779582,
            0.22882045220310843,
            0.22882045220310843,
            0.22882045220310843,
            -0.13600993151195587,
            -0.14734732528487524,
            -0.14734732528487524,
            -2.241688818922797,
            -2.272417696607988,
            -2.292631814318988,
            -2.2980349510051155,
            -1.6130603299932165,
            -1.618571139305726,
            -1.618571139305726,
            -1.6260420128361914,
            -1.6345508187134274,
            0.05927034111699647,
            -0.3449682275727236,
            -4.704836571894091,
            -4.7423066517214485,
            0.0
          ],
          [
            0.0,
            0.09409339134346088,
            0.10619261273517362,
            0.11342967821286445,
            0.12086993010897372,
            0.11811892097832233,
            0.08824212762519855,
            0.08199885131977803,
            0.08199885131977803,
            0.0791145838120666,
            0.08094944533552763,
            0.08470234307260385,
            0.08672755723612421,
            0.09041204592463348,
            0.08916202722190404,
            0.08849156667041211,
            0.08779723596209382,
            0.08779723596209382,
            0.08359491077145369,
            -0.03115875078108375,
            -0.03115875078108375,
            -0.03553155411955763,
            -0.03553155411955763,
            -0.03558148291423994,
            -0.03570774598206575,
            -0.03604983841595133,
            -0.04089000015891934,
            -0.043214942981568596,
            -0.043214942981568596,
            -0.043214942981568596,
            -0.043214942981568596,
            -0.04567007858449895,
            -0.04567007858449895,
            -0.04567007858449895,
            -0.04567007858449895,
            -0.04567007858449895,
            -0.04567007858449895,
            -0.04567007858449895,
            -0.04567007858449895,
            -0.04567007858449895,
            -0.05572212859006138,
            -0.06631154387437699,
            -0.06631154387437699,
            -0.07953472249740286,
            -0.08183992569028162,
            -0.09189505240783014,
            -0.09189505240783014,
            -0.10256006277488244,
            -0.10256006277488244,
            -0.10256006277488244,
            -0.10256006277488244,
            -0.10256006277488244,
            -0.1209390739642901,
            -0.12828981585147345,
            -0.13847844100468856,
            -0.167427442986433,
            -0.167427442986433,
            -0.17557544477704853,
            -0.190451050606076,
            -0.1990956509855437,
            -0.1990956509855437,
            -0.1990956509855437,
            -0.21707796308030183,
            -0.21707796308030183,
            -0.23021171869395748,
            -0.268417127117111,
            -0.2870850227332485,
            0.0
          ],
          [
            0.0,
            1.0177074553554974,
            1.0177074553554974,
            1.0297385707129683,
            1.024148594873293,
            1.0180302961029906,
            -0.007320246117336483,
            0.039375238245080345,
            -0.40427725474830517,
            -0.40335924628329983,
            0.40467985074152335,
            0.4095090991005048,
            0.4112447455029925,
            0.6720576702367014,
            0.17058413495912259,
            0.26771032735673,
            0.294461985593881,
            0.5702099950866417,
            0.39659675382701204,
            0.08596854217580452,
            0.08596854217580452,
            0.058300597901671955,
            0.05725934329167347,
            0.19074044415321412,
            0.6009198147468323,
            0.7581013315386776,
            0.48457094996423616,
            0.3606552134419645,
            0.19167945331393008,
            0.3028045129631951,
            0.020192489457762804,
            -0.06199896571065105,
            -0.06262005428073725,
            -0.7564383604091613,
            -0.7506264807995132,
            -0.7585406762893115,
            -0.7646840036634751,
            -0.7683091650202302,
            -0.7715219994639538,
            -0.7715219994639538,
            -0.9907083533357905,
            -1.5796214262291597,
            -1.5899838009972984,
            -1.0347661835159216,
            -0.23282273398076547,
            -0.2355372695694199,
            -0.4600374309024358,
            -0.46401284731683773,
            -0.5877210171615224,
            -0.5877210171615224,
            -0.5939517157573513,
            -0.9967792171947067,
            -1.007795092287347,
            -0.9851272138379765,
            -3.409091532602166,
            -3.426366017166078,
            -3.426366017166078,
            -3.426366017166078,
            -2.383790531771202,
            -2.3982910973392984,
            -2.9938565719598245,
            -2.9994617842576106,
            -2.355890141865204,
            -1.2212970276323216,
            -1.719178178769936,
            -5.619986159823584,
            -5.638325510557569,
            0.0
          ],
          [
            0.0,
            0.3551019127242662,
            0.3551019127242662,
            0.36173870506736233,
            0.36173870506736233,
            0.36173870506736233,
            0.12678222492073357,
            0.12678222492073357,
            0.12503401327344613,
            0.1250231784168084,
            0.23020823755555248,
            0.23224999902318771,
            0.23224999902318771,
            0.2783869834048204,
            0.1693712945074341,
            0.1693712945074341,
            0.2527483521854676,
            0.25195447159759066,
            0.25195447159759066,
            -0.049352200178796615,
            -0.049352200178796615,
            -0.051165518143008334,
            -0.054420345967432324,
            -0.054800516468245894,
            0.1573392256246044,
            0.15724005589844087,
            0.15569242228202168,
            0.044847335200427565,
            0.03523340931038393,
            0.033014689403387476,
            0.028061386772028737,
            0.025558787737227133,
            0.025558787737227133,
            -0.18889671678303208,
            -0.19245946854857945,
            -0.20213113953106457,
            -0.22262427881313032,
            -0.2631671186776871,
            -0.3474043207761676,
            -0.3474043207761676,
            -0.48905373151301823,
            -0.7984596638876242,
            -0.7984596638876242,
            -0.6740349427011869,
            -0.1188187278046625,
            -0.12070420412756704,
            -0.12070420412756704,
            -0.13630859999361405,
            -0.14044470281809796,
            -0.14811777026649864,
            -0.20268898278339686,
            -0.20268898278339686,
            -0.22076676477068552,
            -0.2276247708875459,
            -1.3606655099501797,
            -1.3606655099501797,
            -1.3690760465393808,
            -1.3750938501780288,
            -1.380151278323441,
            -1.3943135764643844,
            -1.4083609261920695,
            -1.4083609261920695,
            -1.170653586738686,
            -0.8323897998601147,
            -0.8323897998601147,
            -2.8463969911795863,
            -2.8653620012579673,
            0.0
          ],
          [
            0.0,
            0.8364349683461618,
            0.8426166270452655,
            0.8641788489518101,
            0.8683269396368072,
            0.8633464594763485,
            0.2371334101601591,
            0.23094020186189973,
            0.2289055398174586,
            0.2289055398174586,
            0.34424196160683923,
            0.34424196160683923,
            0.346367428717777,
            0.6234207978750256,
            0.1333856466100296,
            0.13246463022903698,
            0.33567249973025476,
            0.49489929623925905,
            0.49489929623925905,
            0.055041166960931504,
            0.053272852751636846,
            0.053272852751636846,
            0.04857762792261368,
            0.13605495936452955,
            0.2213246776161139,
            0.4541256032438598,
            0.3766867188149632,
            0.2535239313841104,
            0.058194022049933014,
            0.05217047879520764,
            0.05217047879520764,
            -0.13287248011672964,
            -0.13287248011672964,
            -0.49191225134425404,
            -0.49191225134425404,
            -0.49191225134425404,
            -0.49191225134425404,
            -0.5755143114654105,
            -0.585087113550172,
            -0.5951184631465979,
            -0.7514683108734191,
            -1.2759125127742001,
            -1.2804556027422318,
            -1.066185302737341,
            -0.20532939206168382,
            -0.20932689915450703,
            -0.39226690828383776,
            -0.40105370000040935,
            -0.40105370000040935,
            -0.41514335661783514,
            -0.41514335661783514,
            -1.058261712218348,
            -1.098729331870133,
            -1.1086772338864568,
            -2.744694409339863,
            -2.744694409339863,
            -2.744694409339863,
            -2.754093249233295,
            -2.783031268166035,
            -3.022723097078191,
            -3.044387285974288,
            -3.071485623573232,
            -3.0860015450135707,
            -1.7600560440958632,
            -1.788624592873025,
            -5.0563451760381355,
            -5.07466283915536,
            0.0
          ],
          [
            0.0,
            0.0008470521977945364,
            0.018343689863738,
            0.02574749574353152,
            0.03411547592259339,
            0.03043395094869421,
            0.02466197934637761,
            0.02466197934637761,
            0.016731574897862006,
            0.017049768461750478,
            0.017049768461750478,
            0.017049768461750478,
            0.017049768461750478,
            0.018834740135903708,
            0.017931630344639314,
            0.01820679135668567,
            0.01820679135668567,
            0.017452234475648757,
            0.0155500585265969,
            0.0155500585265969,
            0.0155500585265969,
            0.014036372712324937,
            0.012184819533690447,
            0.01195258626362534,
            0.01195258626362534,
            0.01195258626362534,
            0.01195258626362534,
            0.007164562995278227,
            0.007164562995278227,
            0.004756100105920768,
            0.002383771663215509,
            -0.0022087479233082,
            -0.004844674385931987,
            -0.004844674385931987,
            -0.014051967342862771,
            -0.014051967342862771,
            -0.01735089694458202,
            -0.021029264656652835,
            -0.024052790045239286,
            -0.024052790045239286,
            -0.03245412413023325,
            -0.04062177986961939,
            -0.04501355023614241,
            -0.04501355023614241,
            -0.04501355023614241,
            -0.045973719282989677,
            -0.05058771428654708,
            -0.05284262192245329,
            -0.05861226699457145,
            -0.06175005594228379,
            -0.07574995439472894,
            -0.08324491508364547,
            -0.08324491508364547,
            -0.09113115765586793,
            -0.10114971592799807,
            -0.10968828349660363,
            -0.11899803166284878,
            -0.12695794024406726,
            -0.1482819464384429,
            -0.15693979348446044,
            -0.1666525384239187,
            -0.1666525384239187,
            -0.17999556833102723,
            -0.18813884228332714,
            -0.20705216613197738,
            -0.24413033728309988,
            -0.24413033728309988,
            0.0
          ],
          [
            0.0,
            0.4529977573286655,
            0.4605977561808569,
            0.4605977561808569,
            0.46509694448979094,
            0.46509694448979094,
            -0.06586270242101608,
            -0.08120672093776363,
            -0.08249669374556445,
            -0.08249669374556445,
            -0.08005330697448432,
            0.32560898086753254,
            0.32560898086753254,
            0.6401497667852785,
            0.33762206975770886,
            0.33576444676523637,
            0.3491734710532356,
            0.3455523039885834,
            0.33879422826976435,
            0.0869362584570723,
            0.08269656305465854,
            0.05234591654097619,
            0.05234591654097619,
            0.20239822262787263,
            0.4234518728108356,
            0.44923680421599493,
            0.3479168454509751,
            0.10224180025024737,
            0.10224180025024737,
            0.1412334172860674,
            0.1412334172860674,
            -0.28670589442090455,
            -0.28670589442090455,
            -0.8143596310748702,
            -0.818991227321689,
            -0.818991227321689,
            -0.8250485709053736,
            -0.9222939073857183,
            -1.033767778623212,
            -1.0419284215192832,
            -1.4003737293442209,
            -1.6058452904494995,
            -1.6094726470868594,
            -0.1281020980947133,
            0.471833943248317,
            0.5856258746968005,
            0.4665611604380706,
            0.35078818710459025,
            0.2655397251758296,
            0.2625011551777566,
            0.16242071190597965,
            -0.2671530432953787,
            -0.27708890234961137,
            -0.28381913877955756,
            -2.232575980645575,
            -2.2407732891700514,
            -2.2407732891700514,
            -2.2468842423695845,
            -1.9835363941361004,
            -1.9901015285793264,
            -2.0029573677927948,
            -2.0029573677927948,
            -1.7710150788714651,
            -0.4206930614043706,
            -0.7063596781583185,
            -4.577629134608406,
            -4.5969361065598315,
            0.0
          ],
          [
            0.0,
            1.3086961762638707,
            1.3086961762638707,
            1.3228996970937115,
            1.3290370869203791,
            1.3136991148174137,
            -0.03484061724441667,
            -0.03484061724441667,
            -0.06345674646545378,
            -0.0646628025493214,
            0.4088912824682008,
            0.4109050023696596,
            0.4134632756630388,
            0.6292337137869811,
            0.24531885968852252,
            0.2442668871871409,
            0.37263248576110863,
            0.6419607848144381,
            0.5652206372099013,
            0.058563119000771345,
            -0.022678435411891733,
            -0.02484587723208785,
            -0.029307020997946895,
            0.12848305834931767,
            0.34182758018968934,
            0.5283110186220313,
            0.2051815960504786,
            0.19827076189515858,
            0.04222977539658461,
            0.040192562621757265,
            0.03660737476156332,
            -0.2472804926964528,
            -0.25031936219301565,
            -0.8827413983029441,
            -0.8851759229966746,
            -0.8851759229966746,
            -0.8878963966876888,
            -0.8911860802501156,
            -0.8946543501761978,
            -0.8946543501761978,
            -1.1813258778500646,
            -1.5605782217672435,
            -1.3209526040969226,
            -0.5637370007663336,
            -0.13935800082896715,
            0.2442179260374152,
            -0.09369109829617302,
            -0.09741337844877941,
            -0.09741337844877941,
            -0.0548193967937818,
            -0.07781590021035868,
            -0.2801318097179844,
            -0.2878233369256536,
            -0.2172486798693231,
            -2.6583136543796986,
            -2.6686296068605584,
            -2.6975156973793606,
            -2.7143408488633263,
            -2.7219889607227534,
            -2.7219889607227534,
            -2.7349429786236996,
            -2.7390794199233586,
            -1.3137077476272647,
            -0.22474890008292764,
            -1.1823239958890832,
            -4.9686101667440035,
            -4.98740959512142,
            0.0
          ]
        ],
        "bin_weights": [
          0.0,
          58.0,
          5.0,
          8.0,
          33.0,
          29.0,
          15.0,
          66.0,
          54.0,
          50.0,
          56.0,
          58.0,
          229.0,
          256.0,
          230.0,
          224.0,
          254.0,
          239.0,
          229.0,
          213.0,
          260.0,
          224.0,
          133.0,
          143.0,
          139.0,
          176.0,
          133.0,
          160.0,
          130.0,
          130.0,
          120.0,
          129.0,
          115.0,
          99.0,
          96.0,
          81.0,
          92.0,
          73.0,
          83.0,
          68.0,
          85.0,
          89.0,
          34.0,
          55.0,
          38.0,
          49.0,
          55.0,
          48.0,
          38.0,
          38.0,
          49.0,
          36.0,
          11.0,
          8.0,
          8.0,
          7.0,
          6.0,
          5.0,
          11.0,
          9.0,
          7.0,
          5.0,
          13.0,
          6.0,
          6.0,
          6.0,
          9.0,
          0.0
        ]
      },
      {
        "term_features": [
          "DriverRating"
        ],
        "scores": [
          0.0,
          0.1424803047091917,
          0.14044037309274188,
          0.14533068111371475,
          -0.527034196994496,
          0.0
        ],
        "standard_deviations": [
          0.0,
          0.024785462097947075,
          0.02045838229730186,
          0.04424463214619561,
          0.05613014336828604,
          0.0
        ],
        "bagged_scores": [
          [
            0.0,
            0.16625409886869472,
            0.1206556480298696,
            0.1664067756612658,
            -0.55739862709439,
            0.0
          ],
          [
            0.0,
            0.14512422871891456,
            0.12544403350878697,
            0.17156503536201373,
            -0.5441220120239221,
            0.0
          ],
          [
            0.0,
            0.14823412471367015,
            0.1353566423276069,
            0.15223267855951972,
            -0.5362475552652152,
            0.0
          ],
          [
            0.0,
            0.15993790595264773,
            0.13361341148216865,
            0.08607718837458386,
            -0.4663201417905774,
            0.0
          ],
          [
            0.0,
            0.15242667308237307,
            0.1349513675781841,
            0.17582699530809193,
            -0.5700529832567394,
            0.0
          ],
          [
            0.0,
            0.12225935587232574,
            0.12355891859479032,
            0.18600086622660195,
            -0.5319515710829278,
            0.0
          ],
          [
            0.0,
            0.0919720815769064,
            0.19227581782312553,
            0.16293770008315134,
            -0.5519675713489585,
            0.0
          ],
          [
            0.0,
            0.17090491911331573,
            0.13798098403668052,
            0.07809464113325373,
            -0.4751453366083697,
            0.0
          ],
          [
            0.0,
            0.12856574075770644,
            0.1437285255218918,
            0.12711614792411052,
            -0.4916879270038588,
            0.0
          ],
          [
            0.0,
            0.12068758371761122,
            0.1629441734009099,
            0.14315354550140108,
            -0.525856610124544,
            0.0
          ],
          [
            0.0,
            0.10120085366375729,
            0.16418205241226425,
            0.19053585311241866,
            -0.5624687458060449,
            0.0
          ],
          [
            0.0,
            0.14920759234750786,
            0.11318766255550453,
            0.046412314818755934,
            -0.3788275070948668,
            0.0
          ],
          [
            0.0,
            0.16800607950993426,
            0.15210074882292485,
            0.14696726299710006,
            -0.5744725035357348,
            0.0
          ],
          [
            0.0,
            0.16994302803331915,
            0.12618523720367847,
            0.2013025305297384,
            -0.6119596658867955,
            0.0
          ]
        ],
        "bin_weights": [
          0.0,
          1452.0,
          1487.0,
          1484.0,
          1198.0,
          0.0
        ]
      },
      {
        "term_features": [
          "AgeOfPolicyHolder"
        ],
        "scores": [
          0.0,
          0.6593957710948162,
          -1.0132633527317376,
          0.8274640804281691,
          -0.5914144017723845,
          -0.144912223972018,
          -0.17510353705231707,
          0.6620081170231379,
          -0.058555824338864415,
          0.7922733258566395,
          0.0
        ],
        "standard_deviations": [
          0.0,
          0.4518058035689011,
          0.5332725269426659,
          0.30978366997616896,
          0.15712017802389439,
          0.13226912866027257,
          0.11148191914135092,
          0.39916560892071346,
          0.1903867110876778,
          0.6856347757006344,
          0.0
        ],
        "bagged_scores": [
          [
            0.0,
            0.6092879265366001,
            -0.48693030376252483,
            0.9481231108133883,
            -0.6046361544178659,
            -0.10760237658976025,
            -0.16299285107492514,
            0.6057582312602318,
            -0.1444795922340229,
            0.5747335105932867,
            0.0
          ],
          [
            0.0,
            0.7554209922155645,
            -0.7601560643764955,
            0.8361730690676336,
            -0.6513641301528411,
            -0.1972392116637732,
            -0.24936696051739288,
            0.8392825944151221,
            0.07680941439767414,
            0.949000988929154,
            0.0
          ],
          [
            0.0,
            0.9765327904019393,
            -1.8775880305489443,
            0.515693839066944,
            -0.5171064949175193,
            -0.21814752806274104,
            -0.30930457084017676,
            0.9547100537278329,
            0.01629326561254802,
            1.30760123189945,
            0.0
          ],
          [
            0.0,
            0.08363423610972438,
            -0.4389894946287105,
            1.1894353128296242,
            -0.4320144279059635,
            0.056362033173853666,
            -0.0792289560377997,
            0.12309109252385633,
            -0.18307643666123297,
            -0.22631944154489136,
            0.0
          ],
          [
            0.0,
            1.0612113422521101,
            -1.6044052551893717,
            0.025472260504435018,
            -0.9229870165489762,
            -0.41708954560449774,
            -0.1866256941764227,
            1.3496088185626398,
            0.12049726260020363,
            1.7112884110135984,
            0.0
          ],
          [
            0.0,
            0.8438661633141529,
            -1.8180109805178337,
            0.7180253108691534,
            -0.6486240856511213,
            -0.3190892244265121,
            -0.17503005004910444,
            1.0597156723178134,
            -0.006192880319838882,
            1.263518041581837,
            0.0
          ],
          [
            0.0,
            1.1739564233372717,
            -0.8512880812765232,
            0.9688319630574264,
            -0.6347870671786651,
            -0.10711120272442211,
            -0.21961852286747605,
            0.7685042730754709,
            -0.3948521154114365,
            0.7365665425438979,
            0.0
          ],
          [
            0.0,
            -0.04421159171121735,
            -0.4422334225543174,
            1.1561541432560294,
            -0.43139883705355925,
            0.036666049832497216,
            0.026677973746793107,
            0.06234877749978848,
            -0.21389777862570747,
            -0.4276244532260171,
            0.0
          ],
          [
            0.0,
            1.2652906805798836,
            -1.2101360925418299,
            0.6364941171684693,
            -0.5122841198613315,
            -0.20873571978033267,
            -0.3905479330900527,
            0.8140578231457122,
            0.33638015651412284,
            1.6686770960099084,
            0.0
          ],
          [
            0.0,
            0.42177017687835544,
            -0.6882247135748978,
            1.0717385323164623,
            -0.5535158750216674,
            -0.03943189495651058,
            -0.06360228415036774,
            0.2431106803627067,
            -0.11024902473147664,
            0.549163412519533,
            0.0
          ],
          [
            0.0,
            0.3512571356210467,
            -0.8898774092880146,
            1.0684358073020135,
            -0.7479667210684303,
            -0.15711120670093942,
            -0.19373568474106329,
            0.5596286223650455,
            0.16118581444538016,
            1.5652198660793322,
            0.0
          ],
          [
            0.0,
            -0.17723771235015412,
            -0.2521782712270083,
            0.687211986171957,
            -0.24957019240340889,
            0.043125679116436916,
            0.006439203465985718,
            -0.00601728580820538,
            -0.09591581584637304,
            -0.3012388178814058,
            0.0
          ],
          [
            0.0,
            1.135623483976868,
            -1.184807344172925,
            1.143831528557774,
            -0.7252802324759844,
            -0.19210119633180256,
            -0.2084453269705226,
            0.9395444537821258,
            -0.3413582014576873,
            0.9572936733565995,
            0.0
          ],
          [
            0.0,
            0.7751387481652827,
            -1.6808614745849293,
            0.618876145013056,
            -0.6482662701560484,
            -0.2012657908897479,
            -0.2460678614299136,
            0.9547698310937904,
            -0.04092560902625485,
            0.7639465001186696,
            0.0
          ]
        ],
        "bin_weights": [
          0.0,
          58.0,
          10.0,
          81.0,
          283.0,
          2354.0,
          1394.0,
          889.0,
          433.0,
          119.0,
          0.0
        ]
      },
      {
        "term_features": [
          "NumberOfCars"
        ],
        "scores": [
          0.0,
          0.048552044465450105,
          -0.741214752774646,
          -0.6520086338276847,
          -1.3031888573337498,
          -1.5902066812178766,
          0.0
        ],
        "standard_deviations": [
          0.0,
          0.008120205652018138,
          0.1657738031924067,
          0.10553730708938301,
          0.18724639231934384,
          0.25633851385899203,
          0.0
        ],
        "bagged_scores": [
          [
            0.0,
            0.05818301944646772,
            -0.9637435603394217,
            -0.6175013879242596,
            -1.6407132098363235,
            -1.974774406951148,
            0.0
          ],
          [
            0.0,
            0.044101435069538696,
            -0.6546727105606582,
            -0.6329707261281294,
            -1.1280156665327097,
            -1.494610926244835,
            0.0
          ],
          [
            0.0,
            0.044469191791867084,
            -0.6726123365132838,
            -0.6058984074318611,
            -1.298259543326626,
            -1.6650152869489527,
            0.0
          ],
          [
            0.0,
            0.04824046051101934,
            -0.8290361537337209,
            -0.45415668243077406,
            -1.155230228568241,
            -1.5633851907171266,
            0.0
          ],
          [
            0.0,
            0.04029541909197627,
            -0.53757205758677,
            -0.7045748213764208,
            -1.2008966285095435,
            -1.2008852954212668,
            0.0
          ],
          [
            0.0,
            0.03741640780623964,
            -0.4944769814357803,
            -0.6561121619019252,
            -1.2600845344181437,
            -1.589989208236404,
            0.0
          ],
          [
            0.0,
            0.04550319785330272,
            -0.698654746246789,
            -0.5992859784550189,
            -1.3014184599006196,
            -1.6170705758455566,
            0.0
          ],
          [
            0.0,
            0.049349018009127735,
            -0.7668679256832713,
            -0.639638718630149,
            -1.237742038626041,
            -1.2377319953099726,
            0.0
          ],
          [
            0.0,
            0.050219789179447395,
            -0.6958944130515702,
            -0.8222619564910898,
            -1.3968542257840042,
            -1.8547432952906189,
            0.0
          ],
          [
            0.0,
            0.058688663411997494,
            -0.9283098297874923,
            -0.7256215740804033,
            -1.3788522339146003,
            -1.7822792096192108,
            0.0
          ],
          [
            0.0,
            0.059488188860724656,
            -0.9084137507526002,
            -0.8114179151465285,
            -1.3187799611151116,
            -1.3187697309480504,
            0.0
          ],
          [
            0.0,
            0.03233418845671679,
            -0.4432625277566613,
            -0.5402633485774139,
            -0.8683359300224265,
            -1.2175894484909504,
            0.0
          ],
          [
            0.0,
            0.05634771708488913,
            -0.9671717095445955,
            -0.5269414752317553,
            -1.5546684163603992,
            -1.8915891128299875,
            0.0
          ],
          [
            0.0,
            0.05509192594298671,
            -0.8163178358524297,
            -0.7914757197818569,
            -1.504792925757712,
            -1.854459854196192,
            0.0
          ]
        ],
        "bin_weights": [
          0.0,
          5266.0,
          239.0,
          112.0,
          3.0,
          1.0,
          0.0
        ]
      },
      {
        "term_features": [
          "PastNumberOfClaims"
        ],
        "scores": [
          0.0,
          -0.27487855096626806,
          0.11473513172483617,
          -0.20246121190079522,
          0.12796854120595727,
          0.0
        ],
        "standard_deviations": [
          0.0,
          0.020924092282702915,
          0.024524145436013695,
          0.05624087121557813,
          0.01932982010039945,
          0.0
        ],
        "bagged_scores": [
          [
            0.0,
            -0.2869860670944705,
            0.1289429945131309,
            -0.25410407942147173,
            0.1327561746417616,
            0.0
          ],
          [
            0.0,
            -0.2779533196787639,
            0.10606829280111602,
            -0.25594425938176646,
            0.1503246256407748,
            0.0
          ],
          [
            0.0,
            -0.27950202838275434,
            0.12775580776788453,
            -0.2501960674860829,
            0.12756968382293243,
            0.0
          ],
          [
            0.0,
            -0.2714436731387128,
            0.14260680980019322,
            -0.11468142719685229,
            0.07817769021624843,
            0.0
          ],
          [
            0.0,
            -0.3167859208673411,
            0.15711167648511404,
            -0.26146661538655147,
            0.12714626030272166,
            0.0
          ],
          [
            0.0,
            -0.2955327326540583,
            0.14169315364200002,
            -0.24323683440644617,
            0.12359036798393955,
            0.0
          ],
          [
            0.0,
            -0.281622134585641,
            0.12676004987138867,
            -0.28374854815051453,
            0.13708105855927855,
            0.0
          ],
          [
            0.0,
            -0.25130024197507456,
            0.06334051029634497,
            -0.12315797007852589,
            0.14788139160848818,
            0.0
          ],
          [
            0.0,
            -0.2463267454237088,
            0.09535351568011918,
            -0.1854042939756121,
            0.12331728938775618,
            0.0
          ],
          [
            0.0,
            -0.2675685203865035,
            0.08784611038850648,
            -0.2073478564597578,
            0.1516667993240837,
            0.0
          ],
          [
            0.0,
            -0.2869034845370075,
            0.09027413236939093,
            -0.13793307584481862,
            0.14945133540949712,
            0.0
          ],
          [
            0.0,
            -0.26067593917382076,
            0.10509925405398601,
            -0.14431197103172033,
            0.11547748348815415,
            0.0
          ],
          [
            0.0,
            -0.29158650766320604,
            0.12344580217652,
            -0.15212350668942393,
            0.12109534827594899,
            0.0
          ],
          [
            0.0,
            -0.23411239796668976,
            0.10999373430201156,
            -0.22080046110158882,
            0.10602406822181623,
            0.0
          ]
        ],
        "bin_weights": [
          0.0,
          1407.0,
          1961.0,
          383.0,
          1870.0,
          0.0
        ]
      },
      {
        "term_features": [
          "PolicyType"
        ],
        "scores": [
          0.0,
          -0.02871203967119074,
          0.4307492033152371,
          -0.023733760357565893,
          0.0
        ],
        "standard_deviations": [
          0.0,
          0.009872015759340068,
          0.1406473839080721,
          0.2362277451813276,
          0.0
        ],
        "bagged_scores": [
          [
            0.0,
            -0.028940261997674063,
            0.43615563572575555,
            -0.05291723749758633,
            0.0
          ],
          [
            0.0,
            -0.021623568854627316,
            0.31973858885022033,
            0.05037489687281553,
            0.0
          ],
          [
            0.0,
            -0.026754974350709747,
            0.4120771594374224,
            -0.17843697994633093,
            0.0
          ],
          [
            0.0,
            -0.017022282134892534,
            0.2743524657388574,
            -0.29161764144552943,
            0.0
          ],
          [
            0.0,
            -0.03697678299456062,
            0.5583097822924268,
            -0.08277208313236654,
            0.0
          ],
          [
            0.0,
            -0.03513014908777681,
            0.5474638012810982,
            -0.32779300563284447,
            0.0
          ],
          [
            0.0,
            -0.04384776942787034,
            0.6289485931189871,
            0.38601842641013767,
            0.0
          ],
          [
            0.0,
            -0.015921167553617988,
            0.2386237317281942,
            -0.009770202096508277,
            0.0
          ],
          [
            0.0,
            -0.027477600996986724,
            0.4382916760565642,
            -0.40387014440256985,
            0.0
          ],
          [
            0.0,
            -0.021312392183553963,
            0.31170854247385593,
            0.09979629110836129,
            0.0
          ],
          [
            0.0,
            -0.030816697757937758,
            0.4545619200153904,
            0.0880484380308098,
            0.0
          ],
          [
            0.0,
            -0.013321692391633822,
            0.20256039000314507,
            -0.05054577519137036,
            0.0
          ],
          [
            0.0,
            -0.03634747923059561,
            0.5451034095833273,
            -0.02718419666847261,
            0.0
          ],
          [
            0.0,
            -0.04647573643423308,
            0.662593150108074,
            0.46839656858553197,
            0.0
          ]
        ],
        "bin_weights": [
          0.0,
          5246.0,
          351.0,
          24.0,
          0.0
        ]
      },
      {
        "term_features": [
          "Deductible"
        ],
        "scores": [
          0.0,
          -0.25162526779185385,
          0.09977801944856582,
          -0.022434421135274513,
          0.9734180817510065,
          0.04908877585187641,
          0.0
        ],
        "standard_deviations": [
          0.0,
          0.19377817974372877,
          0.1866067418685849,
          0.005540877772203078,
          0.328243477942034,
          0.19240241751310758,
          0.0
        ],
        "bagged_scores": [
          [
            0.0,
            -0.06784329843103148,
            0.3128459177009197,
            -0.024649115874129067,
            0.8507640151149816,
            0.31815498661375735,
            0.0
          ],
          [
            0.0,
            -0.30435084177197463,
            0.14886199668850353,
            -0.024905377315869632,
            1.1963745567582944,
            -0.0885687035167843,
            0.0
          ],
          [
            0.0,
            -0.1500112881063169,
            0.1591591722321208,
            -0.027050439777824536,
            1.2521414643779656,
            -0.041409145168505336,
            0.0
          ],
          [
            0.0,
            -0.21141634755220637,
            0.12720139890428145,
            -0.017909479357233235,
            0.5821786922739807,
            0.2800338786777232,
            0.0
          ],
          [
            0.0,
            -0.26985811327352416,
            0.09216188710780314,
            -0.02501039168082249,
            1.2605360554896368,
            -0.16222316341437998,
            0.0
          ],
          [
            0.0,
            -0.05377785820645986,
            0.2112711158070054,
            -0.024818757785255417,
            1.3614256680531855,
            -0.303388502758885,
            0.0
          ],
          [
            0.0,
            -0.19097010482351262,
            0.13316411292503588,
            -0.029363169312522856,
            1.2594800270312418,
            0.07939845680318486,
            0.0
          ],
          [
            0.0,
            -0.16229056360759322,
            0.18568174761266518,
            -0.017026970437301066,
            0.5336025919328776,
            0.28937376989196145,
            0.0
          ],
          [
            0.0,
            -0.08395125660368331,
            0.3150893065043078,
            -0.030070001397520803,
            1.294489133436209,
            0.07136283239554424,
            0.0
          ],
          [
            0.0,
            -0.15460653338279634,
            0.11860612881055357,
            -0.022626451767557943,
            0.7918970636235,
            0.2821487144300565,
            0.0
          ],
          [
            0.0,
            -0.2926822019328112,
            0.13962078514548767,
            -0.020569889435886057,
            0.9193947326769772,
            0.012539675677354863,
            0.0
          ],
          [
            0.0,
            -0.5445784393253607,
            -0.287078209971175,
            -0.008124367795472874,
            0.2333319310057119,
            0.17789808073490282,
            0.0
          ],
          [
            0.0,
            -0.8000757990869161,
            -0.36546002209191414,
            -0.018095556488095733,
            0.9853100848701903,
            -0.19110822651496856,
            0.0
          ],
          [
            0.0,
            -0.23634110298176747,
            0.10576693490432633,
            -0.023861927468351474,
            1.1069271278693391,
            -0.03696979192469245,
            0.0
          ]
        ],
        "bin_weights": [
          0.0,
          2.0,
          1.0,
          5401.0,
          120.0,
          97.0,
          0.0
        ]
      },
      {
        "term_features": [
          "AgentType"
        ],
        "scores": [
          0.0,
          0.026847113409150258,
          -1.561654196831203,
          0.0
        ],
        "standard_deviations": [
          0.0,
          0.004159430914663059,
          0.2419475287834534,
          0.0
        ],
        "bagged_scores": [
          [
            0.0,
            0.02764350723578025,
            -1.6079791682623332,
            0.0
          ],
          [
            0.0,
            0.02578959934370576,
            -1.5001402734033475,
            0.0
          ],
          [
            0.0,
            0.029876557091731766,
            -1.7378721525148393,
            0.0
          ],
          [
            0.0,
            0.020861428246259365,
            -1.2134763419876762,
            0.0
          ],
          [
            0.0,
            0.02621604474658929,
            -1.524945929154236,
            0.0
          ],
          [
            0.0,
            0.026318096610770805,
            -1.5308821249591522,
            0.0
          ],
          [
            0.0,
            0.029430191240010006,
            -1.7119077557083713,
            0.0
          ],
          [
            0.0,
            0.021064671721998527,
            -1.225298694060672,
            0.0
          ],
          [
            0.0,
            0.03342466247576763,
            -1.9442598404325464,
            0.0
          ],
          [
            0.0,
            0.028256037075526017,
            -1.643609061887966,
            0.0
          ],
          [
            0.0,
            0.02627862521753559,
            -1.5285861363379123,
            0.0
          ],
          [
            0.0,
            0.01837891098086305,
            -1.0690722324236757,
            0.0
          ],
          [
            0.0,
            0.030868317894611728,
            -1.795561312480257,
            0.0
          ],
          [
            0.0,
            0.03145293784695378,
            -1.8295677320238588,
            0.0
          ]
        ],
        "bin_weights": [
          0.0,
          5526.0,
          95.0,
          0.0
        ]
      },
      {
        "term_features": [
          "NumberOfSuppliments"
        ],
        "scores": [
          0.0,
          -0.17512172544927535,
          -0.5118005866037463,
          -0.14750549010762024,
          0.25538558310039133,
          0.0
        ],
        "standard_deviations": [
          0.0,
          0.03661930506613085,
          0.03360323578794028,
          0.022766329234661167,
          0.014225130756573253,
          0.0
        ],
        "bagged_scores": [
          [
            0.0,
            -0.16648642071436742,
            -0.4746677309991688,
            -0.13658277119943257,
            0.23813169945645757,
            0.0
          ],
          [
            0.0,
            -0.16414696622021466,
            -0.531637017493552,
            -0.13627976103497166,
            0.2508224683474978,
            0.0
          ],
          [
            0.0,
            -0.1525279965398288,
            -0.501475498611001,
            -0.18143293756818293,
            0.2620841185601467,
            0.0
