{
  "version": "1.0",
  "ebm": {
    "outputs": [
      {
        "task": "classification",
        "classes": [
          0,
          1
        ],
        "link": "logit",
        "link_param": "nan"
      }
    ],
    "intercept": [
      -1.1953441249017134
    ],
    "bagged_intercept": [
      -1.130516317904859,
      -1.2330411700014392,
      -1.2113176206153795,
      -1.1765285015094902,
      -1.2240054603763844,
      -1.1954249905007366,
      -1.1396900381292234,
      -1.206762472721312,
      -1.1557986059085505,
      -1.2691091399160064,
      -1.15610725880179,
      -1.122297873499924,
      -1.287515640873975,
      -1.2267026578649196
    ],
    "bag_weights": [
      3737.0,
      3737.0,
      3737.0,
      3737.0,
      3737.0,
      3737.0,
      3737.0,
      3737.0,
      3737.0,
      3737.0,
      3737.0,
      3737.0,
      3737.0,
      3737.0
    ],
    "best_iteration": [
      [
        4741,
        9823,
        7353,
        6100,
        7968,
        6599,
        4994,
        7762,
        6312,
        16954,
        5415,
        4546,
        19488,
        8982
      ]
    ],
    "implementation": "python",
    "implementation_params": {
      "feature_names": null,
      "feature_types": null,
      "max_bins": 1024,
      "max_interaction_bins": 64,
      "interactions": false,
      "exclude": null,
      "validation_size": 0.15,
      "outer_bags": 14,
      "inner_bags": 0,
      "learning_rate": 0.015,
      "greedy_ratio": 10.0,
      "smoothing_rounds": 75,
      "interaction_smoothing_rounds": 75,
      "max_rounds": 25000,
      "early_stopping_rounds": 100,
      "early_stopping_tolerance": 1e-05,
      "min_samples_leaf": 4,
      "min_hessian": 0.0001,
      "reg_alpha": 0.0,
      "reg_lambda": 0.0,
      "max_delta_step": 0.0,
      "max_leaves": 3,
      "objective": "log_loss",
      "n_jobs": -2,
      "random_state": 42
    },
    "features": [
      {
        "name": "Make",
        "type": "nominal",
        "num_unique_vals": 17,
        "categories": [
          [
            "Accura",
            "BMW",
            "Chevrolet",
            "Dodge",
            "Ford",
            "Honda",
            "Jaguar",
            "Mazda",
            "Mecedes",
            "Mercury",
            "Nisson",
            "Pontiac",
            "Porche",
            "Saab",
            "Saturn",
            "Toyota",
            "VW"
          ]
        ]
      },
      {
        "name": "VehiclePrice_num",
        "type": "nominal",
        "num_unique_vals": 3,
        "categories": [
          [
            "30000 to 59000",
            "less than 30000",
            "more than 60000"
          ]
        ]
      },
      {
        "name": "VehicleCategory",
        "type": "nominal",
        "num_unique_vals": 3,
        "categories": [
          [
            "Sedan",
            "Sport",
            "Utility"
          ]
        ]
      },
      {
        "name": "AgeOfVehicle",
        "type": "nominal",
        "num_unique_vals": 8,
        "categories": [
          [
            "2 years",
            "3 years",
            "4 years",
            "5 years",
            "6 years",
            "7 years",
            "more than 7",
            "new"
          ]
        ]
      },
      {
        "name": "Sex",
        "type": "nominal",
        "num_unique_vals": 2,
        "categories": [
          [
            "Female",
            "Male"
          ]
        ]
      },
      {
        "name": "MaritalStatus",
        "type": "nominal",
        "num_unique_vals": 4,
        "categories": [
          [
            "Divorced",
            "Married",
            "Single",
            "Widow"
          ]
        ]
      },
      {
        "name": "Age",
        "type": "continuous",
        "num_unique_vals": 64,
        "cuts": [
          [
            9.0,
            18.5,
            19.5,
            20.5,
            21.5,
            22.5,
            23.5,
            24.5,
            25.5,
            26.5,
            27.5,
            28.5,
            29.5,
            30.5,
            31.5,
            32.5,
            33.5,
            34.5,
            35.5,
            36.5,
            37.5,
            38.5,
            39.5,
            40.5,
            41.5,
            42.5,
            43.5,
            44.5,
            45.5,
            46.5,
            47.5,
            48.5,
            49.5,
            50.5,
            51.5,
            52.5,
            53.5,
            54.5,
            55.5,
            56.5,
            57.5,
            58.5,
            59.5,
            60.5,
            61.5,
            62.5,
            63.5,
            64.5,
            65.5,
            66.5,
            67.5,
            68.5,
            69.5,
            70.5,
            71.5,
            72.5,
            73.5,
            74.5,
            75.5,
            76.5,
            77.5,
            78.5,
            79.5
          ]
        ],
        "min": 0.0,
        "max": 80.0,
        "histogram_weights": [
          0.0,
          123.0,
          0.0,
          0.0,
          97.0,
          453.0,
          909.0,
          554.0,
          673.0,
          539.0,
          437.0,
          238.0,
          197.0,
          105.0,
          72.0,
          0.0
        ]
      },
      {
        "name": "DriverRating",
        "type": "continuous",
        "num_unique_vals": 4,
        "cuts": [
          [
            1.5,
            2.5,
            3.5
          ]
        ],
        "min": 1.0,
        "max": 4.0,
        "histogram_weights": [
          0.0,
          1185.0,
          0.0,
          0.0,
          0.0,
          0.0,
          1085.0,
          0.0,
          0.0,
          0.0,
          0.0,
          1129.0,
          0.0,
          0.0,
          0.0,
          998.0,
          0.0
        ]
      },
      {
        "name": "AgeOfPolicyHolder",
        "type": "nominal",
        "num_unique_vals": 8,
        "categories": [
          [
            "16 to 17",
            "21 to 25",
            "26 to 30",
            "31 to 35",
            "36 to 40",
            "41 to 50",
            "51 to 65",
            "over 65"
          ]
        ]
      },
      {
        "name": "NumberOfCars",
        "type": "nominal",
        "num_unique_vals": 5,
        "categories": [
          [
            "1 vehicle",
            "2 vehicles",
            "3 to 4",
            "5 to 8",
            "more than 8"
          ]
        ]
      },
      {
        "name": "PastNumberOfClaims",
        "type": "nominal",
        "num_unique_vals": 4,
        "categories": [
          [
            "1",
            "2 to 4",
            "more than 4",
            "none"
          ]
        ]
      },
      {
        "name": "PolicyType",
        "type": "nominal",
        "num_unique_vals": 3,
        "categories": [
          [
            "Sedan - All Perils",
            "Sport - All Perils",
            "Utility - All Perils"
          ]
        ]
      },
      {
        "name": "Deductible",
        "type": "continuous",
        "num_unique_vals": 6,
        "cuts": [
          [
            306.0,
            338.5,
            382.5,
            450.0,
            600.0
          ]
        ],
        "min": 300.0,
        "max": 700.0,
        "histogram_weights": [
          0.0,
          2.0,
          0.0,
          0.0,
          1.0,
          0.0,
          4223.0,
          0.0,
          0.0,
          0.0,
          0.0,
          87.0,
          0.0,
          0.0,
          0.0,
          0.0,
          0.0,
          0.0,
          0.0,
          0.0,
          0.0,
          84.0,
          0.0
        ]
      },
      {
        "name": "AgentType",
        "type": "nominal",
        "num_unique_vals": 1,
        "categories": [
          [
            "External"
          ]
        ]
      },
      {
        "name": "NumberOfSuppliments",
        "type": "nominal",
        "num_unique_vals": 4,
        "categories": [
          [
            "1 to 2",
            "3 to 5",
            "more than 5",
            "none"
          ]
        ]
      },
      {
        "name": "Days_Policy_Accident",
        "type": "nominal",
        "num_unique_vals": 5,
        "categories": [
          [
            "1 to 7",
            "15 to 30",
            "8 to 15",
            "more than 30",
            "none"
          ]
        ]
      },
      {
        "name": "Days_Policy_Claim",
        "type": "nominal",
        "num_unique_vals": 3,
        "categories": [
          [
            "15 to 30",
            "8 to 15",
            "more than 30"
          ]
        ]
      },
      {
        "name": "PoliceReportFiled",
        "type": "nominal",
        "num_unique_vals": 2,
        "categories": [
          [
            "No",
            "Yes"
          ]
        ]
      },
      {
        "name": "WitnessPresent",
        "type": "nominal",
        "num_unique_vals": 2,
        "categories": [
          [
            "No",
            "Yes"
          ]
        ]
      },
      {
        "name": "AddressChange_Claim_2",
        "type": "nominal",
        "num_unique_vals": 2,
        "categories": [
          [
            "change",
            "no_change"
          ]
        ]
      }
    ],
    "terms": [
      {
        "term_features": [
          "Make"
        ],
        "scores": [
          0.0,
          0.4092210348506295,
          0.09093620579655315,
          -0.1986528658132643,
          -0.18859858713152597,
          -0.3049711973435777,
          -0.4749876881900828,
          -0.4269851502199731,
          -0.1714162022668673,
          -0.21445533141379444,
          -0.17529787341172012,
          -0.15400963254571984,
          0.3209245576797905,
          0.28641577705679516,
          0.36820412096900734,
          -0.15049196827072997,
          -0.004523648559938772,
          -0.48316062494957374,
          0.0
        ],
        "standard_deviations": [
          0.0,
          0.06717786128793928,
          0.2534697947472193,
          0.04028628884023158,
          0.06431772521339697,
          0.06356350371390626,
          0.07380297543008432,
          0.08099605072976376,
          0.03651197762238232,
          0.11411603172643678,
          0.10551119426116011,
          0.15380708325652084,
          0.026537586507779935,
          0.08262364239972458,
          0.1454647982739943,
          0.1730334471926629,
          0.034440076981507924,
          0.14789929504908653,
          0.0
        ],
        "bagged_scores": [
          [
            0.0,
            0.3871000892129627,
            -0.1431297456323125,
            -0.2101863145815036,
            -0.21727525098064293,
            -0.3187866543634788,
            -0.38450857143214096,
            -0.3598394603304023,
            -0.1516246907024405,
            -0.12836382129227913,
            -0.06563701700831458,
            -0.11553359274959811,
            0.29090628584753264,
            0.27018956305365016,
            0.23602934815260185,
            -0.02052620814357055,
            -0.02251663993484601,
            -0.3715190655751073,
            0.0
          ],
          [
            0.0,
            0.5403514038773202,
            0.41600079203555823,
            -0.11147886508139805,
            -0.0002862709871007951,
            -0.265143945621224,
            -0.5525803979957662,
            -0.5297903351996943,
            -0.1629014171351852,
            -0.39347381631346234,
            -0.3431666330776041,
            -0.28994362298782717,
            0.3217024555493337,
            0.3000188475077691,
            0.3390684919256206,
            -0.3289230699134837,
            -0.0304014608935176,
            -0.5712781312922692,
            0.0
          ],
          [
            0.0,
            0.3919602961720848,
            0.08787046328928556,
            -0.20859782288978923,
            -0.21684830536139643,
            -0.2096943374852105,
            -0.47017128462651653,
            -0.48152546353700915,
            -0.16442250947972425,
            -0.13918197859739362,
            -0.11754858188745554,
            -0.0556845188711184,
            0.30789346382740035,
            0.22697325343406427,
            0.3784304834811248,
            -0.04253337409091923,
            -0.010453559359552153,
            -0.4031848393365017,
            0.0
          ],
          [
            0.0,
            0.3926499606856445,
            0.07252413731685871,
            -0.2045679752048931,
            -0.12688582067506177,
            -0.4039178802271537,
            -0.4447157358707132,
            -0.44499488617428373,
            -0.19748557170497869,
            -0.1621369897772194,
            -0.14176264130974645,
            -0.09162654896080122,
            0.317667608170376,
            0.08374582468059147,
            0.06603172220058345,
            -0.007907218957869347,
            0.034381517603259,
            -0.6871866087305204,
            0.0
          ],
          [
            0.0,
            0.3913639683777851,
            -0.12090310380226045,
            -0.1773166671477101,
            -0.19443959164797925,
            -0.416752665777572,
            -0.47173468127266266,
            -0.4794496543693881,
            -0.26288517690282137,
            -0.22291239718257294,
            -0.2157610638328954,
            -0.22745821722935072,
            0.3428996444946064,
            0.3359752854544498,
            0.34589321191964434,
            -0.04234380119180575,
            0.03984964627699322,
            -0.7825417526038214,
            0.0
          ],
          [
            0.0,
            0.4008425031200914,
            0.3622548055305571,
            -0.13485083527043248,
            -0.14478693210852328,
            -0.37205049892457975,
            -0.4983945701366874,
            -0.46815235942953837,
            -0.1108871198956187,
            -0.10206977638898637,
            -0.048888300872935955,
            -0.0252139524629819,
            0.3341006386862605,
            0.40598280861056135,
            0.5114379415239831,
            -0.15179817314111937,
            -0.0662589000600661,
            -0.41051378783569725,
            0.0
          ],
          [
            0.0,
            0.316024845661091,
            0.03031435115514412,
            -0.2347511464285726,
            -0.2407882608124831,
            -0.3183891221436391,
            -0.3836329551833451,
            -0.3897889135244896,
            -0.1742866077497265,
            -0.21008250240455756,
            -0.17748667609349425,
            -0.08389443742100208,
            0.27314740146090033,
            0.24232174793155256,
            0.24991123786012168,
            0.04066906922661541,
            0.03691516372243956,
            -0.3213110976802529,
            0.0
          ],
          [
            0.0,
            0.3531580957270614,
            0.0948910116988051,
            -0.17695592042873393,
            -0.16913491882500592,
            -0.31067314727678275,
            -0.605478464269399,
            -0.5768759174004776,
            -0.17877160480994636,
            -0.2033435580901602,
            -0.15078367093455286,
            -0.06865390583364613,
            0.3360680677222554,
            0.2831071635317962,
            0.5184958914509874,
            -0.14389625536434492,
            0.05311747777981768,
            -0.4658293408438022,
            0.0
          ],
          [
            0.0,
            0.3339257165430693,
            -0.0069245723288246935,
            -0.24575709333765366,
            -0.2409199256372862,
            -0.24571165592630212,
            -0.4462640484842091,
            -0.3219411426946253,
            -0.16333755003579864,
            -0.1322641624735323,
            -0.09039976020381633,
            -0.024540916558397838,
            0.36591784944371386,
            0.35713305942457735,
            0.515619715332465,
            -0.629895627080859,
            -0.034295798717805234,
            -0.6723158069731122,
            0.0
          ],
          [
            0.0,
            0.5109389889284744,
            0.4531152143161814,
            -0.21784649894348262,
            -0.23393342068916378,
            -0.3585051540144951,
            -0.5398047309245989,
            -0.3270509508044726,
            -0.1683060820284984,
            -0.328201526204137,
            -0.32917956275186927,
            -0.2811489386026705,
            0.3360570532948329,
            0.3012246751313597,
            0.5574806580622563,
            -0.06369915171506234,
            -0.004657899316464098,
            -0.42681806334815586,
            0.0
          ],
          [
            0.0,
            0.44537591349593497,
            -0.42230014961745077,
            -0.16590471372915735,
            -0.19090475799477755,
            -0.22413996330772726,
            -0.46479123672129086,
            -0.4657416451049722,
            -0.21567666269416372,
            -0.2279606327894622,
            -0.16284721328360707,
            -0.16125034036264907,
            0.2826542408386651,
            0.2502539590864106,
            0.25483174888835647,
            -0.2437355632145243,
            0.014625514234896837,
            -0.2803835218633539,
            0.0
          ],
          [
            0.0,
            0.34594025845959087,
            -0.16621726915717286,
            -0.24532121262062273,
            -0.25618764611625694,
            -0.30307646086941176,
            -0.3242940328581423,
            -0.3070887647211892,
            -0.18403965289067575,
            -0.1662538537796031,
            -0.17485077734224472,
            -0.08799716771090949,
            0.2940399250372383,
            0.20780562478686926,
            0.20257121813043752,
            -0.01180948883049536,
            -0.01829515397570633,
            -0.38336312284187957,
            0.0
          ],
          [
            0.0,
            0.40371652809915204,
            0.4692367929751966,
            -0.196846946034135,
            -0.17137731202859946,
            -0.29297137105625193,
            -0.510518162414014,
            -0.4754997148222046,
            -0.14187004109242404,
            -0.5016900977075658,
            -0.38865091144546166,
            -0.6131282829142737,
            0.34229118869903685,
            0.4187236687378537,
            0.5180788011323717,
            -0.308222187824591,
            -0.008574968845248901,
            -0.6087144237566751,
            0.0
          ],
          [
            0.0,
            0.5157459195485499,
            0.14637415337217868,
            -0.25075810968761547,
            -0.2366118059770862,
            -0.22978390581625857,
            -0.552938762471674,
            -0.3500528949668754,
            -0.12333214461413984,
            -0.08443952679219031,
            -0.047207417720083536,
            -0.03006041297485111,
            0.34759798444491474,
            0.32636539742362597,
            0.4609772235055485,
            -0.15226650554818993,
            -0.04676601835334267,
            -0.37928918661288286,
            0.0
          ]
        ],
        "bin_weights": [
          0.0,
          265.0,
          5.0,
          448.0,
          16.0,
          162.0,
          584.0,
          1.0,
          427.0,
          1.0,
          31.0,
          9.0,
          1317.0,
          1.0,
          30.0,
          24.0,
          1003.0,
          73.0,
          0.0
        ]
      },
      {
        "term_features": [
          "VehiclePrice_num"
        ],
        "scores": [
          0.0,
          -0.5558651669109409,
          0.14059347175936923,
          -0.03143740261847276,
          0.0
        ],
        "standard_deviations": [
          0.0,
          0.029886829887712366,
          0.018275682977512135,
          0.04886572115254428,
          0.0
        ],
        "bagged_scores": [
          [
            0.0,
            -0.5424331445593625,
            0.1196449889824576,
            0.03348540823061298,
            0.0
          ],
          [
            0.0,
            -0.6216983278125561,
            0.15989877257531915,
            -0.04486417547198798,
            0.0
          ],
          [
            0.0,
            -0.5644780546101266,
            0.15552792026008044,
            -0.07855767866989538,
            0.0
          ],
          [
            0.0,
            -0.5330335121131214,
            0.12724226188997179,
            -0.0024482729015715687,
            0.0
          ],
          [
            0.0,
            -0.5216163134397541,
            0.11743654856109631,
            0.023488085771457064,
            0.0
          ],
          [
            0.0,
            -0.5965170999726296,
            0.15617777261616017,
            -0.05312060581901887,
            0.0
          ],
          [
            0.0,
            -0.5299050170524513,
            0.12233116151539677,
            0.012789807504320613,
            0.0
          ],
          [
            0.0,
            -0.5886408119441701,
            0.15623941279937456,
            -0.06018327913663127,
            0.0
          ],
          [
            0.0,
            -0.5564202733183707,
            0.1355940573571961,
            -0.012678766390008117,
            0.0
          ],
          [
            0.0,
            -0.5505363854689409,
            0.16058965105569073,
            -0.10916487715203758,
            0.0
          ],
          [
            0.0,
            -0.5513874470203706,
            0.1292773227347156,
            0.006044870267655461,
            0.0
          ],
          [
            0.0,
            -0.5100893779169703,
            0.11401242965217649,
            0.02599948473968946,
            0.0
          ],
          [
            0.0,
            -0.5759913714432265,
            0.16935159819606344,
            -0.11909938829557172,
            0.0
          ],
          [
            0.0,
            -0.5393652000811214,
            0.14498470643547,
            -0.0618142493356317,
            0.0
          ]
        ],
        "bin_weights": [
          0.0,
          691.0,
          2910.0,
          796.0,
          0.0
        ]
      },
      {
        "term_features": [
          "VehicleCategory"
        ],
        "scores": [
          0.0,
          0.0023578301794218324,
          -1.9715426126259128,
          0.07199425128684794,
          0.0
        ],
        "standard_deviations": [
          0.0,
          0.002091517122878577,
          0.6123951511423554,
          0.024247094957377906,
          0.0
        ],
        "bagged_scores": [
          [
            0.0,
            0.0019325072041543392,
            -1.2744776672938087,
            0.04157736843478117,
            0.0
          ],
          [
            0.0,
            0.005868169639643622,
            -2.3017270806617773,
            0.046188822341178715,
            0.0
          ],
          [
            0.0,
            0.002870683181415472,
            -2.0111622036974857,
            0.06778409197498154,
            0.0
          ],
          [
            0.0,
            0.0006947973499717916,
            -1.6975496491423856,
            0.07821771519544952,
            0.0
          ],
          [
            0.0,
            0.0035631103767579386,
            -1.9895737239092197,
            0.058266803638790846,
            0.0
          ],
          [
            0.0,
            0.0020453932492023597,
            -1.879987309034937,
            0.0711173506728889,
            0.0
          ],
          [
            0.0,
            -0.0003848290469544366,
            -1.277728004342969,
            0.06990624392448974,
            0.0
          ],
          [
            0.0,
            0.0004404816128076583,
            -2.1489967936772922,
            0.1043553045209651,
            0.0
          ],
          [
            0.0,
            0.0033504207174744477,
            -1.6965027761964446,
            0.04589007372889031,
            0.0
          ],
          [
            0.0,
            0.0013674473538460574,
            -2.970769979906322,
            0.1350421327849623,
            0.0
          ],
          [
            0.0,
            0.0012136553928347033,
            -1.3695064916484616,
            0.05516500595562099,
            0.0
          ],
          [
            0.0,
            9.534220800624243e-05,
            -1.2812138937895574,
            0.06424860744330695,
            0.0
          ],
          [
            0.0,
            0.007305962311836542,
            -3.397346384029501,
            0.08464762478227933,
            0.0
          ],
          [
            0.0,
            0.0026464809609089146,
            -2.3050546194326196,
            0.08551237261728573,
            0.0
          ]
        ],
        "bin_weights": [
          0.0,
          4047.0,
          17.0,
          333.0,
          0.0
        ]
      },
      {
        "term_features": [
          "AgeOfVehicle"
        ],
        "scores": [
          0.0,
          -4.0063952061895804,
          -0.7607443775779404,
          -1.0008447281471948,
          -0.32961242659032375,
          0.1990514418110314,
          0.06015042587777537,
          -0.01454611782093496,
          -0.10514718168469878,
          0.0
        ],
        "standard_deviations": [
          0.0,
          1.8140360231020218,
          0.1753590303693376,
          0.2744744841870383,
          0.06771366201141348,
          0.05174838306119593,
          0.030103477717369792,
          0.02190149153064698,
          0.3452212591112811,
          0.0
        ],
        "bagged_scores": [
          [
            0.0,
            -1.9168235843557555,
            -0.5289675591481253,
            -0.6200376622804108,
            -0.3513826853203322,
            0.11658930058025663,
            0.04867922081264085,
            -0.010008807653629957,
            0.17521652667231066,
            0.0
          ],
          [
            0.0,
            -5.787529650678657,
            -0.7173951248323743,
            -1.067850348111392,
            -0.24901298346119002,
            0.17195978980186993,
            0.09072571670720686,
            -0.0035223567750140294,
            -0.44060091930259604,
            0.0
          ],
          [
            0.0,
            -4.396472122721605,
            -1.0377496581692434,
            -1.3109307776585732,
            -0.3386103059347561,
            0.2825299885334833,
            0.03682512553192623,
            -0.013582282498323786,
            -0.10811862372251253,
            0.0
          ],
          [
            0.0,
            -2.7304953770785065,
            -0.898007251511497,
            -0.8323074857949225,
            -0.19559098648843265,
            0.22685729003104338,
            0.023214739336456187,
            -0.04829148582187641,
            0.05119837853559779,
            0.0
          ],
          [
            0.0,
            -4.51149295542601,
            -0.8094685748359489,
            -1.2731820006111447,
            -0.3372242782001467,
            0.2458468436706527,
            0.06256870401504828,
            -0.030853773086831154,
            -0.08584680726586574,
            0.0
          ],
          [
            0.0,
            -3.8770771415072995,
            -0.7276352381488841,
            -1.404550575968271,
            -0.2864945835911103,
            0.2610959238465778,
            0.03190428392892793,
            -0.03517003315546424,
            0.07916848371433596,
            0.0
          ],
          [
            0.0,
            -2.1542390419809343,
            -0.6229873615892123,
            -0.704588146796989,
            -0.3577345327129645,
            0.13530930226043367,
            0.05215567828162224,
            -0.012606506543011244,
            0.1402232158859944,
            0.0
          ],
          [
            0.0,
            -3.499489627613557,
            -0.5901693798416886,
            -1.1571438088921138,
            -0.39914146465142786,
            0.19202483185800437,
            0.07604758394034308,
            -0.04120303663912346,
            0.15593403737902622,
            0.0
          ],
          [
            0.0,
            -3.013798415643032,
            -0.7813904048291822,
            -0.7336633169481285,
            -0.26787991565115277,
            0.17353164552458253,
            0.024309147800376185,
            -0.014081475939537742,
            0.14332959397669995,
            0.0
          ],
          [
            0.0,
            -7.53963781677162,
            -0.9785525444133054,
            -1.1145672468531376,
            -0.44855408101227606,
            0.2182591728680625,
            0.13785867109014213,
            0.014345191176459986,
            -0.7659144589108439,
            0.0
          ],
          [
            0.0,
            -2.6971477272513265,
            -0.9509988076717026,
            -0.8619390542168686,
            -0.30949627419867376,
            0.15123451664210125,
            0.054951085519680344,
            -0.01620210422714226,
            0.14396033345559878,
            0.0
          ],
          [
            0.0,
            -1.6743624427672055,
            -0.6130471941923953,
            -0.5440825743820422,
            -0.38002598960851125,
            0.12818845463017925,
            0.05024844317789037,
            -0.011815899449907054,
            0.14660913290948735,
            0.0
          ],
          [
            0.0,
            -7.374122239729258,
            -0.45849161929566284,
            -1.0437730420525035,
            -0.4179440714012217,
            0.23436408498056321,
            0.09393767149965213,
            0.04137306958648629,
            -0.9170380258669475,
            0.0
          ],
          [
            0.0,
            -4.916844743129361,
            -0.9355605676119433,
            -1.343210153494232,
            -0.27548182003233584,
            0.24892904012662892,
            0.05867989064694232,
            -0.022026148466174386,
            -0.19018141104606806,
            0.0
          ]
        ],
        "bin_weights": [
          0.0,
          9.0,
          46.0,
          60.0,
          318.0,
          882.0,
          1578.0,
          1364.0,
          140.0,
          0.0
        ]
      },
      {
        "term_features": [
          "Sex"
        ],
        "scores": [
          0.0,
          -0.6467199737061681,
          0.07648138041031743,
          0.0
        ],
        "standard_deviations": [
          0.0,
          0.07790095082680573,
          0.00921259972900933,
          0.0
        ],
        "bagged_scores": [
          [
            0.0,
            -0.6718768247042811,
            0.07945644035795797,
            0.0
          ],
          [
            0.0,
            -0.6274925256186469,
            0.07420753418430082,
            0.0
          ],
          [
            0.0,
            -0.6986624251655266,
            0.08262411691301369,
            0.0
          ],
          [
            0.0,
            -0.5926526239107922,
            0.0700873525225123,
            0.0
          ],
          [
            0.0,
            -0.7813221276629231,
            0.09239948864782788,
            0.0
          ],
          [
            0.0,
            -0.6574013580968989,
            0.07774456549213071,
            0.0
          ],
          [
            0.0,
            -0.6053497095732678,
            0.07158891529795768,
            0.0
          ],
          [
            0.0,
            -0.5471937501466452,
            0.0647113666882477,
            0.0
          ],
          [
            0.0,
            -0.531414333171842,
            0.06284528609483887,
            0.0
          ],
          [
            0.0,
            -0.608329789314524,
            0.07194134080143787,
            0.0
          ],
          [
            0.0,
            -0.6257967931557806,
            0.0740069961387177,
            0.0
          ],
          [
            0.0,
            -0.5781078358743994,
            0.06836727967487174,
            0.0
          ],
          [
            0.0,
            -0.7860428614804502,
            0.09295776464608581,
            0.0
          ],
          [
            0.0,
            -0.742436674010376,
            0.08780087828454347,
            0.0
          ]
        ],
        "bin_weights": [
          0.0,
          465.0,
          3932.0,
          0.0
        ]
      },
      {
        "term_features": [
          "MaritalStatus"
        ],
        "scores": [
          0.0,
          -0.5445650999123293,
          0.04484539209535396,
          -0.10464353254942815,
          -2.2864881958236634,
          0.0
        ],
        "standard_deviations": [
          0.0,
          0.29068692838753457,
          0.0158236563745117,
          0.03753269422010995,
          1.0166426023208963,
          0.0
        ],
        "bagged_scores": [
          [
            0.0,
            -0.4366980176865698,
            0.024319590589326805,
            -0.05606340613072757,
            -0.9488379999369797,
            0.0
          ],
          [
            0.0,
            -0.6123420486569682,
            0.05953693045744184,
            -0.14048664984857231,
            -3.02167146055387,
            0.0
          ],
          [
            0.0,
            -0.5169897373604079,
            0.04294827986991691,
            -0.10022865592733995,
            -2.20148130876425,
            0.0
          ],
          [
            0.0,
            -0.5029526384947329,
            0.048100015534574256,
            -0.11460501602636892,
            -2.1543797169180277,
            0.0
          ],
          [
            0.0,
            -0.09538027789452305,
            0.03585934884001779,
            -0.08370284493484967,
            -2.910032362162315,
            0.0
          ],
          [
            0.0,
            -0.4748508668238499,
            0.034756492451860535,
            -0.07888319023219537,
            -2.12585017966845,
            0.0
          ],
          [
            0.0,
            -0.43490574131747645,
            0.03838932429396629,
            -0.0911669116874658,
            -1.6831890526379776,
            0.0
          ],
          [
            0.0,
            -1.2304521247738451,
            0.061893747279413956,
            -0.1411453421844123,
            -2.3959513419893215,
            0.0
          ],
          [
            0.0,
            -0.5656320183202938,
            0.05312403890338646,
            -0.13225842860289122,
            -1.0080270451398734,
            0.0
          ],
          [
            0.0,
            -0.5529190755417046,
            0.0723965467030781,
            -0.17151545102552304,
            -4.126449967942073,
            0.0
          ],
          [
            0.0,
            -0.2374642537348449,
            0.021745925288494287,
            -0.048617042828551706,
            -1.6946329121626655,
            0.0
          ],
          [
            0.0,
            -0.2822092212270604,
            0.019746640547080037,
            -0.04577052235049432,
            -0.9433467202093402,
            0.0
          ],
          [
            0.0,
            -0.579509977535868,
            0.06120698807353816,
            -0.13997979284236856,
            -4.314318450058197,
            0.0
          ],
          [
            0.0,
            -1.1016053994044648,
            0.053811620502859946,
            -0.1205862010702334,
            -2.482666223387947,
            0.0
          ]
        ],
        "bin_weights": [
          0.0,
          16.0,
          3198.0,
          1178.0,
          5.0,
          0.0
        ]
      },
      {
        "term_features": [
          "Age"
        ],
        "scores": [
          0.0,
          1.238347612910895,
          1.059116689139977,
          1.5202994909172103,
          -2.602527102830049,
          -2.624830563798885,
          0.4112881609270004,
          0.15401313006052678,
          -0.4920305482914083,
          -0.43476822753944755,
          -0.28008698397060383,
          0.16105267316580715,
          0.2568078288422154,
          0.2229779552821548,
          0.20407364916342727,
          0.2080512337574551,
          0.2091068834443766,
          0.16369050180894443,
          0.10610466580097996,
          0.16331876785094318,
          0.1503002883861139,
          0.14782433561575833,
          0.14100757335036415,
          0.12867180049459226,
          0.42323508179075675,
          0.3277365169226185,
          -0.10804101427700126,
          -0.1479422891731377,
          -0.14669090578421354,
          -0.5389121278416937,
          -0.682666889163197,
          -0.6958549013922747,
          -0.01670484901012713,
          0.01630421947396221,
          0.043255681497708476,
          -0.026729919391729258,
          -0.13702331045660426,
          -0.12360542161622302,
          -0.1566815847786817,
          -0.5389023641472077,
          -0.5624166549497016,
          -0.4678222817343799,
          -0.20803988822417716,
          -0.3044157420519985,
          -0.1420482025921147,
          0.3927429807068362,
          -0.05519765800745095,
          -0.3123201791481762,
          0.05896196481462279,
          -0.2637126916859047,
          -0.12909355028361677,
          0.014150576652298252,
          0.2885593137732571,
          0.16605853645000632,
          -0.675389773379019,
          -0.23470631034477557,
          0.2811214953793343,
          0.28053055401298177,
          -0.048929228096807345,
          -1.0513932647980844,
          -0.9409230205172248,
          -1.3253215687440016,
          -0.9121232028255698,
          -3.945531022892745,
          -3.9978440240846944,
          0.0
        ],
        "standard_deviations": [
          0.0,
          0.3939988278770742,
          0.34752877437308727,
          0.9438402545868617,
          2.1389308961176097,
          2.1487943662274094,
          0.2910017991849164,
          0.3049553157277459,
          0.42166061160746254,
          0.34812598968988656,
          0.13195071066313824,
          0.05508600503274543,
          0.07761753194967208,
          0.03812144318294349,
          0.045854103911791406,
          0.0300903802689075,
          0.03511352959580251,
          0.05256025979729642,
          0.05666880045327119,
          0.035340695623727165,
          0.02694820749216931,
          0.030134103451458623,
          0.021377880693649185,
          0.014052332880472996,
          0.13708541576877778,
          0.12075512159783813,
          0.07304635673706363,
          0.07034501440664691,
          0.10524084496242914,
          0.09222503330146603,
          0.15681302513394965,
          0.12661226516033866,
          0.09469338035470948,
          0.10976440989651841,
          0.12588498595663164,
          0.10355497648655405,
          0.04885092914811491,
          0.09263616164842674,
          0.129233859719972,
          0.1623660332695846,
          0.18158354455969905,
          0.14408184086014866,
          0.06291049188526592,
          0.1528499165681442,
          0.09671435664281815,
          0.2661804809328806,
          0.13834170564517045,
          0.270945665637274,
          0.11736254425273569,
          0.19276345566242523,
          0.11503100004349767,
          0.15651264547375357,
          0.2968586213184256,
          0.20349153227510305,
          0.7326969448635688,
          0.17521726694972498,
          0.11433765907012677,
          0.18379348314006919,
          0.37422242094741986,
          0.365109736118116,
          0.42748227735709754,
          0.7630331149263686,
          0.20907367710972305,
          1.294479552666788,
          1.2976968723991222,
          0.0
        ],
        "bagged_scores": [
          [
            0.0,
            0.7709030589352243,
            0.6452723100067974,
            0.6379506953402615,
            0.0876178860297137,
            0.06984581306336936,
            0.39253538815713274,
            0.38401692171262414,
            -0.1483720680736297,
            -0.157245145557822,
            -0.16118647658767285,
            0.15505643663806878,
            0.15666122184192244,
            0.1544124599932371,
            0.15094229644094154,
            0.15184062806421222,
            0.1509455913756126,
            0.13957163739350803,
            0.13957163739350803,
            0.13640547254476948,
            0.13472976211669344,
            0.12367244420702936,
            0.12146815124233773,
            0.10914930650853702,
            0.24543261368710628,
            0.24151968406262547,
            -0.2138350696047502,
            -0.29207567293136993,
            -0.29612366722924566,
            -0.46115138821645796,
            -0.48095945660527784,
            -0.4842464213042246,
            -0.11737440945539457,
            -0.1213067816476123,
            -0.12179828405720813,
            -0.12321677027157693,
            -0.12551995870852192,
            -0.13554630535268905,
            -0.22129960879166385,
            -0.22377421185182053,
            -0.21912006562073497,
            -0.2193590607055723,
            -0.13210647891951838,
            -0.13301480937816684,
            -0.0802406758093338,
            -0.01966856673156471,
            -0.026274430612311273,
            -0.026274430612311273,
            -0.024911735783516936,
            -0.033766380847438465,
            -0.031953370713262486,
            -0.031220116914080484,
            -0.0322415747425166,
            -0.03675885818473508,
            -0.05005487887324678,
            -0.053434488086116144,
            0.15084941321513168,
            0.14127133239673134,
            0.12480571574026703,
            -0.5874636405588824,
            -0.6073792363315852,
            -0.7143566542730977,
            -0.747819293634776,
            -2.2891169735573866,
            -2.314025673981895,
            0.0
          ],
          [
            0.0,
            1.5254406665912223,
            0.8468736920093785,
            1.578967298745757,
            -4.508254246367217,
            -4.51354410891276,
            0.6750532611559329,
            0.1497965066978854,
            -0.5130844259979974,
            -0.24175756173288698,
            -0.24159321232770814,
            0.07714987959254274,
            0.3877820233499466,
            0.23776594336867335,
            0.21581848540758938,
            0.21433217138164978,
            0.20725020426843013,
            0.017634750268343394,
            -0.03766880433716327,
            0.14657356614921765,
            0.11386498528388775,
            0.1264198942773739,
            0.14247827348784903,
            0.1256875413962437,
            0.5910925079961791,
            0.4289056048321493,
            0.03771931243897522,
            -0.17008109088762774,
            -0.19408228624125717,
            -0.6139017782770957,
            -0.8551349702490935,
            -0.8608433499839578,
            0.012892514330082483,
            0.012104456615462972,
            0.10970885943980337,
            -0.012744507383143228,
            -0.015508457679654974,
            -0.027346368499577528,
            -0.036732385915717924,
            -0.7088656665994434,
            -0.6878359234054008,
            -0.4858691330103364,
            -0.19234960300739817,
            -0.27004474303349724,
            -0.019696117099578497,
            0.5924957456447044,
            -0.05911913931054005,
            -0.6274790387813993,
            0.16254715585426968,
            -0.4474183131403887,
            -0.128988710890366,
            -0.07409744569867555,
            0.5142412043963762,
            0.5009149022582318,
            -0.19740862586316354,
            -0.1982602061016896,
            0.3472363659315304,
            0.8161682148569884,
            0.10620046136431155,
            -1.0204314994747223,
            -0.8930737203446394,
            -0.9698383490722745,
            -0.8595709263673826,
            -4.9179867761385045,
            -4.960029454516548,
            0.0
          ],
          [
            0.0,
            1.3474823591627942,
            1.2323832838521858,
            1.6572950141497542,
            -3.3398466829061304,
            -3.434664964690529,
            0.7820908696315035,
            0.11629980718766647,
            -0.4187126178002066,
            -0.35888118431788035,
            -0.3029640565710582,
            0.17371979875603138,
            0.3366944470508169,
            0.2682180685497139,
            0.2408612582258685,
            0.21238487054842475,
            0.1583552480115047,
            0.13841912462281156,
            0.12596453444748096,
            0.12025697961446002,
            0.11790419045518136,
            0.10888488522965263,
            0.12626855021908112,
            0.12272664416297097,
            0.4915283985015174,
            0.43451178584813577,
            -0.20865454853611726,
            -0.23878278757953036,
            -0.2506385628511652,
            -0.5414675350276613,
            -0.6681008457704396,
            -0.6746545825422017,
            -0.052229728512037374,
            -0.04417694078235944,
            0.03714698291916374,
            -0.05137032844267382,
            -0.12554951026001565,
            -0.13356864926290168,
            -0.13587322592883355,
            -0.5705811777648225,
            -0.5735742980582342,
            -0.5766248309317364,
            -0.2563564540175058,
            -0.3079042842613246,
            -0.0923093822966889,
            0.46132700004622945,
            -0.04433024437507278,
            -0.2451477540532419,
            0.1833974970831911,
            -0.19254298222115346,
            -0.0306206163238341,
            -0.029148390554498513,
            0.16550936027909452,
            0.14689023674685142,
            -0.6563026903119211,
            -0.16743796031563785,
            0.34126055703307917,
            0.24810486955689853,
            -0.10320497343902972,
            -1.1840479603266092,
            -1.196264629995448,
            -1.20848799033928,
            -0.9684841692075964,
            -3.8059195244762156,
            -3.859323017623069,
            0.0
          ],
          [
            0.0,
            1.1131972585516243,
            1.0845043938798262,
            1.2072208483364086,
            -1.8148867167270446,
            -1.8276620903150114,
            0.26554185702318794,
            0.26151974699869485,
            -0.49108005170199676,
            -0.49604342525061396,
            -0.36883605184335183,
            0.18820100472242796,
            0.1935128053315256,
            0.23547690996748444,
            0.23324811688619762,
            0.2301846566003764,
            0.22872104252624725,
            0.1612786113422891,
            0.15500436297440362,
            0.15500436297440362,
            0.15105247147147183,
            0.13125936620065115,
            0.13238759221673602,
            0.13120227300156773,
            0.44469012394319213,
            0.4163757110148853,
            -0.15285181455292257,
            -0.15879370230083978,
            -0.209466175810831,
            -0.6283637746768869,
            -0.6353039762241315,
            -0.6411830253340651,
            -0.10448209529462814,
            -0.11172238453938647,
            -0.11569579172987927,
            -0.12837126680615085,
            -0.1305798134202414,
            -0.1394204614219734,
            -0.24309232212332516,
            -0.5879865427217019,
            -0.5843812565183026,
            -0.5857236138655437,
            -0.1415208468316108,
            -0.1400737410873948,
            -0.004840757057365669,
            0.3094412584751861,
            0.19135488999050604,
            -0.15809078401514481,
            -0.029018308493860848,
            -0.09117263985222361,
            -0.03345218165289364,
            -0.028543336275348843,
            0.11040690311968694,
            0.10682941309223222,
            -0.15565712178313879,
            -0.051616472576314035,
            0.3904238002286621,
            0.34636284705936576,
            -0.08078742146433347,
            -0.8128527626525645,
            -0.8458139796995999,
            -0.874086453559746,
            -0.9073199242607264,
            -3.328309161474766,
            -3.3956703751776125,
            0.0
          ],
          [
            0.0,
            1.2301605985650204,
            1.1904956476544781,
            1.5200969437539749,
            -3.6182484496796747,
            -3.6421280874243576,
            0.6571115189617507,
            0.3452946155757778,
            -0.31501647694562157,
            -0.31538948753476703,
            -0.1366046124557817,
            0.22556624221206972,
            0.3660348030142898,
            0.19949152776000895,
            0.1962926143346779,
            0.19245660541706128,
            0.18517176652807824,
            0.1799572643663206,
            0.1589454150091917,
            0.1671619990089233,
            0.15451086557180466,
            0.1383478333063554,
            0.13178947294361065,
            0.12632896916010045,
            0.41236798558473303,
            0.2424348808784253,
            -0.18399902133487878,
            -0.19642198815378908,
            -0.20993088045077624,
            -0.5371188610015147,
            -0.7845641462052277,
            -0.7981080770080293,
            0.0012086158697585947,
            0.0395889885906856,
            0.17425428740838061,
            0.09811850581869574,
            -0.13721830711065436,
            -0.13780455499398664,
            -0.13780455499398664,
            -0.48072224777467915,
            -0.48718396815981607,
            -0.4120561269323944,
            -0.368371365569473,
            -0.3697375895277147,
            -0.04433004473758789,
            0.5407230475869083,
            0.024764593377056415,
            -0.25228572810858424,
            0.1896071578381171,
            -0.39607680716518784,
            0.05787315933114395,
            0.340256751097308,
            0.46523087964869925,
            0.46397374924611373,
            -1.3483515514680295,
            -0.2453461849654172,
            0.3312590617994945,
            0.28305341063598777,
            0.23948354254486603,
            -1.2857262743422737,
            -2.3506882862479714,
            -2.369749250379265,
            -1.5805169630007758,
            -4.44161293592154,
            -4.514218875461481,
            0.0
          ],
          [
            0.0,
            1.139858351759734,
            1.1156984191719728,
            1.1116935789212354,
            -2.00461783511876,
            -2.00461783511876,
            0.6334242796684291,
            0.2874106107460468,
            -0.5358987763169532,
            -0.4646349562339848,
            -0.46693579874701957,
            0.13219695682522042,
            0.21819768730929134,
            0.21792474020696803,
            0.21774709780220597,
            0.2164658131142974,
            0.21599628730681558,
            0.21398988705035737,
            0.1170598023296005,
            0.19165342942353647,
            0.17464776321911907,
            0.17059904574546464,
            0.15763159419280565,
            0.14494003802637676,
            0.44279001680494945,
            0.41997453728284756,
            -0.0679155149472688,
            -0.11245817969569824,
            -0.1428231955225972,
            -0.6608395738744486,
            -0.7691620068215925,
            -0.7662621791586841,
            -0.08762771659026858,
            0.11486333056296952,
            0.11734678070916334,
            -0.008025600973722888,
            -0.21283646335472722,
            -0.21741424401371917,
            -0.2166313148493907,
            -0.5943726921827721,
            -0.5967932821695685,
            -0.4145520774067712,
            -0.2272538909510684,
            -0.34592770460058425,
            -0.1261795365348359,
            0.33427995605062844,
            -0.11222221563677301,
            -0.11176449118795714,
            -0.1075976432271131,
            -0.1471757964322456,
            -0.11243825664807477,
            0.1197369889063902,
            0.37468097090336905,
            0.36755709858620056,
            -0.6835025778139958,
            -0.6931459119634731,
            0.26151205979433245,
            0.1341297285268565,
            -0.04361445465691677,
            -0.8724005756154296,
            -0.887955676165008,
            -0.887955676165008,
            -0.9085692323921162,
            -3.895473518690844,
            -3.9509499001655684,
            0.0
          ],
          [
            0.0,
            0.8455961454225488,
            0.6867760266780538,
            0.6511712689701505,
            -0.14011575933691245,
            -0.14011575933691245,
            0.5450731391661975,
            0.5354253616260206,
            -0.061402543116105504,
            -0.06240824496324031,
            -0.07045429360171858,
            0.20237905421049007,
            0.23326412104960448,
            0.23326412104960448,
            0.22931388696374683,
            0.2226136454394156,
            0.21422950022420184,
            0.18969188307614038,
            0.1856152393806389,
            0.17193165250645587,
            0.16640133034598248,
            0.16640133034598248,
            0.14754043021448832,
            0.13888878931339488,
            0.24245839213504494,
            0.23245170012051358,
            -0.14579796522936123,
            -0.1740384271558631,
            -0.17984268961830557,
            -0.6325487607868623,
            -0.6446093020964864,
            -0.6410332282905773,
            -0.08150775814338272,
            -0.08481947984127335,
            -0.08942313392704025,
            -0.14234928540032948,
            -0.18385283037223926,
            -0.200795891033357,
            -0.44390443227621246,
            -0.45343219079699815,
            -0.46244025517096876,
            -0.395934167475826,
            -0.1992414900569398,
            -0.1947127734566535,
            -0.1876686793028879,
            -0.037747539332407945,
            -0.035519741913272854,
            -0.0378744448124433,
            -0.040440089123975745,
            -0.04504166428726818,
            -0.044606855850686286,
            -0.05183967253718845,
            -0.012568289823604431,
            -0.023243729545579475,
            -0.32626240662132283,
            -0.3452969418977116,
            0.28381018279977316,
            0.2656181588063072,
            -0.902274619836464,
            -0.9506381240294837,
            -0.9612641445342753,
            -1.0003220184279118,
            -1.014746955334941,
            -2.573463568984958,
            -2.6082099362301743,
            0.0
          ],
          [
            0.0,
            1.249261731761913,
            0.914941164037887,
            1.1638394099856226,
            -2.758626027806798,
            -2.7806006743241545,
            0.5611235200498401,
            -0.033272425769467234,
            -0.4311027917896689,
            -0.4330075620259697,
            -0.40409909227093943,
            0.1741947508272954,
            0.21938381132079582,
            0.21787677519952847,
            0.21584978569901647,
            0.24893094669059035,
            0.28176330678371153,
            0.14651873699330353,
            0.12915023503985482,
            0.1632957899787099,
            0.15659058351070865,
            0.15659058351070865,
            0.14264655740824084,
            0.14023765120618858,
            0.4722276510740551,
            0.1340494670434953,
            -0.11010591429584049,
            -0.12433663086397317,
            -0.13525800095273605,
            -0.42977767188482063,
            -0.6487202063949739,
            -0.6647206822379524,
            0.13800582301396297,
            0.14231432866870133,
            0.1986281531348151,
            0.009383842732241188,
            -0.20030814161956673,
            -0.25323807160965156,
            -0.25715084688039463,
            -0.6852636584984491,
            -0.6908767198357586,
            -0.43673781810205325,
            -0.20605879983546016,
            -0.2951385646557553,
            -0.22735885438349396,
            0.6772240804663469,
            -0.1970312417298809,
            -0.20241190882768478,
            0.1313213727736628,
            -0.22503515269095098,
            -0.09542794191238532,
            -0.09538449122671408,
            0.42228388757513474,
            -0.10812729983299812,
            -0.2881724248624357,
            -0.2881724248624357,
            0.371262171266951,
            0.3424232856439783,
            0.2071947631533601,
            -2.157155654233965,
            -0.910821931189361,
            -1.0113553955346766,
            -0.9463533531161209,
            -4.248935689859602,
            -4.324221632626501,
            0.0
          ],
          [
            0.0,
            0.9479318205466145,
            0.6828411012038558,
            0.6760047410522545,
            -0.5866405565859192,
            -0.6076449891295214,
            0.2837057872592692,
            0.27864466536020627,
            -0.43597065719102146,
            -0.43696782620990404,
            -0.43920048388256994,
            0.27115567844141175,
            0.280335036198198,
            0.27470776730476365,
            0.20048526752535678,
            0.2415256512929758,
            0.2415256512929758,
            0.15845113473295314,
            0.02648656474237801,
            0.12667455194838004,
            0.12667455194838004,
            0.12435772085292622,
            0.12687732030885845,
            0.1199540802276737,
            0.3894816972548603,
            0.3894816972548603,
            -0.060400255936984254,
            -0.06623404779613765,
            -0.09702261766727208,
            -0.6338512329071119,
            -0.6632292872261448,
            -0.6680328786267816,
            0.02158621687617214,
            0.014008028407956896,
            0.009410318069474441,
            0.009410318069474441,
            -0.14330578688461565,
            -0.14672161211666424,
            -0.14672161211666424,
            -0.6508718104585771,
            -0.6593905025080781,
            -0.5102622288930942,
            -0.2662848503078444,
            -0.28111756322815007,
            -0.19130220846431922,
            0.48292066744295203,
            -0.3825170515236327,
            -0.39023632679680903,
            0.04035148161098541,
            -0.35092741817780243,
            -0.348593251090423,
            -0.21124166171342545,
            0.1477780967069087,
            0.1470513562165179,
            -0.19313832901607247,
            -0.1985406787593938,
            0.17253102380613972,
            0.1625471743321129,
            0.15596664009734545,
            -0.8383671901118006,
            -0.8383671901118006,
            -0.865626577248485,
            -0.8852592683403635,
            -3.4938220741296586,
            -3.5489087161335586,
            0.0
          ],
          [
            0.0,
            1.939422047411226,
            1.5945156045235391,
            3.303269056798931,
            -5.994953208200974,
            -6.029299645265023,
            -0.21510559884904284,
            -0.36421313675546296,
            -1.6620173493082921,
            -1.2927055653252881,
            -0.39026232161380936,
            0.05690094129440185,
            0.2363694568718432,
            0.20324016036239526,
            0.08834072894475434,
            0.23587546568139095,
            0.2321799116628258,
            0.24950815491847866,
            0.09589620893704412,
            0.2143108445715962,
            0.21182619209743492,
            0.2093607784005896,
            0.15473771079825083,
            0.1480269643036102,
            0.6785659646323026,
            0.5093738167170352,
            -0.02786910758272193,
            -0.04162619393256639,
            0.09217334836060298,
            -0.31402115084145443,
            -0.5283655420669258,
            -0.8432552311330742,
            -0.05698295614120624,
            0.19463404486526864,
            0.19019151374218315,
            -0.0361274766281208,
            -0.127905787010396,
            0.0670196093424745,
            0.06460173872173014,
            -0.5626693250925332,
            -0.795829557154857,
            -0.5302084945636666,
            -0.15798742925285653,
            -0.5372144547979686,
            -0.3486626917083937,
            0.6589188312903111,
            -0.16504644554641362,
            -0.9582142851598138,
            0.18906201849608611,
            -0.498421072247183,
            -0.3194998637897592,
            0.2718190257412322,
            0.8927660874111639,
            0.35923182508940965,
            -1.5197921554163965,
            -0.4126428045814763,
            0.2655202046958616,
            0.24611162219642596,
            0.21885310694213966,
            -1.1917688186918212,
            -0.4034761541728008,
            -3.12526974428934,
            -0.7002230220003582,
            -6.044877598933824,
            -6.051328812344766,
            0.0
          ],
          [
            0.0,
            0.9738670143070486,
            0.9419271373153714,
            0.9351515889171185,
            -0.4766129809507973,
            -0.4935282922170139,
            0.600745917918822,
            0.5969741694030339,
            -0.19802150872261853,
            -0.2041040462312,
            -0.20914878958413535,
            0.17625906539038944,
            0.20279631104218301,
            0.20152917704477924,
            0.2007524533741365,
            0.21696463337682953,
            0.21493428417590682,
            0.13546620042019153,
            0.13398806881025727,
            0.13398806881025727,
            0.12744147076455078,
            0.12459894619129039,
            0.12089798133875596,
            0.11401728895974064,
            0.25500497862059496,
            0.2449396338721297,
            -0.16938158136632642,
            -0.2065706054660098,
            -0.21827328936588747,
            -0.47830172989172137,
            -0.49015628902293895,
            -0.5046039391828916,
            -0.08048316938745555,
            -0.08692245824081878,
            -0.09015428490158083,
            -0.10594023696528078,
            -0.12100563604276436,
            -0.12100563604276436,
            -0.12292646542278267,
            -0.4815015082837578,
            -0.4844895091875384,
            -0.484717151521597,
            -0.27354145541107344,
            -0.27811678248806915,
            -0.27949371293319103,
            0.2503379102193018,
            -0.09047797803848652,
            -0.11596742094109232,
            -0.11697120240144672,
            -0.20004004833336037,
            -0.20564564407913588,
            -0.08266511162950697,
            -0.05730706308671306,
            -0.06426643557357518,
            -0.1617392895482468,
            -0.1639566198249488,
            0.07854936981108766,
            0.06399304213112975,
            0.04780649512211048,
            -0.8662506717997822,
            -0.8662506717997822,
            -0.892226016628904,
            -0.9135826002013383,
            -2.983391359512595,
            -3.0125423212868174,
            0.0
          ],
          [
            0.0,
            0.6682821605186227,
            0.6451536030945428,
            0.6219232415704753,
            -0.262613077788236,
            -0.262613077788236,
            0.18691512625374423,
            0.180698472846042,
            -0.05658403806755245,
            -0.06126904027905393,
            -0.06328542151079218,
            0.15951977457794406,
            0.16558156425958942,
            0.16558156425958942,
            0.1627473349116419,
            0.16264332796983638,
            0.15517371093130766,
            0.14609197628620485,
            0.12238230429243843,
            0.12612037062306222,
            0.12459933277246656,
            0.11980296278458648,
            0.11289013954589137,
            0.10160469428995084,
            0.21572638001282324,
            0.20666003783515008,
            -0.08941913313296916,
            -0.11147861914330585,
            -0.12174892377855505,
            -0.5194059912488528,
            -0.5281327509523129,
            -0.5281327509523129,
            -0.0776298247090985,
            -0.08250839251261828,
            -0.08846571438351712,
            -0.15194521380530013,
            -0.1619158920698095,
            -0.1646895891203921,
            -0.17293841734241233,
            -0.17293841734241233,
            -0.17977832346060452,
            -0.17363685888808011,
            -0.1751338868927878,
            -0.1741732495991578,
            -0.16981679044854853,
            -0.059435555332901666,
            -0.07892738218421756,
            -0.0838826713632949,
            -0.07182283127336579,
            -0.10008602646082583,
            -0.08710551761191444,
            -0.08680674000631124,
            -0.08732168381539436,
            -0.0907301024976754,
            -0.0870583515808961,
            -0.09321952473527818,
            0.15841002063647316,
            0.1456430470741476,
            0.11468958922716102,
            -0.7020802252302736,
            -0.7370072010271663,
            -0.748652194085105,
            -0.8002119627252464,
            -1.9774724948192155,
            -2.043753542053113,
            0.0
          ],
          [
            0.0,
            2.0109019608444982,
            1.7081402892753994,
            3.5730341096725815,
            -6.528800581304669,
            -6.570197304244183,
            -0.13542540613335938,
            -0.5398787230307711,
            -1.1925628075493315,
            -1.1349655288882248,
            -0.40314956967963544,
            0.09481666771021306,
            0.3875660530834988,
            0.297930564072276,
            0.29395278659357876,
            0.15581988184904125,
            0.23057088795538513,
            0.2056170705592274,
            0.06634594252485741,
            0.24665033740851933,
            0.16273967919249352,
            0.2001156376591705,
            0.2001483637819366,
            0.12932853485014506,
            0.5739727020291899,
            0.49548072934874154,
            -0.015842853670476192,
            -0.03847180941993636,
            0.06574686769839913,
            -0.5408551195685668,
            -1.0770659377659997,
            -0.881051779071217,
            0.2274308014287448,
            0.21887653191552373,
            0.24893158011561745,
            0.243460874143135,
            -0.06874356980983934,
            0.0664253388719747,
            0.08379254992619496,
            -0.7520966215890702,
            -0.8359624252696599,
            -0.7688875461773617,
            -0.14730462748603237,
            -0.7182428961701235,
            -0.060130136830278624,
            0.7929215121042597,
            0.046330564361689,
            -0.700304403771511,
            0.1043660160319367,
            -0.7364944624013118,
            -0.2733523495776269,
            -0.08025539490178077,
            0.7727076839017307,
            0.2950565836507178,
            -2.7232990069723706,
            -0.37414970073186005,
            0.5374393604472794,
            0.5090804087961187,
            -0.9549693595443073,
            -1.233569908101731,
            -0.9115006496336616,
            -2.722014161875727,
            -0.8713837932260003,
            -6.652531473803932,
            -6.734964216198245,
            0.0
          ],
          [
            0.0,
            1.5745614063744349,
            1.5381109752563915,
            2.646575076626414,
            -4.488781202877273,
            -4.510856877481298,
            0.5252445927145973,
            -0.04253277175092174,
            -0.42860156349872014,
            -0.42737561100142996,
            -0.26349759491226143,
            0.16762117312279357,
            0.21113026206751057,
            0.21427159481114533,
            0.21067897517826945,
            0.21067897517826945,
            0.21067897517826945,
            0.20947059329509238,
            0.06672380966922897,
            0.18643532435091367,
            0.181220858655419,
            0.16912926990883523,
            0.1563438892062556,
            0.1493124315177909,
            0.46995173279404645,
            0.19215195080566438,
            -0.10422073212637548,
            -0.13982229309728014,
            -0.1563826075493632,
            -0.5531652215802574,
            -0.7838317308832133,
            -0.7858404946658754,
            0.023325800572970845,
            0.023325800572970845,
            0.02549827442854284,
            0.02549827442854284,
            -0.16407619204941373,
            -0.186369467373895,
            -0.20686128890808433,
            -0.6195570271038706,
            -0.6161770827763007,
            -0.554942835807286,
            -0.1690472565989112,
            -0.21640123244341933,
            -0.15664524868310217,
            0.5146633819657526,
            0.15624861103703644,
            -0.46254881964317984,
            0.21557661801974937,
            -0.227778919345326,
            -0.1534983031614169,
            0.23749766884477555,
            0.3636639303516641,
            0.2604407710483764,
            -1.0647174171750295,
            -0.0006684254251054234,
            0.24563734384488461,
            0.22292061416869635,
            0.18484132139418705,
            -1.0167524020038394,
            -0.7630588159880488,
            -1.164561480537205,
            -0.665683375750236,
            -4.584521170195385,
            -4.651669863386366,
            0.0
          ]
        ],
        "bin_weights": [
          0.0,
          123.0,
          13.0,
          12.0,
          5.0,
          25.0,
          42.0,
          36.0,
          28.0,
          19.0,
          109.0,
          124.0,
          137.0,
          153.0,
          154.0,
          157.0,
          153.0,
          158.0,
          134.0,
          121.0,
          97.0,
          101.0,
          111.0,
          124.0,
          134.0,
          120.0,
          117.0,
          114.0,
          103.0,
          85.0,
          77.0,
          75.0,
          86.0,
          101.0,
          95.0,
          105.0,
          95.0,
          85.0,
          90.0,
          78.0,
          48.0,
          41.0,
          50.0,
          47.0,
          51.0,
          55.0,
          35.0,
          54.0,
          57.0,
          43.0,
          14.0,
          16.0,
          13.0,
          16.0,
          6.0,
          21.0,
          29.0,
          17.0,
          16.0,
          18.0,
          13.0,
          7.0,
          15.0,
          8.0,
          11.0,
          0.0
        ]
      },
      {
        "term_features": [
          "DriverRating"
        ],
        "scores": [
          0.0,
          0.08303693508779732,
          0.1548806118559295,
          0.12781492871957276,
          -0.4115704273217645,
          0.0
        ],
        "standard_deviations": [
          0.0,
          0.018720878850691482,
          0.021875091265250828,
          0.020453057083964665,
          0.04418877445485645,
          0.0
        ],
        "bagged_scores": [
          [
            0.0,
            0.05689178490417631,
            0.14190299841191673,
            0.08899637974931222,
            -0.3225034380013548,
            0.0
          ],
          [
            0.0,
            0.12176638737151327,
            0.13219260980351769,
            0.11281130908081884,
            -0.41591795453337116,
            0.0
          ],
          [
            0.0,
            0.09676528167352208,
            0.16928796808047342,
            0.11379479969800127,
            -0.4276739809714236,
            0.0
          ],
          [
            0.0,
            0.10523236303495408,
            0.1444622965266889,
            0.1473627643625899,
            -0.44871192674673555,
            0.0
          ],
          [
            0.0,
            0.07121854451257509,
            0.15128019115687913,
            0.12079528843013612,
            -0.3856822277457306,
            0.0
          ],
          [
            0.0,
            0.05622131294921459,
            0.12564987449827703,
            0.14841704504688968,
            -0.37125772899137105,
            0.0
          ],
          [
            0.0,
            0.06626696151430317,
            0.1278083749292885,
            0.1214558119705964,
            -0.3550321121317942,
            0.0
          ],
          [
            0.0,
            0.10361719919089772,
            0.17992627695088587,
            0.15580481222050832,
            -0.4948998241782353,
            0.0
          ],
          [
            0.0,
            0.09413070113861932,
            0.12255767697278248,
            0.11545987967316088,
            -0.37562541534642435,
            0.0
          ],
          [
            0.0,
            0.08066356908758485,
            0.15777516055919155,
            0.15712539589516894,
            -0.44505706467049755,
            0.0
          ],
          [
            0.0,
            0.08042911548870967,
            0.18491907919232986,
            0.12062776660236026,
            -0.433000452176216,
            0.0
          ],
          [
            0.0,
            0.087124276586144,
            0.17120725017508565,
            0.1182635532604254,
            -0.4233684226709106,
            0.0
          ],
          [
            0.0,
            0.06656808505930302,
            0.1828753218089129,
            0.1117644326798785,
            -0.4042935365265806,
            0.0
          ],
          [
            0.0,
            0.07562150871764554,
            0.17648348691678328,
            0.1567297634041716,
            -0.45896189781405766,
            0.0
          ]
        ],
        "bin_weights": [
          0.0,
          1185.0,
          1085.0,
          1129.0,
          998.0,
          0.0
        ]
      },
      {
        "term_features": [
          "AgeOfPolicyHolder"
        ],
        "scores": [
          0.0,
          0.5559269395019525,
          -0.19856924943291737,
          0.42853127281783276,
          0.0707036953643619,
          -0.03343122159117094,
          -0.12583727380017948,
          -0.11494175219719545,
          -0.1157496725151393,
          0.0
        ],
        "standard_deviations": [
          0.0,
          0.15216565309910612,
          0.7359525719002369,
          0.4084064969291949,
          0.024306780005550303,
          0.050010870782387334,
          0.05351299211132082,
          0.04664664861265732,
          0.047956601776626785,
          0.0
        ],
        "bagged_scores": [
          [
            0.0,
            0.4346435483896423,
            0.1883731843126505,
            0.07640093141667975,
            0.06412398394920243,
            0.010331796294218272,
            -0.1067516960201018,
            -0.10414826071215592,
            -0.1221424820535899,
            0.0
          ],
          [
            0.0,
            0.7045741177634666,
            0.07782317050006043,
            0.42058280179544827,
            0.08911044877100918,
            -0.05795459030088181,
            -0.12377470092592197,
            -0.14971942920969727,
            -0.1529813970138823,
            0.0
          ],
          [
            0.0,
            0.44982303721698536,
            0.026500408564969585,
            0.33568099196731327,
            0.04444091990787876,
            -0.005401811721302753,
            -0.08523650272799616,
            -0.12313204006200473,
            -0.13643333258535523,
            0.0
          ],
          [
            0.0,
            0.4731045057189686,
            0.16869175578965037,
            0.26489436602592725,
            0.07442730444847895,
            -0.026238744170505084,
            -0.11179308250845613,
            -0.12249622707438879,
            -0.09729160153499936,
            0.0
          ],
          [
            0.0,
            0.4809535568671057,
            0.1353770294831209,
            0.3954227813988733,
            0.04749292844498791,
            -0.015773348122022496,
            -0.11048443202739971,
            -0.13705740468357902,
            -0.045156482305432094,
            0.0
          ],
          [
            0.0,
            0.4841501731960073,
            0.14224993424922233,
            0.2541654520201892,
            0.05963505936130509,
            -0.012480328822093129,
            -0.09208589055328101,
            -0.13301994217489935,
            -0.1235148254043317,
            0.0
          ],
          [
            0.0,
            0.5308602984288445,
            0.2190241362095979,
            0.06676645032936268,
            0.0544811232505199,
            0.0031339990278732854,
            -0.07472693843572153,
            -0.1161130733494361,
            -0.17777432892288006,
            0.0
          ],
          [
            0.0,
            0.5363018031729045,
            0.04741472634485962,
            0.46045395148703844,
            0.09067867623564663,
            -0.046468478350579955,
            -0.12659323165704603,
            -0.1535158226246089,
            -0.131505687649473,
            0.0
          ],
          [
            0.0,
            0.46669021259512866,
            0.17231388474938258,
            0.20609992276465483,
            0.05314927928305435,
            0.00900655991600513,
            -0.10652973090919231,
            -0.14722070752859473,
            -0.06034559840120837,
            0.0
          ],
          [
            0.0,
            0.8980600835360997,
            -1.5571615784374038,
            1.427232530439304,
            0.14308566584573534,
            -0.160292045009824,
            -0.2635044612796137,
            -0.10046197437291673,
            -0.15593962018535795,
            0.0
          ],
          [
            0.0,
            0.4083800203690021,
            0.1558324073046259,
            0.13574507115094397,
            0.07888349423235239,
            -0.007688888682814435,
            -0.09600429451576299,
            -0.12581167507355567,
            -0.1448486854531435,
            0.0
          ],
          [
            0.0,
            0.4879547148263731,
            0.2205012651449239,
            0.05805955994009122,
            0.0697418265263125,
            -0.008452632686801742,
            -0.09310378936709106,
            -0.10880448880437311,
            -0.12894433667315897,
            0.0
          ],
          [
            0.0,
            0.881420156367686,
            -2.2807380544858735,
            1.2657739325493242,
            0.06422185973276426,
            -0.13313047958876262,
            -0.23785129768182683,
            0.043306141991652884,
            0.0033438748849644664,
            0.0
          ],
          [
            0.0,
            0.5460609245791217,
            -0.49617176179062933,
            0.6321590761645081,
            0.056379165111818924,
            -0.016628110058901788,
            -0.13328178459310153,
            -0.1309896270821787,
            -0.14696091191410227,
            0.0
          ]
        ],
        "bin_weights": [
          0.0,
          123.0,
          27.0,
          157.0,
          1399.0,
          1103.0,
          884.0,
          484.0,
          220.0,
          0.0
        ]
      },
      {
        "term_features": [
          "NumberOfCars"
        ],
        "scores": [
          0.0,
          0.03340784414622848,
          -0.38445759057177975,
          -0.7607387256898992,
          -2.406754145454884,
          -2.5729697190642207,
          0.0
        ],
        "standard_deviations": [
          0.0,
          0.006477271389264897,
          0.17512106390041574,
          0.1181411763493146,
          0.8933966144572851,
          1.0080273962078803,
          0.0
        ],
        "bagged_scores": [
          [
            0.0,
            0.03212422024970284,
            -0.4329617159134691,
            -0.6322532165075293,
            -1.7788721430641177,
            -2.025077111689714,
            0.0
          ],
          [
            0.0,
            0.03593756964526934,
            -0.3864270882652439,
            -0.8380635935051356,
            -3.1587460573029253,
            -3.451464908662204,
            0.0
          ],
          [
            0.0,
            0.04299594624579007,
            -0.5833519957778334,
            -0.8032066000142435,
            -2.9708942099597118,
            -3.185758564639635,
            0.0
          ],
          [
            0.0,
            0.03575395452179948,
            -0.4845582441409611,
            -0.6688163506426775,
            -2.449027394581951,
            -2.7526145877490813,
            0.0
          ],
          [
            0.0,
            0.03552712278835796,
            -0.4278608479451867,
            -0.7433495538790162,
            -2.9789585743567577,
            -3.181099095748302,
            0.0
          ],
          [
            0.0,
            0.04585868949286736,
            -0.6482602184035837,
            -0.8198102251374026,
            -2.8810964557271603,
            -3.1558198181091575,
            0.0
          ],
          [
            0.0,
            0.031953347979479185,
            -0.38133732557554983,
            -0.7597855987844209,
            -1.428626620258545,
            -1.0609099997176537,
            0.0
          ],
          [
            0.0,
            0.031898464294839765,
            -0.3614014939033689,
            -0.7142740934932151,
            -2.6571457537561938,
            -2.95510200977995,
            0.0
          ],
          [
            0.0,
            0.032510833421957874,
            -0.3495128881160279,
            -0.8096421037482882,
            -2.0275968765912955,
            -2.2828197537023045,
            0.0
          ],
          [
            0.0,
            0.019424631010644296,
            0.13502245988165298,
            -0.9838456970990985,
            -4.651859439416115,
            -4.861080314525568,
            0.0
          ],
          [
            0.0,
            0.028479975317295153,
            -0.32532467627127737,
            -0.698108351704975,
            -1.4563879462323246,
            -0.9656638529469479,
            0.0
          ],
          [
            0.0,
            0.025180606919778796,
            -0.33639937322623964,
            -0.5019756557723151,
            -1.3678532817935931,
            -1.6767185219034062,
            0.0
          ],
          [
            0.0,
            0.03153971023810058,
            -0.28165327869985096,
            -0.9423708871422892,
            -1.3408089636461231,
            -1.6559909817657903,
            0.0
          ],
          [
            0.0,
            0.03852474592131602,
            -0.518379581647977,
            -0.7348402322279822,
            -2.546684319681561,
            -2.8114565459593703,
            0.0
          ]
        ],
        "bin_weights": [
          0.0,
          4143.0,
          168.0,
          81.0,
          4.0,
          1.0,
          0.0
        ]
      },
      {
        "term_features": [
          "PastNumberOfClaims"
        ],
        "scores": [
          0.0,
          0.0724299314020294,
          -0.005633787551947923,
          -0.5641056784774332,
          0.020337889621575705,
          0.0
        ],
        "standard_deviations": [
          0.0,
          0.015616186367758347,
          0.024838925760954235,
          0.08977091234968522,
          0.016267338131662677,
          0.0
        ],
        "bagged_scores": [
          [
            0.0,
            0.06887888219439714,
            -0.013547666972964563,
            -0.4846407545403717,
            0.018437909926711134,
            0.0
          ],
          [
            0.0,
            0.0743575978810471,
            0.028870602175763645,
            -0.7616530045717399,
            0.020490908578684325,
            0.0
          ],
          [
            0.0,
            0.09589595368654605,
            -0.003982614095169097,
            -0.5720323026864038,
            0.004727325336274679,
            0.0
          ],
          [
            0.0,
            0.07783197817412654,
            -0.03337256753874452,
            -0.6636302778221582,
            0.0452625783538719,
            0.0
          ],
          [
            0.0,
            0.09254882278328143,
            -0.03345356159500439,
            -0.5696617563065935,
            0.024807636011174153,
            0.0
          ],
          [
            0.0,
            0.05108451902426937,
            -0.016142739539421608,
            -0.6028224387539821,
            0.045351509038188235,
            0.0
          ],
          [
            0.0,
            0.04751608942240498,
            -0.030130600008528567,
            -0.37855165662044127,
            0.030587379069247075,
            0.0
          ],
          [
            0.0,
            0.09041542633546919,
            0.007532628588435737,
            -0.5973940568850908,
            0.004169911605791096,
            0.0
          ],
          [
            0.0,
            0.06148995407797319,
            0.010669714441646147,
            -0.6254352737322882,
            0.024566847093437705,
            0.0
          ],
          [
            0.0,
            0.05659221366116739,
            0.03226397597764184,
            -0.494828156413158,
            -0.00047505133324231286,
            0.0
          ],
          [
            0.0,
            0.07854369965963365,
            -0.03836893970584168,
            -0.46275318662914583,
            0.024819992952315226,
            0.0
          ],
          [
            0.0,
            0.05660292893196689,
            -0.017950096140272057,
            -0.5722172641929396,
            0.03930657581465929,
            0.0
          ],
          [
            0.0,
            0.09121983363269286,
            -0.010418213325663485,
            -0.5825290667680495,
            0.012982573523103676,
            0.0
          ],
          [
            0.0,
            0.07104114016343581,
            0.03915705201085168,
            -0.5293303027617022,
            -0.010305641268156293,
            0.0
          ]
        ],
        "bin_weights": [
          0.0,
          1215.0,
          1132.0,
          211.0,
          1839.0,
          0.0
        ]
      },
      {
        "term_features": [
          "PolicyType"
        ],
        "scores": [
          0.0,
          0.0023727799739475582,
          -1.968999238544236,
          0.07168272222428301,
          0.0
        ],
        "standard_deviations": [
          0.0,
          0.002109796111879393,
          0.6050509892127278,
          0.02369170055042928,
          0.0
        ],
        "bagged_scores": [
          [
            0.0,
            0.0019297913995819163,
            -1.2751187207098431,
            0.041643100474352344,
            0.0
          ],
          [
            0.0,
            0.006345787104428936,
            -2.424583696622509,
            0.046656223516392745,
            0.0
          ],
          [
            0.0,
            0.002765790317727883,
            -1.965228507470264,
            0.06671390754099017,
            0.0
          ],
          [
            0.0,
            0.0007172017635841341,
            -1.6807061569995851,
            0.07708555294825206,
            0.0
          ],
          [
            0.0,
            0.003364021060236304,
            -1.9263896070041147,
            0.057460751015896865,
            0.0
          ],
          [
            0.0,
            0.0021962980662366266,
            -1.9754897315711508,
            0.07415888036831812,
            0.0
          ],
          [
            0.0,
            -0.00038178057155336537,
            -1.2779960754954025,
            0.06988288065014513,
            0.0
          ],
          [
            0.0,
            0.0004802007982658493,
            -2.1154169056979826,
            0.1021583026014529,
            0.0
          ],
          [
            0.0,
            0.0033504316939884024,
            -1.6955282104726155,
            0.04584018772511524,
            0.0
          ],
          [
            0.0,
            0.0014360972898207966,
            -2.953728382950572,
            0.13333782816292777,
            0.0
          ],
          [
            0.0,
            0.001209865443521932,
            -1.368576302850564,
            0.05516357867425331,
            0.0
          ],
          [
            0.0,
            9.417902807257184e-05,
            -1.2804674849389743,
            0.06422463879084943,
            0.0
          ],
          [
            0.0,
            0.007152496819156376,
            -3.336476103395502,
            0.08340522261440744,
            0.0
          ],
          [
            0.0,
            0.002558539422197456,
            -2.2902834534402268,
            0.08582705605660881,
            0.0
          ]
        ],
        "bin_weights": [
          0.0,
          4047.0,
          17.0,
          333.0,
          0.0
        ]
      },
      {
        "term_features": [
          "Deductible"
        ],
        "scores": [
          0.0,
          1.8301100410418703,
          1.558885893816225,
          0.9183102714196048,
          -0.01995775145016312,
          1.0745479839090242,
          -0.1608499575276659,
          0.0
        ],
        "standard_deviations": [
          0.0,
          0.32272758790860334,
          0.10080370770209952,
          0.16070854741515153,
          0.005373541268067114,
          0.2754435112805325,
          0.10111880419270897,
          0.0
        ],
        "bagged_scores": [
          [
            0.0,
            2.0208281906623133,
            1.6415393849399467,
            0.8984774110814404,
            -0.013377265162433066,
            0.7384260599369764,
            -0.14656811214578336,
            0.0
          ],
          [
            0.0,
            1.9914791828839702,
            1.5929213905812958,
            0.9496194886096418,
            -0.017234431746182236,
            0.9564569371826199,
            -0.17815200396232475,
            0.0
          ],
          [
            0.0,
            0.9607598477247612,
            1.5943453453734853,
            1.0240633516065525,
            -0.020244198803706794,
            1.0616411011712688,
            -0.1244130095065645,
            0.0
          ],
          [
            0.0,
            1.9585017464722367,
            1.566987226922394,
            1.0455710876442401,
            -0.01725836276675142,
            0.9639372626758499,
            -0.18513733273626876,
            0.0
          ],
          [
            0.0,
            1.96999815125546,
            1.5675716858369237,
            1.0250294676211142,
            -0.016182773617330143,
            1.0016463261970923,
            -0.27816638926042025,
            0.0
          ],
          [
            0.0,
            1.1437097563992955,
            1.5132832377632033,
            0.8008164930324281,
            -0.016375950258784154,
            0.9203529503768699,
            -0.1711056931802041,
            0.0
          ],
          [
            0.0,
            2.0217315744785216,
            1.6987761426453263,
            1.1681876202895574,
            -0.018487835680412935,
            0.9124418683894369,
            -0.07377390248703039,
            0.0
          ],
          [
            0.0,
            1.895687970665978,
            1.4784778166551702,
            0.722528660209925,
            -0.021071823534974755,
            1.0866569088312448,
            -0.11487541342441579,
            0.0
          ],
          [
            0.0,
            1.9735353375390152,
            1.5230578633209308,
            0.9074151985784291,
            -0.018281485027340193,
            1.0114897419443993,
            -0.18096315093027937,
            0.0
          ],
          [
            0.0,
            1.9301150688317592,
            1.4746609970427025,
            0.8418209448386619,
            -0.02585303747771807,
            1.6324552330789406,
            -0.44158125024020867,
            0.0
          ],
          [
            0.0,
            1.8769658886197098,
            1.4343085659584658,
            0.4974307405914383,
            -0.020604906029053703,
            0.9526481090336305,
            0.0038741366618851372,
            0.0
          ],
          [
            0.0,
            1.9720449129649373,
            1.7995119547871754,
            0.9313584907110537,
            -0.013906379143792058,
            0.7923708293022822,
            -0.17753021885152276,
            0.0
          ],
          [
            0.0,
            2.018592491756704,
            1.4104378359416876,
            0.9897761759805384,
            -0.03404638849339382,
            1.7118953618023172,
            -0.1139976711056957,
            0.0
          ],
          [
            0.0,
            1.8875904543315214,
            1.5285230656584432,
            1.054248669079445,
            -0.02648368256041033,
            1.3012530848034083,
            -0.069509394218489,
            0.0
          ]
        ],
        "bin_weights": [
          0.0,
          1.0,
          1.0,
          1.0,
          4223.0,
          87.0,
          84.0,
          0.0
        ]
      },
      {
        "term_features": [
          "AgentType"
        ],
        "scores": [
          0.0,
          0.0,
          0.0
        ],
        "standard_deviations": [
          0.0,
          0.0,
          0.0
        ],
        "bagged_scores": [
          [
            0.0,
            0.0,
            0.0
          ],
          [
            0.0,
            0.0,
            0.0
          ],
          [
            0.0,
            0.0,
            0.0
          ],
          [
            0.0,
            0.0,
            0.0
          ],
          [
            0.0,
            0.0,
            0.0
          ],
          [
            0.0,
            0.0,
            0.0
          ],
          [
            0.0,
            0.0,
            0.0
          ],
          [
            0.0,
            0.0,
            0.0
          ],
          [
            0.0,
            0.0,
            0.0
          ],
          [
            0.0,
            0.0,
            0.0
          ],
          [
            0.0,
            0.0,
            0.0
          ],
          [
            0.0,
            0.0,
            0.0
          ],
          [
            0.0,
            0.0,
