{
  "version": "1.0",
  "ebm": {
    "outputs": [
      {
        "task": "classification",
        "classes": [
          0,
          1
        ],
        "link": "logit",
        "link_param": "nan"
      }
    ],
    "intercept": [
      -1.5314750349836255
    ],
    "bagged_intercept": [
      -1.5582743544368323,
      -1.5237266808162948,
      -1.5429539373341288,
      -1.496900000516352,
      -1.5670445038604912,
      -1.5834031523770256,
      -1.5599467780795315,
      -1.4959161098112186,
      -1.583747987274795,
      -1.493943948764585,
      -1.5611555727393882,
      -1.4178838825107452,
      -1.527491295837076,
      -1.5282622854122914
    ],
    "bag_weights": [
      4777.0,
      4777.0,
      4777.0,
      4777.0,
      4777.0,
      4777.0,
      4777.0,
      4777.0,
      4777.0,
      4777.0,
      4777.0,
      4777.0,
      4777.0,
      4777.0
    ],
    "best_iteration": [
      [
        9802,
        8175,
        7824,
        6693,
        11969,
        11913,
        8434,
        6704,
        12911,
        6178,
        9642,
        4188,
        8120,
        7534
      ]
    ],
    "implementation": "python",
    "implementation_params": {
      "feature_names": null,
      "feature_types": null,
      "max_bins": 1024,
      "max_interaction_bins": 64,
      "interactions": false,
      "exclude": null,
      "validation_size": 0.15,
      "outer_bags": 14,
      "inner_bags": 0,
      "learning_rate": 0.015,
      "greedy_ratio": 10.0,
      "smoothing_rounds": 75,
      "interaction_smoothing_rounds": 75,
      "max_rounds": 25000,
      "early_stopping_rounds": 100,
      "early_stopping_tolerance": 1e-05,
      "min_samples_leaf": 4,
      "min_hessian": 0.0001,
      "reg_alpha": 0.0,
      "reg_lambda": 0.0,
      "max_delta_step": 0.0,
      "max_leaves": 3,
      "objective": "log_loss",
      "n_jobs": -2,
      "random_state": 42
    },
    "features": [
      {
        "name": "Make",
        "type": "nominal",
        "num_unique_vals": 18,
        "categories": [
          [
            "Accura",
            "BMW",
            "Chevrolet",
            "Dodge",
            "Ferrari",
            "Ford",
            "Honda",
            "Jaguar",
            "Mazda",
            "Mecedes",
            "Mercury",
            "Nisson",
            "Pontiac",
            "Porche",
            "Saab",
            "Saturn",
            "Toyota",
            "VW"
          ]
        ]
      },
      {
        "name": "VehiclePrice_num",
        "type": "nominal",
        "num_unique_vals": 3,
        "categories": [
          [
            "30000 to 59000",
            "less than 30000",
            "more than 60000"
          ]
        ]
      },
      {
        "name": "VehicleCategory",
        "type": "nominal",
        "num_unique_vals": 3,
        "categories": [
          [
            "Sedan",
            "Sport",
            "Utility"
          ]
        ]
      },
      {
        "name": "AgeOfVehicle",
        "type": "nominal",
        "num_unique_vals": 8,
        "categories": [
          [
            "2 years",
            "3 years",
            "4 years",
            "5 years",
            "6 years",
            "7 years",
            "more than 7",
            "new"
          ]
        ]
      },
      {
        "name": "Sex",
        "type": "nominal",
        "num_unique_vals": 2,
        "categories": [
          [
            "Female",
            "Male"
          ]
        ]
      },
      {
        "name": "MaritalStatus",
        "type": "nominal",
        "num_unique_vals": 4,
        "categories": [
          [
            "Divorced",
            "Married",
            "Single",
            "Widow"
          ]
        ]
      },
      {
        "name": "Age",
        "type": "continuous",
        "num_unique_vals": 66,
        "cuts": [
          [
            8.0,
            16.5,
            17.5,
            18.5,
            19.5,
            20.5,
            21.5,
            22.5,
            23.5,
            24.5,
            25.5,
            26.5,
            27.5,
            28.5,
            29.5,
            30.5,
            31.5,
            32.5,
            33.5,
            34.5,
            35.5,
            36.5,
            37.5,
            38.5,
            39.5,
            40.5,
            41.5,
            42.5,
            43.5,
            44.5,
            45.5,
            46.5,
            47.5,
            48.5,
            49.5,
            50.5,
            51.5,
            52.5,
            53.5,
            54.5,
            55.5,
            56.5,
            57.5,
            58.5,
            59.5,
            60.5,
            61.5,
            62.5,
            63.5,
            64.5,
            65.5,
            66.5,
            67.5,
            68.5,
            69.5,
            70.5,
            71.5,
            72.5,
            73.5,
            74.5,
            75.5,
            76.5,
            77.5,
            78.5,
            79.5
          ]
        ],
        "min": 0.0,
        "max": 80.0,
        "histogram_weights": [
          0.0,
          58.0,
          0.0,
          0.0,
          13.0,
          197.0,
          394.0,
          1201.0,
          927.0,
          592.0,
          672.0,
          440.0,
          397.0,
          262.0,
          228.0,
          134.0,
          34.0,
          32.0,
          40.0,
          0.0
        ]
      },
      {
        "name": "DriverRating",
        "type": "continuous",
        "num_unique_vals": 4,
        "cuts": [
          [
            1.5,
            2.5,
            3.5
          ]
        ],
        "min": 1.0,
        "max": 4.0,
        "histogram_weights": [
          0.0,
          1454.0,
          0.0,
          0.0,
          0.0,
          0.0,
          1486.0,
          0.0,
          0.0,
          0.0,
          0.0,
          1484.0,
          0.0,
          0.0,
          0.0,
          0.0,
          1197.0,
          0.0
        ]
      },
      {
        "name": "AgeOfPolicyHolder",
        "type": "nominal",
        "num_unique_vals": 9,
        "categories": [
          [
            "16 to 17",
            "18 to 20",
            "21 to 25",
            "26 to 30",
            "31 to 35",
            "36 to 40",
            "41 to 50",
            "51 to 65",
            "over 65"
          ]
        ]
      },
      {
        "name": "NumberOfCars",
        "type": "nominal",
        "num_unique_vals": 5,
        "categories": [
          [
            "1 vehicle",
            "2 vehicles",
            "3 to 4",
            "5 to 8",
            "more than 8"
          ]
        ]
      },
      {
        "name": "PastNumberOfClaims",
        "type": "nominal",
        "num_unique_vals": 4,
        "categories": [
          [
            "1",
            "2 to 4",
            "more than 4",
            "none"
          ]
        ]
      },
      {
        "name": "PolicyType",
        "type": "nominal",
        "num_unique_vals": 3,
        "categories": [
          [
            "Sedan - Collision",
            "Sport - Collision",
            "Utility - Collision"
          ]
        ]
      },
      {
        "name": "Deductible",
        "type": "continuous",
        "num_unique_vals": 5,
        "cuts": [
          [
            340.5,
            390.5,
            450.0,
            600.0
          ]
        ],
        "min": 300.0,
        "max": 700.0,
        "histogram_weights": [
          0.0,
          2.0,
          0.0,
          0.0,
          0.0,
          1.0,
          5401.0,
          0.0,
          0.0,
          0.0,
          0.0,
          0.0,
          120.0,
          0.0,
          0.0,
          0.0,
          0.0,
          0.0,
          0.0,
          0.0,
          0.0,
          0.0,
          97.0,
          0.0
        ]
      },
      {
        "name": "AgentType",
        "type": "nominal",
        "num_unique_vals": 2,
        "categories": [
          [
            "External",
            "Internal"
          ]
        ]
      },
      {
        "name": "NumberOfSuppliments",
        "type": "nominal",
        "num_unique_vals": 4,
        "categories": [
          [
            "1 to 2",
            "3 to 5",
            "more than 5",
            "none"
          ]
        ]
      },
      {
        "name": "Days_Policy_Accident",
        "type": "nominal",
        "num_unique_vals": 5,
        "categories": [
          [
            "1 to 7",
            "15 to 30",
            "8 to 15",
            "more than 30",
            "none"
          ]
        ]
      },
      {
        "name": "Days_Policy_Claim",
        "type": "nominal",
        "num_unique_vals": 3,
        "categories": [
          [
            "15 to 30",
            "8 to 15",
            "more than 30"
          ]
        ]
      },
      {
        "name": "PoliceReportFiled",
        "type": "nominal",
        "num_unique_vals": 2,
        "categories": [
          [
            "No",
            "Yes"
          ]
        ]
      },
      {
        "name": "WitnessPresent",
        "type": "nominal",
        "num_unique_vals": 2,
        "categories": [
          [
            "No",
            "Yes"
          ]
        ]
      },
      {
        "name": "AddressChange_Claim_2",
        "type": "nominal",
        "num_unique_vals": 2,
        "categories": [
          [
            "change",
            "no_change"
          ]
        ]
      }
    ],
    "terms": [
      {
        "term_features": [
          "Make"
        ],
        "scores": [
          0.0,
          0.5815662532200889,
          0.05703967196990212,
          -0.01181314758174722,
          -0.947408716951618,
          -0.9580087852580649,
          -0.7952156087331435,
          0.16230632190517066,
          -0.0118798468290256,
          -0.045171439831577884,
          -0.08088643235740635,
          -0.10482221934896024,
          -0.0952980936946457,
          -0.011301728579601078,
          -0.07211456589684945,
          -0.06649182066099593,
          -0.06578550382134474,
          0.046079958318981214,
          -1.5067985567806583,
          0.0
        ],
        "standard_deviations": [
          0.0,
          0.07476230036191428,
          0.03704180680090302,
          0.03260610052682796,
          0.3165680938471832,
          0.3142421961840078,
          0.25262563236021723,
          0.040455902008567746,
          0.05301599253463522,
          0.03201735591200645,
          0.057976203536966316,
          0.05047418053915784,
          0.04739107239847289,
          0.020619712268210712,
          0.11505611985601552,
          0.10880972625724077,
          0.10882293726830718,
          0.02765849907476605,
          0.28108346464060696,
          0.0
        ],
        "bagged_scores": [
          [
            0.0,
            0.5433426999279719,
            0.02955829065047274,
            0.012117963353714511,
            -1.082391723438514,
            -1.0771730975176528,
            -0.9683689005508277,
            0.1477305997959698,
            -0.018371807533748813,
            -0.02295211863832544,
            -0.0284618379507533,
            -0.047199957421316774,
            -0.023426718873452115,
            -0.017266784980021307,
            -0.03254568278393759,
            -0.036031012637739515,
            -0.04613889585271183,
            0.05764634461444636,
            -1.4163842835325682,
            0.0
          ],
          [
            0.0,
            0.47255416823731666,
            0.09908456125721435,
            0.0417432653462934,
            -1.0621326414159622,
            -1.097403022755286,
            -1.0647179578952901,
            0.189484142339355,
            -0.011417946790157452,
            -0.023826540281093017,
            -0.03517725432453769,
            -0.07206420392992037,
            -0.08000002961684151,
            -0.029370263012658257,
            -0.07116705211050263,
            -0.043557083544315714,
            -0.03662466407832045,
            0.03836250968057835,
            -1.508992307137033,
            0.0
          ],
          [
            0.0,
            0.635988967153351,
            -0.0010099596513804682,
            -0.0036196038091112076,
            -0.8884873822552534,
            -0.8559095965260962,
            -0.6395542788233868,
            0.20384120422217145,
            -0.05331079108406567,
            -0.07629895992174715,
            -0.09960411302002967,
            -0.128127801313263,
            -0.11888838537658641,
            -0.026102652958571337,
            -0.04179323394133763,
            -0.022723883861483843,
            -0.020672424744939424,
            0.04720740878632516,
            -2.0234725575250456,
            0.0
          ],
          [
            0.0,
            0.5927344177190482,
            0.009775633473390097,
            -0.05877952251045224,
            -0.6701183507458784,
            -0.697983110134693,
            -0.6808852119371126,
            0.1630968585037805,
            0.012320932781986246,
            -0.02507961140079748,
            -0.047130038180248385,
            -0.07515142996551188,
            -0.06209006544064244,
            -0.01960918287044501,
            -0.023219779806539373,
            -0.023201567077668864,
            -0.03880573562139612,
            0.02429201026876502,
            -1.382113132082679,
            0.0
          ],
          [
            0.0,
            0.6608849490358374,
            0.13187038417368846,
            0.03369776824122855,
            -1.3240923000132276,
            -1.3264122236510514,
            -0.9032132659998114,
            0.1787287904937248,
            0.03649819033699548,
            -0.10492260457883457,
            -0.13878103014251258,
            -0.14354390468418393,
            -0.12741326227232447,
            0.04999689505483613,
            -0.45321668419603667,
            -0.4235763828864766,
            -0.4222468867080197,
            0.0281165290889928,
            -1.5846146451280463,
            0.0
          ],
          [
            0.0,
            0.5625427240407641,
            0.06822003013898624,
            0.018693488806133446,
            -1.2636964091976008,
            -1.2444081178254418,
            -1.0154670795573533,
            0.19530471961662574,
            0.09048859224186898,
            -0.03274355191087104,
            -0.1363563450404783,
            -0.16526089737835148,
            -0.09866850673929031,
            -0.011050073252119416,
            -0.04994745438639789,
            -0.052699847188102916,
            -0.06581074267547019,
            0.028922035079012372,
            -1.5721185100934612,
            0.0
          ],
          [
            0.0,
            0.6150659049278886,
            0.04475111323418522,
            -0.052273795334702194,
            -1.0220055842854716,
            -0.9878596814485398,
            -0.9713057604344227,
            0.17263104565733844,
            0.06928841917614505,
            -0.048329787720577444,
            -0.08028646505482787,
            -0.09835107010708374,
            -0.08486066329173447,
            -0.0038534048800224208,
            -0.010755486569345746,
            -0.011784277514753444,
            -0.010269225226775952,
            0.06322008533729766,
            -1.4671819739620298,
            0.0
          ],
          [
            0.0,
            0.5259369728009288,
            0.08604616040356966,
            0.0035979458034402084,
            -0.8107363392779081,
            -0.8326259554253733,
            -0.5984550778532899,
            0.18038153061212592,
            -0.07166820346705487,
            -0.08369281967977653,
            -0.105200830994661,
            -0.15669422182507214,
            -0.13106813337255707,
            -0.02448803058281615,
            -0.05437254822695696,
            -0.021774282511785092,
            -0.030038749316801144,
            0.0388990649206333,
            -1.3394466303559827,
            0.0
          ],
          [
            0.0,
            0.6520952823114138,
            0.10474010768575874,
            0.003098907677144949,
            -1.3420490688529787,
            -1.3834560311425403,
            -0.9464507768393272,
            0.1759108541070088,
            -0.0941707492923452,
            -0.05280858508138542,
            -0.2233934150832369,
            -0.21002454247887686,
            -0.21850993368670885,
            0.004416790730349909,
            -0.19145984658577125,
            -0.19113010541676262,
            -0.18356701730786817,
            0.08533166275244088,
            -2.163321678411771,
            0.0
          ],
          [
            0.0,
            0.7115834748670811,
            0.04730204281406758,
            -0.03647387417684808,
            -0.6657700026066652,
            -0.6908774657344602,
            -0.6675977433682482,
            0.16717347219673856,
            0.0038488521158728944,
            -0.007098410063948027,
            -0.01949390758278856,
            -0.06588892731881142,
            -0.0666663510418213,
            -0.029742870439231864,
            -0.031437053541763946,
            -0.05715271763163711,
            -0.05736076127400126,
            -0.010622561904138933,
            -1.3710217982659685,
            0.0
          ],
          [
            0.0,
            0.6383500867487568,
            0.06706654855248015,
            -0.004986103355771751,
            -1.1568906534202879,
            -1.18312727718215,
            -0.7621842746442942,
            0.17870049196274207,
            -0.05740765823635344,
            -0.09346524110334242,
            -0.11553477084466524,
            -0.1334671750516726,
            -0.13356531070595212,
            -0.03330872289237295,
            -0.028539207469752817,
            -0.019479565500704996,
            -0.01509364140846943,
            0.0958098063264524,
            -1.5312580047788475,
            0.0
          ],
          [
            0.0,
            0.4451194647375247,
            0.04873846392428886,
            -0.045457352966742304,
            -0.08502700895429488,
            -0.1025731105972068,
            -0.056075407133992644,
            0.035587745816162544,
            0.021623410109518,
            0.006392355270726978,
            0.0011138744565692416,
            -0.025425057384488053,
            -0.04751046503689477,
            -0.015992075602322853,
            -0.016936777759271993,
            -0.01920154186618539,
            -0.007144126676448093,
            0.014755973059015194,
            -0.9629246465061478,
            0.0
          ],
          [
            0.0,
            0.5888726213978503,
            0.04687940619480961,
            -0.0174667834807153,
            -0.9102156433893605,
            -0.9387499943014609,
            -0.906020056476097,
            0.11869179562125928,
            -0.07288920489259687,
            -0.028643221777026648,
            -0.05679065957449292,
            -0.061930529106247634,
            -0.048404447130734496,
            0.0008912545593375704,
            -0.0015809194792650444,
            -0.006594608478193362,
            0.006220683811129293,
            0.06293171036467429,
            -1.3692155847564516,
            0.0
          ],
          [
            0.0,
            0.4968558111755105,
            0.015532624727098446,
            -0.059276369738073056,
            -0.9801089294692444,
            -0.993564309370955,
            -0.9527227307505552,
            0.1650252557273864,
            -0.02114989107242271,
            -0.03893106075509209,
            -0.04731325966702592,
            -0.08438135292064354,
            -0.09310103913949956,
            -0.002745078988357144,
            -0.00263219569901256,
            -0.0019786131381336336,
            0.006555133581266248,
            0.07024683809124216,
            -1.4031140423931867,
            0.0
          ]
        ],
        "bin_weights": [
          0.0,
          127.0,
          3.0,
          553.0,
          46.0,
          2.0,
          123.0,
          1167.0,
          1.0,
          1018.0,
          1.0,
          22.0,
          8.0,
          1337.0,
          2.0,
          36.0,
          14.0,
          1097.0,
          64.0,
          0.0
        ]
      },
      {
        "term_features": [
          "VehiclePrice_num"
        ],
        "scores": [
          0.0,
          0.23256407399550075,
          -0.03870284764095043,
          -0.30360161837122146,
          0.0
        ],
        "standard_deviations": [
          0.0,
          0.04391495348904378,
          0.012881267026343242,
          0.06796254613239563,
          0.0
        ],
        "bagged_scores": [
          [
            0.0,
            0.1970945356367273,
            -0.022748532229018695,
            -0.30442743497069347,
            0.0
          ],
          [
            0.0,
            0.22769603338935435,
            -0.039407827406771526,
            -0.2901425773750911,
            0.0
          ],
          [
            0.0,
            0.23699244360495875,
            -0.04852457331623722,
            -0.2667860323848321,
            0.0
          ],
          [
            0.0,
            0.18143367358584012,
            -0.004009182304978071,
            -0.359627734098992,
            0.0
          ],
          [
            0.0,
            0.26144808805057623,
            -0.05291318481822169,
            -0.2972171787641734,
            0.0
          ],
          [
            0.0,
            0.27296862181727793,
            -0.04841197263053282,
            -0.34235144465138156,
            0.0
          ],
          [
            0.0,
            0.2652771558616368,
            -0.03440266106644921,
            -0.3919957538369094,
            0.0
          ],
          [
            0.0,
            0.2317868544047274,
            -0.048661954438722704,
            -0.25528430275941766,
            0.0
          ],
          [
            0.0,
            0.29582645591286294,
            -0.05343196707657463,
            -0.3664895257634984,
            0.0
          ],
          [
            0.0,
            0.20920190882291434,
            -0.040765898752762125,
            -0.2452006662974982,
            0.0
          ],
          [
            0.0,
            0.2548018810480459,
            -0.04181291048603428,
            -0.33540175667053534,
            0.0
          ],
          [
            0.0,
            0.11966317907512317,
            -0.02812120894946038,
            -0.11773329973252426,
            0.0
          ],
          [
            0.0,
            0.22752911089617392,
            -0.037038611188442885,
            -0.3009031912899154,
            0.0
          ],
          [
            0.0,
            0.2741770938307912,
            -0.04158938230909992,
            -0.3768617586016382,
            0.0
          ]
        ],
        "bin_weights": [
          0.0,
          1508.0,
          3390.0,
          723.0,
          0.0
        ]
      },
      {
        "term_features": [
          "VehicleCategory"
        ],
        "scores": [
          0.0,
          -0.01704870652517433,
          0.27734869133564605,
          -0.31739495124526806,
          0.0
        ],
        "standard_deviations": [
          0.0,
          0.001729761049038437,
          0.017078379105705525,
          0.17396006318850105,
          0.0
        ],
        "bagged_scores": [
          [
            0.0,
            -0.017168366377047037,
            0.2806752842907481,
            -0.33974713005816826,
            0.0
          ],
          [
            0.0,
            -0.016886751340083134,
            0.2673871129108089,
            -0.207529384890288,
            0.0
          ],
          [
            0.0,
            -0.015901414733250394,
            0.26315794904165235,
            -0.3612732941338941,
            0.0
          ],
          [
            0.0,
            -0.013779334081141209,
            0.24774379879104907,
            -0.600423485546636,
            0.0
          ],
          [
            0.0,
            -0.01793013746024648,
            0.29451505237846387,
            -0.3750348782728766,
            0.0
          ],
          [
            0.0,
            -0.01519005850057567,
            0.2695578324446962,
            -0.6101251834634631,
            0.0
          ],
          [
            0.0,
            -0.018033266863572983,
            0.2811122019303548,
            -0.15702997676903294,
            0.0
          ],
          [
            0.0,
            -0.019156106429002007,
            0.2998947548310412,
            -0.18546140657879095,
            0.0
          ],
          [
            0.0,
            -0.014279794177620014,
            0.2566979071811571,
            -0.6215911443097003,
            0.0
          ],
          [
            0.0,
            -0.019614590003020682,
            0.30261322719056416,
            -0.12486982378533291,
            0.0
          ],
          [
            0.0,
            -0.01932349684207378,
            0.3044897682456631,
            -0.21587628981753837,
            0.0
          ],
          [
            0.0,
            -0.0177609028966796,
            0.27977036783588755,
            -0.19700713515345003,
            0.0
          ],
          [
            0.0,
            -0.016535405667458203,
            0.27090143556048263,
            -0.33559287120898856,
            0.0
          ],
          [
            0.0,
            -0.01712226598066946,
            0.2643649860664768,
            -0.11196731344559235,
            0.0
          ]
        ],
        "bin_weights": [
          0.0,
          5247.0,
          350.0,
          24.0,
          0.0
        ]
      },
      {
        "term_features": [
          "AgeOfVehicle"
        ],
        "scores": [
          0.0,
          -1.8136428315013087,
          -0.4045710908400429,
          -0.6162209151362991,
          0.2705354253455442,
          0.09838966158460234,
          0.006400961073620311,
          -0.09847141784596264,
          -0.6788712399852794,
          0.0
        ],
        "standard_deviations": [
          0.0,
          0.4082580882529935,
          0.18510908892787883,
          0.25316886542057937,
          0.07542514657871058,
          0.037780594415300316,
          0.01695864711682334,
          0.03585977750337125,
          0.3616855656107678,
          0.0
        ],
        "bagged_scores": [
          [
            0.0,
            -2.584540391590032,
            -0.45792953599173913,
            -0.7715345197841154,
            0.29661025373374267,
            0.14914804427653164,
            0.02893971191710735,
            -0.15348471165700905,
            -0.9744090049863684,
            0.0
          ],
          [
            0.0,
            -1.6675303013492933,
            -0.46593741628809415,
            -0.6756674197729957,
            0.33455909217850704,
            0.0977507759576069,
            -0.014081539408560786,
            -0.09244846997081912,
            -0.6618789823802418,
            0.0
          ],
          [
            0.0,
            -1.620190552025227,
            -0.08519441659664231,
            -0.55069171595805,
            0.24368652934564225,
            0.0632223663367497,
            0.007044428070286712,
            -0.08806437728981226,
            -0.4352371473723133,
            0.0
          ],
          [
            0.0,
            -1.4777365604297954,
            -0.40553831485044967,
            -0.4511975805722115,
            0.2242508728717136,
            0.053596146900928,
            0.01713656528169296,
            -0.08251850011384992,
            -0.336560548553023,
            0.0
          ],
          [
            0.0,
            -1.9054993174149097,
            -0.43272138434631247,
            -0.4669588269772267,
            0.2984245483609437,
            0.1377627671018008,
            0.023505447367670282,
            -0.15878391958024468,
            -1.2142095865292677,
            0.0
          ],
          [
            0.0,
            -1.8640831494183134,
            -0.7975560384025646,
            -1.0360583422979468,
            0.32079793920237487,
            0.13750642823156634,
            0.01469032605285786,
            -0.10808529332056903,
            -1.0938799069560692,
            0.0
          ],
          [
            0.0,
            -1.5889847272005084,
            -0.38594268645230384,
            -0.7443739831597496,
            0.27930865812340827,
            0.05292106915435047,
            0.01999959267747422,
            -0.07846630003623359,
            -0.5942488500165679,
            0.0
          ],
          [
            0.0,
            -1.7104625488600753,
            -0.44782850734298474,
            -0.8529047806375732,
            0.24538689372957218,
            0.12764425812265798,
            0.0018531976497847963,
            -0.11138449614736652,
            -0.4318734825056618,
            0.0
          ],
          [
            0.0,
            -1.7522533397410798,
            -0.47017059194176336,
            -0.6554365669553319,
            0.41320983085287116,
            0.15267744449091464,
            -0.00993726480254295,
            -0.14911859491285612,
            -1.5167211230614406,
            0.0
          ],
          [
            0.0,
            -1.3392344582720779,
            -0.41920030674247216,
            -0.43458584432658176,
            0.2349709484625459,
            0.10958824563777715,
            -0.037142410970483694,
            -0.06770457880260332,
            -0.29768335257154416,
            0.0
          ],
          [
            0.0,
            -2.662488853317017,
            -0.6141496998456603,
            -1.0012565156888715,
            0.27617609508108276,
            0.11247794415912629,
            -0.0033146101965167707,
            -0.04740470450928683,
            -0.5867567765985415,
            0.0
          ],
          [
            0.0,
            -1.3463642270987624,
            -0.009892840738224926,
            -0.044786962556709886,
            0.05603423064617996,
            0.04228197725769049,
            0.012578088495884404,
            -0.03560668769333279,
            -0.3077580806545345,
            0.0
          ],
          [
            0.0,
            -1.5498854838672311,
            -0.3322557796447552,
            -0.38263456360093023,
            0.28759148923708416,
            0.061004758254845054,
            0.014219617911128933,
            -0.1120390977973902,
            -0.5136450470092322,
            0.0
          ],
          [
            0.0,
            -2.3217457304339995,
            -0.33967775257663385,
            -0.5590051896198923,
            0.2764885730119501,
            0.07987303630188712,
            0.014122304984901045,
            -0.09349011801210362,
            -0.5393354705991042,
            0.0
          ]
        ],
        "bin_weights": [
          0.0,
          36.0,
          70.0,
          77.0,
          596.0,
          1417.0,
          2076.0,
          1280.0,
          69.0,
          0.0
        ]
      },
      {
        "term_features": [
          "Sex"
        ],
        "scores": [
          0.0,
          -0.6885059629318082,
          0.11209230302592739,
          0.0
        ],
        "standard_deviations": [
          0.0,
          0.057211476687660766,
          0.009314321918326228,
          0.0
        ],
        "bagged_scores": [
          [
            0.0,
            -0.7580278784321328,
            0.12341082753953012,
            0.0
          ],
          [
            0.0,
            -0.6861289788409204,
            0.11170531782122557,
            0.0
          ],
          [
            0.0,
            -0.7363580569410546,
            0.11988286942751553,
            0.0
          ],
          [
            0.0,
            -0.6493916325895638,
            0.10572428937691078,
            0.0
          ],
          [
            0.0,
            -0.7811433957136142,
            0.12717415234311427,
            0.0
          ],
          [
            0.0,
            -0.7174249454105667,
            0.1168004617373016,
            0.0
          ],
          [
            0.0,
            -0.6858238551228917,
            0.11165564211454607,
            0.0
          ],
          [
            0.0,
            -0.6865352368179906,
            0.1117714587041288,
            0.0
          ],
          [
            0.0,
            -0.7306758003662028,
            0.11895776890529615,
            0.0
          ],
          [
            0.0,
            -0.6804040839292723,
            0.11077327555902718,
            0.0
          ],
          [
            0.0,
            -0.6566901109352447,
            0.10691251909516704,
            0.0
          ],
          [
            0.0,
            -0.5339673902425388,
            0.0869326305587253,
            0.0
          ],
          [
            0.0,
            -0.6588249501592837,
            0.10726008187326358,
            0.0
          ],
          [
            0.0,
            -0.6776871655440385,
            0.11033094730723174,
            0.0
          ]
        ],
        "bin_weights": [
          0.0,
          787.0,
          4834.0,
          0.0
        ]
      },
      {
        "term_features": [
          "MaritalStatus"
        ],
        "scores": [
          0.0,
          -1.6136040206426372,
          0.1189728567559262,
          -0.23979676613220424,
          0.17582452151668568,
          0.0
        ],
        "standard_deviations": [
          0.0,
          0.696804827032985,
          0.017616253193305106,
          0.04054392391602196,
          0.47322170812817643,
          0.0
        ],
        "bagged_scores": [
          [
            0.0,
            -1.3864444946319854,
            0.13045161346179956,
            -0.2641272461446109,
            -0.44510064676317046,
            0.0
          ],
          [
            0.0,
            -1.4044293712546563,
            0.10774762209881103,
            -0.22159074081419514,
            0.5182199519088555,
            0.0
          ],
          [
            0.0,
            -1.3763198803347725,
            0.11129817847809984,
            -0.22007832060471694,
            -0.5566216286222081,
            0.0
          ],
          [
            0.0,
            -1.3434292633875062,
            0.1362447414049156,
            -0.2853801521211368,
            0.3449756434629544,
            0.0
          ],
          [
            0.0,
            -1.5648367959418723,
            0.11490292893952289,
            -0.2362646432407151,
            0.6824773789216425,
            0.0
          ],
          [
            0.0,
            -1.3386776245328962,
            0.13939135532734592,
            -0.2947747382337123,
            0.5813758076428506,
            0.0
          ],
          [
            0.0,
            -4.08948493105061,
            0.13423172673401423,
            -0.22220628676239396,
            -0.4367510118244413,
            0.0
          ],
          [
            0.0,
            -1.3595702907953475,
            0.10353570269947047,
            -0.2122711763067202,
            0.4476971887437854,
            0.0
          ],
          [
            0.0,
            -1.5341846622228834,
            0.15592274075278328,
            -0.3318286681907118,
            0.9479304429459172,
            0.0
          ],
          [
            0.0,
            -1.1732460989452338,
            0.10150838493285534,
            -0.20859848135230133,
            0.17128756347705748,
            0.0
          ],
          [
            0.0,
            -1.5776789559779125,
            0.11299230215573809,
            -0.22086705551727775,
            -0.47832206165200114,
            0.0
          ],
          [
            0.0,
            -1.6497912004690336,
            0.08925966447769945,
            -0.16992065331549133,
            -0.05838047857920929,
            0.0
          ],
          [
            0.0,
            -1.3573623955915106,
            0.10437214390634592,
            -0.21483227817275102,
            0.5154755792672787,
            0.0
          ],
          [
            0.0,
            -1.4350003238606992,
            0.1237608892135651,
            -0.2544142850741245,
            0.22727957230428858,
            0.0
          ]
        ],
        "bin_weights": [
          0.0,
          32.0,
          3861.0,
          1712.0,
          16.0,
          0.0
        ]
      },
      {
        "term_features": [
          "Age"
        ],
        "scores": [
          0.0,
          0.42793569664252756,
          0.1988983409208324,
          1.277130385105668,
          0.8560636573212674,
          0.822329496297557,
          -0.18609216972800213,
          -0.1345787683000369,
          -0.4146846279236379,
          -0.4424078147440482,
          -0.0013660585373699386,
          0.13275731597406643,
          0.14682729838271602,
          0.44666693981285654,
          -0.05447106460431897,
          0.016936361817305214,
          0.18001147570660753,
          0.34459511684776667,
          0.2684632872011135,
          -0.10015054373975477,
          -0.07835737011887373,
          -0.158235715008152,
          -0.1776038093415701,
          -0.09710922836151276,
          0.09175338990239745,
          0.41345493653697934,
          0.21877157596470123,
          0.036782577433700496,
          -0.14534911657232955,
          -0.012983610480979197,
          -0.08434901155900199,
          -0.3455740443003924,
          0.6168609540750333,
          -0.04020868439070457,
          -0.015049359015034491,
          -0.0001497026959577613,
          -0.03399773274078024,
          -0.06243585338610981,
          -0.1082563813301524,
          -0.11009077250544975,
          -0.3810359668325288,
          -0.941208068601754,
          -0.853693532202017,
          -0.39084264683175024,
          0.14434942858656388,
          0.3111773806053049,
          0.08870346653975082,
          0.06751352430071808,
          0.03934982530899622,
          0.05012366916478846,
          -0.028289014264341873,
          -0.43508187229684925,
          0.15421636061970923,
          0.4247145167051337,
          -2.757134990770862,
          -2.769684125135807,
          -2.7845291910962766,
          -2.7962091151815662,
          -0.9960112425303029,
          -1.3043432123962548,
          -2.2849232003199353,
          -2.2891584388045056,
          -1.024404564504511,
          0.37324402373225213,
          -0.42240537135537837,
          -3.95699214754404,
          -3.9891863664979716,
          0.0
        ],
        "standard_deviations": [
          0.0,
          0.24577618177735078,
          0.20561282909580336,
          0.8819968609462282,
          0.31320229907352254,
          0.29791068636522566,
          0.16009213225298005,
          0.09167689811695555,
          0.21082237821309807,
          0.21574326719267597,
          0.13737821602425182,
          0.0669397226142643,
          0.05706361670676304,
          0.11613019849884028,
          0.07994973634799968,
          0.05131601819431076,
          0.04780112206004683,
          0.07991203119834206,
          0.07472366981816067,
          0.0558102262457898,
          0.03655672495752383,
          0.05623832918710883,
          0.0565169007597705,
          0.07891061049050609,
          0.06750803799684969,
          0.11892739444357983,
          0.08708097635582093,
          0.07401291219464004,
          0.10730482633086455,
          0.09929088933867132,
          0.0670753757170749,
          0.17215224733462828,
          0.2034964447939194,
          0.07434775133744749,
          0.03095219051652278,
          0.044248133812606116,
          0.04075969210093884,
          0.044235330420592696,
          0.06420951135945206,
          0.08374097372672741,
          0.14276180326363383,
          0.2628688700353694,
          0.21332040566441648,
          0.14607325400830337,
          0.18828503159525714,
          0.2268099228611225,
          0.14694614672568007,
          0.14287173871676864,
          0.13018424279996513,
          0.13673048495093473,
          0.14748543853622367,
          0.21285289340457658,
          0.4011703487438789,
          0.2993066111797716,
          1.0956919453811356,
          1.0980423179204721,
          1.0969744142570157,
          1.1032802396381411,
          0.5956958258158663,
          0.9739183769465459,
          1.213181506167992,
          1.2111453392085512,
          0.4876387445547528,
          0.3698587183293241,
          0.526821460778817,
          1.168898646567213,
          1.173616993772707,
          0.0
        ],
        "bagged_scores": [
          [
            0.0,
            0.6449380924518874,
            -0.08707869759823475,
            1.5748151436395261,
            0.9739793522908579,
            0.9890235730333293,
            -0.14231451861048647,
            -0.14231451861048647,
            -0.46079616461368866,
            -0.45802906013000233,
            0.19266084435539954,
            0.19794711876142695,
            0.20213747319717823,
            0.5279980197822656,
            -0.1358173638415707,
            -0.035081345674208037,
            0.2624071135489,
            0.3434087276618121,
            0.3408663740236779,
            -0.22420368040272423,
            -0.04806177925191457,
            -0.20373060540729862,
            -0.2525378212287631,
            -0.20675933881289113,
            0.14658224823058416,
            0.5606137133860967,
            0.046032143844491544,
            0.03431667551845112,
            -0.21580428144094058,
            -0.059908570089114266,
            -0.06579760417093508,
            -0.3852840214237412,
            0.9105108029926673,
            -0.09977489151961683,
            -0.005122174361607723,
            0.03243029885766688,
            -0.017301409093240266,
            -0.017301409093240266,
            -0.19290161459322844,
            -0.21435928688651,
            -0.5175555324215286,
            -0.9666552545203552,
            -0.9352064821542004,
            -0.2679425195245836,
            0.40604696311557054,
            0.5951329222958895,
            0.2817599671226926,
            0.27505870697837814,
            0.2505913718079533,
            0.2373651972407238,
            0.23079593756574693,
            -0.627601855126628,
            -0.661300826974434,
            0.08604546005710251,
            -4.14669045805452,
            -4.171605473199076,
            -4.20346844079241,
            -4.24826788544353,
            -1.3712049668292778,
            -1.4090134345537904,
            -3.4932492016249284,
            -3.499813871631354,
            -1.564879906397812,
            0.13083733848512386,
            -0.8861308499680228,
            -4.733257729541764,
            -4.768440631684841,
            0.0
          ],
          [
            0.0,
            0.39554194597726955,
            0.3982934516688768,
            0.620626415364425,
            0.6226880867667386,
            0.6039948071755245,
            -0.3768191897631051,
            -0.15717566525840754,
            -0.3343175777966688,
            -0.32731785362134147,
            -0.07679102234904515,
            0.130604851126618,
            0.13552551609732394,
            0.40644614695875775,
            -0.11394332252727361,
            -0.028275475749905812,
            0.25247871250553827,
            0.38170048868725714,
            0.3014078943681279,
            -0.12915954173156835,
            -0.13735077038747134,
            -0.1636347722311985,
            -0.16648960395675888,
            -0.0576889338244556,
            0.10802895921823609,
            0.4789111278041586,
            0.2771897838060162,
            0.052638923387228975,
            -0.07001811821331046,
            -0.07757557332024796,
            -0.14337389126453964,
            -0.3903457311718809,
            0.755332242869916,
            0.0322679946782468,
            0.02407798987328777,
            0.014918069630933978,
            -0.1426722776594706,
            -0.15951198205112505,
            -0.15225416176894513,
            -0.1564821369660172,
            -0.22543317743889912,
            -0.8460439515237094,
            -0.8468051269029279,
            -0.36390105143019036,
            0.10141449989548923,
            0.3708443137278119,
            0.058018301463285286,
            0.05015662476359675,
            0.04346670402344517,
            0.04198850981593093,
            0.0321341304453157,
            -0.4175697119615996,
            -0.3000210307283213,
            0.480283836845349,
            -2.9912527875429302,
            -3.0054446108126416,
            -3.0115454834431685,
            -3.021105009402213,
            -0.9958374181306116,
            -0.9987806633157261,
            -2.662220190010733,
            -2.65709089143239,
            -0.7373490856336467,
            0.8010124572680648,
            -0.6817352819567349,
            -3.8688205904573247,
            -3.905937575976573,
            0.0
          ],
          [
            0.0,
            0.2690665043484171,
            0.13860893417938205,
            0.955991609799796,
            0.9641969537437234,
            0.9477915703409987,
            -0.5264489539667682,
            -0.10218848282205582,
            -0.40084388711046864,
            -0.5126952516990032,
            -0.12923026731528636,
            0.07498732958264165,
            0.0779197940813692,
            0.49966402197028464,
            0.05415595194184273,
            0.05208536920766479,
            0.23495871899978343,
            0.36312446145178184,
            0.23122400483235878,
            -0.06619000622818334,
            -0.0691215498290609,
            -0.16094731813283814,
            -0.163540839934329,
            -0.15322660084360173,
            0.04189205105237438,
            0.32972650098552103,
            0.1309196282806602,
            0.010438463747976051,
            -0.1252056672288976,
            -0.009827695487959726,
            -0.010352916685665847,
            -0.2542845856108578,
            0.7738310009269934,
            -0.017726060311483924,
            -0.006969160773103972,
            -0.006748915283717322,
            -0.014100118603326314,
            -0.09656417336861518,
            -0.10743476419179894,
            -0.12454026751216375,
            -0.26414869918650585,
            -0.8740387245854974,
            -0.8775411488848285,
            -0.38107835241092153,
            0.12045237515516802,
            0.3004496048394904,
            -0.0756281806951326,
            -0.07559015400584411,
            -0.0728898687314828,
            -0.06661559669009205,
            -0.08622580405052428,
            -0.6353075574953903,
            0.5376914385527528,
            0.6818873727688153,
            -2.7080895138030296,
            -2.7412885449516287,
            -2.751413339748957,
            -2.7733240826629237,
            -2.7919288020544473,
            -1.169518577656169,
            -2.1760965741735605,
            -2.176623840994184,
            -1.0708614807120427,
            0.3616859765835521,
            -0.00995629126216277,
            -3.808612280510349,
            -3.840072430572198,
            0.0
          ],
          [
            0.0,
            0.23592546416680346,
            0.24767009119715516,
            0.9677323657019933,
            0.9722272796028576,
            0.8986066725248758,
            -0.15175852853450897,
            -0.15582481037685458,
            -0.31238613448423663,
            -0.4739519870684611,
            0.06340813718238002,
            0.06963393063724733,
            0.0748462606343238,
            0.4854458954942685,
            0.029034563793648882,
            0.08190553502146934,
            0.08176428290261525,
            0.26132117845041114,
            0.2551207285609086,
            -0.07537573374067796,
            -0.0779088705826364,
            -0.1035770170122709,
            -0.107714262135296,
            -0.07954719925212855,
            0.01679788570747319,
            0.3224076453099429,
            0.3004102018662421,
            0.07879152834544093,
            -0.06341442184657572,
            -0.06300811914866336,
            -0.1342024656650966,
            -0.1384147063554905,
            0.5308023679461166,
            0.00393939142296848,
            -0.009755828212087425,
            -0.017453399319414087,
            -0.022407795703002498,
            -0.12526577078313314,
            -0.1362667299191588,
            -0.13990602738743882,
            -0.4833763015633754,
            -0.7869522590936613,
            -0.788968608976145,
            -0.7921628317654462,
            -0.047535719309481056,
            0.08480355790236947,
            0.0026411314286561988,
            -0.094786213761055,
            -0.10271729221665388,
            -0.1075968180726126,
            -0.20535101100281106,
            -0.2096517091352058,
            0.5632900686551664,
            0.542842417295603,
            -2.123536857561037,
            -2.113142000267991,
            -2.1386760520148655,
            -2.1287832098422452,
            -0.6369076247798985,
            -0.9612217215151702,
            -1.325537261498622,
            -1.332402323661518,
            -0.8898383985424659,
            0.016319561250318984,
            -0.3393958732280674,
            -3.1798615807698143,
            -3.2302129180874335,
            0.0
          ],
          [
            0.0,
            0.5540536715036484,
            -0.02993323622816174,
            2.968206490116416,
            1.183704770742747,
            1.1749329373279416,
            -0.09569014414191282,
            -0.053693537681096776,
            -0.5449238079687474,
            -0.5628293143372561,
            0.02183586196426772,
            0.17937405572091397,
            0.2046262860293767,
            0.583629598841096,
            -0.10128279011236824,
            0.022156559312264165,
            0.13987780703879624,
            0.3729461384544398,
            0.3142959560456555,
            -0.1974471323514226,
            -0.06046377924858695,
            -0.24808306038571357,
            -0.24808306038571357,
            -0.24858964537464526,
            0.07471763393694528,
            0.49303747335810144,
            0.20521163171186257,
            -0.02725198041341595,
            -0.12642448278941235,
            -0.12960070877015253,
            -0.13866381458987412,
            -0.6615506878288886,
            0.9053101533096762,
            -0.03784198098409042,
            -0.03959595776038166,
            0.06742005823342775,
            0.026800289878769326,
            -0.05762367081396272,
            -0.15733964705889433,
            -0.16836220270688526,
            -0.39457689054101874,
            -1.2165485979963953,
            -0.981965204578239,
            -0.22996890354861324,
            0.47167315751363925,
            0.6329840907730953,
            0.35682782712250427,
            0.35682782712250427,
            0.27901333551411817,
            0.27901333551411817,
            0.18254774169596755,
            -0.4354422696006617,
            0.2623507518177323,
            0.5649658854878035,
            -3.851268865241848,
            -3.859412807029321,
            -3.859412807029321,
            -3.8738830003778606,
            -0.61550826579443,
            -1.1925748366832334,
            -3.040691219341759,
            -3.044411548422583,
            -1.2643069881199671,
            0.411403636520706,
            -0.5743071673622797,
            -5.392248754879249,
            -5.455460957310745,
            0.0
          ],
          [
            0.0,
            0.7347825641262137,
            0.3601992081915949,
            2.635852532933093,
            1.172772644700773,
            0.8499105264308562,
            -0.06364277835319138,
            -0.06665821350211487,
            -0.5022916110378731,
            -0.5991255871970237,
            0.12956728975457407,
            0.1692942822127584,
            0.18022735519622068,
            0.5499201490684036,
            -0.12546047680764882,
            0.026301090258296814,
            0.17409816945108497,
            0.4334871395697866,
            0.30498419320884956,
            -0.06049197790411162,
            -0.062216010746534434,
            -0.25842039808314166,
            -0.2675396002561905,
            -0.05907985420463746,
            0.020855031196936658,
            0.4931991831249978,
            0.20438904252978746,
            0.20381217328745188,
            -0.16218148248189027,
            0.1851575609208616,
            -0.15600915872555923,
            -0.625670604069817,
            0.690614961206684,
            -0.02792597261126059,
            -0.023103597572627615,
            0.03616725856121798,
            -0.01543515341764884,
            -0.018243035192255758,
            -0.02987819330676017,
            -0.06488749431354404,
            -0.579668813554255,
            -1.253655418227148,
            -0.940804763436403,
            -0.518367686324258,
            0.2985584961034219,
            0.49703421480031307,
            0.23953702429312068,
            0.2330515670044822,
            0.13455932454075176,
            0.12604464696516815,
            -0.16812992803582996,
            -0.369969613360586,
            0.09668432215321948,
            0.38832268218314925,
            -4.184866528995166,
            -4.194784170087197,
            -4.2039037786642,
            -4.21823024031957,
            -1.2772260900621955,
            -1.4626360803010967,
            -3.5835981554972305,
            -3.601989416118469,
            -1.5417778245256009,
            0.29919277706000336,
            -0.7236919433900728,
            -5.409597377997878,
            -5.409597377997878,
            0.0
          ],
          [
            0.0,
            0.49581707916178436,
            0.4431195451566557,
            0.7410868179921631,
            0.6634217981755549,
            0.6631793134468706,
            0.02733479113306199,
            0.009960203747667304,
            -0.7357162150081864,
            -0.7352745694872296,
            0.2171469020303159,
            0.22641892102353484,
            0.11081426308411844,
            0.37978358975119525,
            -0.14938748053459605,
            0.07525914803956402,
            0.1363932032131971,
            0.4038562947496615,
            0.2801862296988459,
            -0.04885340091149751,
            -0.05566001564418058,
            -0.12692874349874103,
            -0.18463486292576264,
            0.02653755188113957,
            0.14675861275710822,
            0.4007737933568724,
            0.2126210340634894,
            0.04176415118361121,
            -0.17040826459174913,
            0.0015377751520306154,
            -0.026417361124338595,
            -0.31838273209489276,
            0.5415939296615204,
            -0.009863113477567895,
            -0.013084200529991485,
            -0.01379952293217418,
            -0.02446963360210927,
            -0.08670170248688663,
            -0.1853106601942141,
            -0.1943508646620366,
            -0.4882554660024224,
            -1.0034024965952208,
            -1.0067123821396242,
            -0.4064736289141424,
            0.07997222887860968,
            0.0759534175028328,
            0.019560090391963852,
            -0.024746249144494276,
            -0.028900394618909947,
            -0.010333909568907992,
            -0.017414993848181348,
            -0.3616050422929074,
            0.5455894711953632,
            0.6595490059108056,
            -2.5111614175851518,
            -2.525434570429166,
            -2.5297932359196107,
            -2.5389067617427514,
            -0.4316387901619917,
            -0.7449558505523243,
            -1.5069607857207619,
            -1.498975871639579,
            -0.6369611793724802,
            0.9953801427458697,
            0.4430954848406588,
            -3.821005637160336,
            -3.858416401340745,
            0.0
          ],
          [
            0.0,
            0.11139877067597886,
            0.1248922174674924,
            0.8607969223564937,
            0.868630758576515,
            0.8665020814258803,
            -0.13013437571721556,
            -0.15123246698619106,
            -0.15123246698619106,
            -0.15254368954443265,
            -0.14998327541794199,
            0.12862606470837354,
            0.13637254947827593,
            0.3184385501547219,
            -0.010898415181538279,
            0.036758897879952006,
            0.14689689848577347,
            0.325142351161566,
            0.23101847624790106,
            -0.14371797661339777,
            -0.14371797661339777,
            -0.1681826287879011,
            -0.1688300480429019,
            0.002936994412554142,
            0.15350250627664536,
            0.2741904946649648,
            0.26343823573865766,
            -0.03391332531475798,
            -0.04216571855099924,
            -0.04389837898265611,
            -0.05124563951978586,
            -0.22628094831390663,
            0.550104227611552,
            -0.03157109603218722,
            -0.03443014212111542,
            -0.03988440097961704,
            -0.04814909004821327,
            -0.0543513072503124,
            -0.06566015058895552,
            -0.0750344261328354,
            -0.19762322706349753,
            -0.7488629367946656,
            -0.7488629367946656,
            -0.29426485069275954,
            -0.09556759057479425,
            0.06130676533767265,
            -0.04424340042254882,
            -0.04424340042254882,
            -0.11831442138975523,
            -0.13154249207032853,
            -0.15287204530467313,
            -0.7173178727286091,
            0.42406711081022985,
            0.4647777184399161,
            -1.4612740669620372,
            -1.4582096165379776,
            -1.4720764815289402,
            -1.4720764815289402,
            -0.6800797621256743,
            -0.7528394449995666,
            -1.139808426012325,
            -1.15305741385401,
            -1.1466299675183358,
            0.5976230347510313,
            0.3387662525086418,
            -3.0058644876367566,
            -3.04330865186329,
            0.0
          ],
          [
            0.0,
            0.9832362267034044,
            0.14369713885591157,
            2.899070808218267,
            0.9581882184837313,
            0.95899432380099,
            -0.3210207367592701,
            -0.07883685233502982,
            -0.8747205019123141,
            -0.8725890335719224,
            0.1594467620332064,
            0.2078913312217272,
            0.21813794733584174,
            0.5290174654523179,
            -0.144195501700113,
            0.029268558586737728,
            0.15322461212259553,
            0.43757514633023353,
            0.20502180045314794,
            -0.06995880975858867,
            -0.07211756642035325,
            -0.16652490316292304,
            -0.22516528855958143,
            -0.13270231369790023,
            0.25529328221139963,
            0.6077298927291186,
            0.3075062951804204,
            0.09227243954307797,
            -0.4460862872778174,
            0.2254805714638899,
            -0.21831509756803527,
            -0.46999003159228414,
            0.8091653014251665,
            -0.2763914767295056,
            0.024585405021916154,
            0.07089903408219886,
            -0.009118599143096207,
            -0.01213738810769699,
            -0.0046092709338974025,
            0.11364694942428377,
            -0.3235744739577465,
            -1.0465635898217096,
            -1.049656261221377,
            -0.470485077832018,
            0.23678229123354172,
            0.4712576426026557,
            0.06431022596221017,
            0.058187504099558085,
            -0.026787075656873882,
            -0.03491727147354717,
            -0.07843246668709947,
            -0.8352072370851861,
            -0.07266703738890723,
            0.36244975218498193,
            -4.256566082457258,
            -4.278825166116052,
            -4.287163067658389,
            -4.294997053703299,
            -0.7055739137897474,
            -1.3879544297305553,
            -3.6538844996928836,
            -3.6538844996928836,
            -1.1837083781767048,
            0.06461202667897427,
            -0.7884268628232826,
            -5.438394526838334,
            -5.453258510639672,
            0.0
          ],
          [
            0.0,
            0.25630523628950536,
            0.2631519359367949,
            0.717642420529371,
            0.723362810384027,
            0.7150025066688823,
            -0.356603930048484,
            -0.2570956217189733,
            -0.27990734978725224,
            -0.2799270299858794,
            -0.011341049154581631,
            0.1065637673953444,
            0.11710514622234613,
            0.3488886391903069,
            -0.028939983698472435,
            -0.028939983698472435,
            0.16880373834032425,
            0.269416657500931,
            0.26638574975413365,
            -0.0750723752236994,
            -0.08822429856699772,
            -0.1970410420305853,
            -0.19594248361679872,
            -0.19461469625371125,
            0.0727151170341553,
            0.4249942561902622,
            0.27394330875635003,
            0.024932383987635448,
            -0.015391489238438541,
            -0.017507320329833695,
            -0.019500168510615715,
            -0.13501667098692144,
            0.42195181533406806,
            0.03431013158362998,
            0.03176413470280489,
            0.02691996461456269,
            -0.006023593970703844,
            -0.01078369834608886,
            -0.05671502109516614,
            -0.07447321905371855,
            -0.34566766971155244,
            -1.1182125626446677,
            -0.8046121818333233,
            -0.378764477618159,
            0.010433526000422369,
            0.01847101073804265,
            0.004785444617260479,
            -0.0024665495032933776,
            -0.006225449571776107,
            -0.006225449571776107,
            -0.25586735217429907,
            -0.29581503689314637,
            0.38540570662229995,
            0.3790211979339849,
            -1.5963403165718757,
            -1.6165187637603855,
            -1.6397535452881922,
            -1.6432327949182253,
            -0.6943333752649026,
            -0.7111198783135156,
            -0.7128375854279962,
            -0.7152808898431117,
            -0.48790565346619846,
            0.3565669422538688,
            -0.06136683416063128,
            -2.81147098389223,
            -2.8265225739686652,
            0.0
          ],
          [
            0.0,
            0.25585067149157814,
            0.272390298223924,
            0.9227670022953097,
            0.9359618507466829,
            0.9130131891079913,
            -0.06190864919622294,
            -0.07366507030484842,
            -0.29951591152278295,
            -0.3015635508893831,
            -0.11097151461816479,
            0.1990716263635846,
            0.20315224915576602,
            0.5462008181445376,
            -0.12652673239976397,
            -0.10596152942595757,
            0.21570529250920953,
            0.39687021924478594,
            0.39131252586072407,
            -0.07600360770082298,
            -0.05202098527177282,
            -0.08340523776999895,
            -0.16397530537195953,
            -0.060154822449217216,
            0.07742771169349866,
            0.4945829396921415,
            0.34267620788682496,
            0.11749991775727084,
            -0.22044405260267685,
            -0.010992553647010878,
            -0.017668139532822397,
            -0.4816935736510247,
            0.5743212987812122,
            0.010262839713443106,
            0.005883330832475414,
            0.0038545223036843823,
            -0.01763651060769464,
            -0.030287166631086077,
            -0.039223961982822936,
            -0.04314257173977479,
            -0.33021545786080436,
            -1.164402166124816,
            -0.8098822424435502,
            -0.46694248257512716,
            0.3300275877358375,
            0.5163745594205866,
            0.07746608375728474,
            0.07344953059819295,
            0.06583354692677033,
            0.22199821922206847,
            0.2160037991507536,
            -0.5988793121424811,
            -0.6266024617460282,
            -0.3923245498172867,
            -3.452883036727298,
            -3.4612147620218825,
            -3.4912732597788323,
            -3.508835847760228,
            -1.189413303241539,
            -4.643626118853052,
            -4.652825456757879,
            -4.652825456757879,
            -2.1950121690560382,
            -0.5577338698746523,
            -1.2208517712922533,
            -5.428525940758177,
            -5.47748121811061,
            0.0
          ],
          [
            0.0,
            0.06697202847808592,
            0.10180548927470362,
            0.17241603756448606,
            0.17542919675241478,
            0.17542919675241478,
            -0.03137786593746135,
            -0.0562394561954085,
            -0.06320261851298466,
            -0.05689131321669534,
            -0.05305650026659463,
            0.031095938970630267,
            0.0356660907189524,
            0.13583752710158148,
            0.047581195912849435,
            0.047581195912849435,
            0.1733999903481123,
            0.17732168387036204,
            0.1695929679385565,
            -0.04324599987383673,
            -0.0464737892437761,
            -0.04865939781508008,
            -0.05435226685942228,
            -0.05685807503141317,
            0.006310858893157578,
            0.14059767082652186,
            0.13686521674248134,
            0.041414391871253675,
            -0.032131193797231616,
            -0.03311236818199792,
            -0.046635598129135064,
            -0.05428468437136129,
            0.11665356341978378,
            -0.0724907959699244,
            -0.08815982018843134,
            -0.09499029228022514,
            -0.10088051640270439,
            -0.10357320379703495,
            -0.11341143088034673,
            -0.11884305806296437,
            -0.12666041858251598,
            -0.19802470763808594,
            -0.20113082290547418,
            -0.2095363629333934,
            -0.10322929990660014,
            -0.07520526614912278,
            -0.08441131170391143,
            -0.08441131170391143,
            -0.0852919755301038,
            -0.08599130313535676,
            -0.09099631261416231,
            -0.0984863429779216,
            0.30054881324484006,
            0.28684936124915184,
            -0.5040460793162366,
            -0.521283905685986,
            -0.5383153705270778,
            -0.5481939401403384,
            -0.4726864145092896,
            -0.4807604248946784,
            -0.4897465012256079,
            -0.5245931279205053,
            -0.5401803243411445,
            0.5528007362947355,
            -1.2985442342299953,
            -1.3459293917669155,
            -1.3459293917669155,
            0.0
          ],
          [
            0.0,
            0.4092754016184175,
            -0.18261814317295771,
            0.4402197466867976,
            0.3677264032499081,
            0.3633341779355147,
            -0.33746539326586306,
            -0.27882094051036643,
            -0.2829320431664289,
            -0.283596285195919,
            -0.27002188922283,
            0.13764502250164784,
            0.14097492930890887,
            0.50164955669487,
            0.07879887689804885,
            0.0767231716694907,
            0.1784850966951559,
            0.222639250558697,
            0.10321181385414133,
            -0.0479898964660395,
            -0.03417688654345889,
            -0.12974689409138257,
            -0.1286933670087842,
            -0.018853148101752773,
            0.13408960564129438,
            0.4277147875762093,
            0.28140468884629316,
            -0.12459899634679102,
            -0.12650125739533125,
            -0.0024759020864428133,
            -0.003851821997416613,
            -0.39088012302662306,
            0.547063761574181,
            -0.034404572728993596,
            -0.03645552392700195,
            -0.03823245699274068,
            -0.03855775624520734,
            -0.05050443629136876,
            -0.21362230689265965,
            -0.21957478386140644,
            -0.6237896205887768,
            -1.1611554358577199,
            -1.162562593340865,
            -0.24386729582707106,
            0.29404201707518474,
            0.47068782253601854,
            0.34587355401575365,
            0.23754682920492898,
            0.23450412451397618,
            0.23164037253509068,
            0.0001267745629194017,
            -0.35409867670922474,
            0.4297387839928323,
            0.4852320847790177,
            -2.547156117710776,
            -2.547156117710776,
            -2.5683041837126215,
            -2.580172332572285,
            -0.628573289314563,
            -0.8884488907742842,
            -2.094114326090401,
            -2.097266667732252,
            -0.7127382260797631,
            0.5425084308003884,
            0.09502009653712244,
            -3.678822262065077,
            -3.710065594829317,
            0.0
          ],
          [
            0.0,
            0.5779360960023914,
            0.5903785397385164,
            1.4026010782812126,
            1.4026010782812126,
            1.3928980721937305,
            -0.03744010303060209,
            -0.32031732364635024,
            -0.5627985010231067,
            -0.5773748804721257,
            -0.0017950984988781282,
            -0.0005518165895191107,
            0.2180763168180222,
            0.44041717877538433,
            -0.03571342620351027,
            -0.012672125897472145,
            0.20166702373141912,
            0.4355218981770075,
            0.36385730596856,
            -0.14439747344999615,
            -0.14948890331409026,
            -0.15641799170505505,
            -0.1589545204997196,
            -0.1209291155085181,
            0.0295759547837557,
            0.3398896325128018,
            0.08019464425223968,
            0.002839337517373808,
            -0.21871091455734276,
            -0.14603926422641156,
            -0.14885248434220788,
            -0.30595751970780255,
            0.5087979299909284,
            -0.03571197850352183,
            -0.0403254811946185,
            -0.04359605623921274,
            -0.04601609375327516,
            -0.051253003192730615,
            -0.060961425215285484,
            -0.060961425215285484,
            -0.4339577871825043,
            -0.7923948590009057,
            -0.7969986952166167,
            -0.4480415342478196,
            -0.082178532704115,
            0.3363886721466132,
            -0.0046482257966275475,
            -0.012845371020441226,
            -0.015944375285512263,
            0.006903927596559403,
            -0.0023646694039087535,
            -0.13419397464634125,
            0.27425393846918394,
            0.9561010085534792,
            -2.2647577422629,
            -2.281257243291215,
            -2.2883096292412834,
            -2.296918972127514,
            -1.453245379365673,
            -1.4573546214044053,
            -1.4573546214044053,
            -1.4400023235623625,
            -0.3695143211209546,
            0.6532071414335453,
            -0.20614992318821668,
            -3.475478521342355,
            -3.523904896822711,
            0.0
          ]
        ],
        "bin_weights": [
          0.0,
          58.0,
          5.0,
          8.0,
          33.0,
          28.0,
          16.0,
          66.0,
          54.0,
          50.0,
          56.0,
          58.0,
          230.0,
          257.0,
          228.0,
          221.0,
          257.0,
          238.0,
          227.0,
          212.0,
          264.0,
          224.0,
          134.0,
          141.0,
          139.0,
          178.0,
          135.0,
          159.0,
          128.0,
          130.0,
          120.0,
          129.0,
          116.0,
          99.0,
          96.0,
          81.0,
          91.0,
          75.0,
          82.0,
          68.0,
          84.0,
          89.0,
          34.0,
          55.0,
          38.0,
          49.0,
          55.0,
          48.0,
          38.0,
          38.0,
          49.0,
          36.0,
          11.0,
          8.0,
          8.0,
          7.0,
          6.0,
          5.0,
          11.0,
          9.0,
          7.0,
          5.0,
          13.0,
          6.0,
          6.0,
          6.0,
          9.0,
          0.0
        ]
      },
      {
        "term_features": [
          "DriverRating"
        ],
        "scores": [
          0.0,
          0.12174615529293552,
          0.13319045590284018,
          0.1875631149120323,
          -0.5457674100225602,
          0.0
        ],
        "standard_deviations": [
          0.0,
          0.017402394255726802,
          0.01448702640488114,
          0.02184935722581615,
          0.03075056774278532,
          0.0
        ],
        "bagged_scores": [
          [
            0.0,
            0.12894630581324878,
            0.1203804905729471,
            0.2236274402978214,
            -0.5833220209238346,
            0.0
          ],
          [
            0.0,
            0.1140260525124033,
            0.12027935370989754,
            0.204098004019915,
            -0.5408608504022524,
            0.0
          ],
          [
            0.0,
            0.13454519768914372,
            0.12302880147705617,
            0.17439356732468925,
            -0.5323722392186794,
            0.0
          ],
          [
            0.0,
            0.12076499843528266,
            0.12968625811058093,
            0.18096647530713522,
            -0.5320470648563181,
            0.0
          ],
          [
            0.0,
            0.13877561385225085,
            0.13523671426268397,
            0.18835623210524877,
            -0.5699767321467921,
            0.0
          ],
          [
            0.0,
            0.1162310892710843,
            0.11844067858499478,
            0.1962079207132869,
            -0.5314748592447591,
            0.0
          ],
          [
            0.0,
            0.08869989238386121,
            0.17708377465251532,
            0.18023372026326684,
            -0.5510300530747368,
            0.0
          ],
          [
            0.0,
            0.12362326703609189,
            0.13628841367328212,
            0.186714204107653,
            -0.5508410124350308,
            0.0
          ],
          [
            0.0,
            0.12495805566770003,
            0.12135758244160931,
            0.15653637427584802,
            -0.496513249686237,
            0.0
          ],
          [
            0.0,
            0.09698873382107101,
            0.1332266626594935,
            0.19191988259140919,
            -0.5211408065609823,
            0.0
          ],
          [
            0.0,
            0.09901209000719725,
            0.14664523374779967,
            0.21798871498752467,
            -0.5725761480878712,
            0.0
          ],
          [
            0.0,
            0.12147041787235918,
            0.1355522913391094,
            0.14266227254813124,
            -0.492697999145993,
            0.0
          ],
          [
            0.0,
            0.1462553017983154,
            0.13556458448913752,
            0.17090999973725995,
            -0.5578401177741877,
            0.0
          ],
          [
            0.0,
            0.15014915794108752,
            0.13189554291865496,
            0.21126880048926328,
            -0.6080505867581698,
            0.0
          ]
        ],
        "bin_weights": [
          0.0,
          1454.0,
          1486.0,
          1484.0,
          1197.0,
          0.0
        ]
      },
      {
        "term_features": [
          "AgeOfPolicyHolder"
        ],
        "scores": [
          0.0,
          -0.017685937658718405,
          -0.7218239175695085,
          0.746112634718173,
          -0.2133868488997732,
          0.011594960072028907,
          -0.03914240598689121,
          0.07917968799496926,
          -0.15313316549885692,
          0.2543828804556092,
          0.0
        ],
        "standard_deviations": [
          0.0,
          0.1717523973448301,
          1.0214599174942258,
          0.22112549337946658,
          0.07084458503836509,
          0.01006734764798549,
          0.031566387990013794,
          0.04125114669162143,
          0.1140757844546846,
          0.34593762651620297,
          0.0
        ],
        "bagged_scores": [
          [
            0.0,
            0.10666366344448505,
            -0.2328454602046629,
            0.7505063712825192,
            -0.2001382174961327,
            0.013927174133285009,
            -0.027041991633636644,
            0.11603835687578923,
            -0.3957110434491066,
            0.5379265587574091,
            0.0
          ],
          [
            0.0,
            0.007989931673131369,
            0.07100791598409284,
            0.9032254621408646,
            -0.23123437787526718,
            0.021184939972092205,
            -0.062050943423706595,
            0.04798549931524486,
            -0.14231504981350612,
            0.3807846885255619,
            0.0
          ],
          [
            0.0,
            -0.07466488553525069,
            -0.05944445737837342,
            0.6206437116335145,
            -0.21216996512379074,
            0.015212366012603874,
            -0.03897201877871591,
            0.07371826232603346,
            -0.06211600119881,
            -0.05395480263431435,
            0.0
          ],
          [
            0.0,
            -0.11282509711384764,
            -0.2324206479157574,
            0.667236098202332,
            -0.12109819496918733,
            0.006620217295782056,
            -0.10773351115467486,
            0.11962009396752976,
            -0.0006068864420321618,
            0.13847372422471196,
            0.0
          ],
          [
            0.0,
            0.3010170371219938,
            -1.937255057511139,
            0.4426573669772293,
            -0.25249095109283753,
            0.0051657572057210235,
            -0.00955160091501582,
            0.09872827293980474,
            -0.2630462672606715,
            0.5383049811543692,
            0.0
          ],
          [
            0.0,
            0.005948130909568632,
            -3.213879921939394,
            0.8360271270913894,
            -0.18211289347433746,
            0.014412940375719073,
            0.0006152043592572293,
            0.04631638908239573,
            -0.28949888779974364,
            0.5373623357869803,
            0.0
          ],
          [
            0.0,
            -0.15928621189237113,
            -0.3218028310940052,
            0.8901352428425241,
            -0.29351765783823225,
            0.029918163408807638,
            -0.045517248833999616,
            0.06145868238976764,
            -0.08989443851873816,
            -0.0056939209610410435,
            0.0
          ],
          [
            0.0,
            -0.13509744870216567,
            -0.023257025592324787,
            0.9829054327593552,
            -0.24021287081509646,
            -0.0021185663299884555,
            -0.02064808253159328,
            0.06864523331891831,
            -0.04571995266910467,
            -0.10339431016242091,
            0.0
          ],
          [
            0.0,
            0.3982997179516659,
            -2.534984208912313,
            0.7690512654899343,
            -0.16591392934307206,
            0.0012492466695722265,
            -0.09741595093677938,
            0.10021175197023705,
            -0.12631387652042314,
            0.7070651860267148,
            0.0
          ],
          [
            0.0,
            -0.22789326176396774,
            -0.2252084177680267,
            0.6121607959397831,
            -0.18621956588724042,
            0.02772765603421449,
            -0.021212568851212518,
            0.03084873484340108,
            -0.09174330666817569,
            -0.048407141310424145,
            0.0
          ],
          [
            0.0,
            -0.04227901335157053,
            0.027569043010382217,
            0.9367199165385962,
            -0.22130870545605097,
            0.0020813553734605264,
            -0.04531775439317534,
            0.07580873873875765,
            -0.31938622248041704,
            0.98156320561054,
            0.0
          ],
          [
            0.0,
            -0.13327489257723169,
            -0.10209632615677451,
            0.5349509249880875,
            -0.14456241747772253,
            0.019301079456305104,
            0.005321517949166292,
            -0.00782683230545217,
            -0.056203121787847796,
            -0.13402804354096326,
            0.0
          ],
          [
            0.0,
            -0.03355981545691265,
            -1.0057061007575698,
            1.174816740056956,
            -0.40569650399788426,
            -0.0022023839206779666,
            -0.03807535170405521,
            0.15500520040581167,
            -0.16892492307113777,
            0.1980980957749952,
            0.0
          ],
          [
            0.0,
            -0.14864098192958464,
            -0.315211349737254,
            0.3245404301113356,
            -0.13073963374997297,
            0.009849495321507896,
            -0.04039338296833535,
            0.12195724806133074,
            -0.09238433930428211,
            -0.11274023087359103,
            0.0
          ]
        ],
        "bin_weights": [
          0.0,
          58.0,
          10.0,
          82.0,
          282.0,
          2357.0,
          1391.0,
          889.0,
          433.0,
          119.0,
          0.0
        ]
      },
      {
        "term_features": [
          "NumberOfCars"
        ],
        "scores": [
          0.0,
          0.04707005193041424,
          -0.694911536339468,
          -0.6856359207505839,
          -1.7754350673211783,
          -1.895452719209241,
          0.0
        ],
        "standard_deviations": [
          0.0,
          0.005114953259494518,
          0.09732014406782163,
          0.08637210777427624,
          0.7056736892590599,
          0.8741667662105361,
          0.0
        ],
        "bagged_scores": [
          [
            0.0,
            0.051644857580154954,
            -0.8189945630763971,
            -0.6633512929082955,
            -1.05320426600222,
            -1.3790801000709625,
            0.0
          ],
          [
            0.0,
            0.04321742373781827,
            -0.6024350127129542,
            -0.6905809207947895,
            -1.9652713124210042,
            -2.2970656080278844,
            0.0
          ],
          [
            0.0,
            0.048757246037421355,
            -0.7404811592569495,
            -0.6512175139238244,
            -2.2432514337412375,
            -2.4822599258410216,
            0.0
          ],
          [
            0.0,
            0.04657614916065212,
            -0.7371966935564079,
            -0.5731851010261123,
            -1.7473014382903962,
            -1.9926746183679558,
            0.0
          ],
          [
            0.0,
            0.04518663366790202,
            -0.6647950712471213,
            -0.6888584374357342,
            -1.101367601293509,
            -0.7404881851723993,
            0.0
          ],
          [
            0.0,
            0.04396030321287675,
            -0.61878621497464,
            -0.6610541543984366,
            -2.832965650557354,
            -3.056328650335593,
            0.0
          ],
          [
            0.0,
            0.04550275742166718,
            -0.7039446534820849,
            -0.6160402302634174,
            -1.1017763491823205,
            -1.3212557959427238,
            0.0
          ],
          [
            0.0,
            0.047425868420801376,
            -0.7259757275748511,
            -0.663004161575878,
            -1.1755408723470362,
            -0.7735402879980534,
            0.0
          ],
          [
            0.0,
            0.052670345769384744,
            -0.7095780842362494,
            -0.8640388027938624,
            -3.2453437714972653,
            -3.551246751729013,
            0.0
          ],
          [
            0.0,
            0.04697969414482557,
            -0.689721655401725,
            -0.7157144659670925,
            -1.063692649713767,
            -1.4105996368231701,
            0.0
          ],
          [
            0.0,
            0.05214704007441317,
            -0.7693687284639272,
            -0.793977030866782,
            -1.2027665949737112,
            -0.6580069925954837,
            0.0
          ],
          [
            0.0,
            0.03236535990966626,
            -0.414660279436339,
            -0.5944174719410218,
            -1.4751552996809323,
            -1.6730326606183346,
            0.0
          ],
          [
            0.0,
            0.050068970759261866,
            -0.8016531527220837,
            -0.5893228811563259,
            -2.0790143224558326,
            -2.382057231263036,
            0.0
          ],
          [
            0.0,
            0.05247807712895366,
            -0.7311705126108219,
            -0.834140425456602,
            -2.5694393803399085,
            -2.8187016241437406,
            0.0
          ]
        ],
        "bin_weights": [
          0.0,
          5269.0,
          236.0,
          112.0,
          3.0,
          1.0,
          0.0
        ]
      },
      {
        "term_features": [
          "PastNumberOfClaims"
        ],
        "scores": [
          0.0,
          -0.24269372975197348,
          0.09747406378857024,
          -0.12322032628441024,
          0.10654320903570404,
          0.0
        ],
        "standard_deviations": [
          0.0,
          0.031957590613315316,
          0.024287478867640322,
          0.048516501860176135,
          0.021769533775045747,
          0.0
        ],
        "bagged_scores": [
          [
            0.0,
            -0.2519394946457389,
            0.11596233155287747,
            -0.19131332920457567,
            0.10811420039860906,
            0.0
          ],
          [
            0.0,
            -0.2383634389492868,
            0.07636068783817589,
            -0.16155151908498938,
            0.13325973277237446,
            0.0
          ],
          [
            0.0,
            -0.24937716986544384,
            0.1013123283423312,
            -0.1378091793061456,
            0.11056313738221413,
            0.0
          ],
          [
            0.0,
            -0.22768902505384112,
            0.12481257715455954,
            -0.061813100709343954,
            0.05395518997809142,
            0.0
          ],
          [
            0.0,
            -0.28649565893185364,
            0.1337978569106948,
            -0.20151814006372293,
            0.11763228812903789,
            0.0
          ],
          [
            0.0,
            -0.2944821374053177,
            0.13987432620168186,
            -0.16918870026204397,
            0.11067137018938883,
            0.0
          ],
          [
            0.0,
            -0.2714184376242357,
            0.11251394503144893,
            -0.1743166177799505,
            0.12296776989484196,
            0.0
          ],
          [
            0.0,
            -0.21047149939450727,
            0.057679531807029,
            -0.09230695041500599,
            0.11756038323117174,
            0.0
          ],
          [
            0.0,
            -0.2120612705834914,
            0.07483809664451045,
            -0.13838312833318184,
            0.11022390737984317,
            0.0
          ],
          [
            0.0,
            -0.2483586846514953,
            0.07748702502689078,
            -0.06561408738744237,
            0.11996416659242481,
            0.0
          ],
          [
            0.0,
            -0.26343138767478835,
            0.08045929898669706,
            -0.07061873243167402,
            0.12926808699260145,
            0.0
          ],
          [
            0.0,
            -0.17921780481056926,
            0.07586853719079163,
            -0.07296012461587771,
            0.07090400016104657,
            0.0
          ],
          [
            0.0,
            -0.2622876747404068,
            0.10433972218395501,
            -0.07824068910661253,
            0.10493533438174685,
            0.0
          ],
          [
            0.0,
            -0.20211853219665243,
            0.08933062816833952,
            -0.10945026928117728,
            0.08158535901646435,
            0.0
          ]
        ],
        "bin_weights": [
          0.0,
          1412.0,
          1958.0,
          383.0,
          1868.0,
          0.0
        ]
      },
      {
        "term_features": [
          "PolicyType"
        ],
        "scores": [
          0.0,
          -0.0233368296852685,
          0.3598030136626995,
          -0.1610770527787071,
          0.0
        ],
        "standard_deviations": [
          0.0,
          0.0043138168218919085,
          0.0572347849972667,
          0.21908990923665878,
          0.0
        ],
        "bagged_scores": [
          [
            0.0,
            -0.027890929954022523,
            0.4152441238650512,
            0.023547127590383223,
            0.0
          ],
          [
            0.0,
            -0.019541673919151945,
            0.29851267123563396,
            -0.09426359265984961,
            0.0
          ],
          [
            0.0,
            -0.017887904816304853,
            0.2889983689796029,
            -0.31660328522939074,
            0.0
          ],
          [
            0.0,
            -0.018520792691530258,
            0.3130609487753264,
            -0.5301797733488262,
            0.0
          ],
          [
            0.0,
            -0.027541559117858244,
            0.42213851816558645,
            -0.15365003099318814,
            0.0
          ],
          [
            0.0,
            -0.0268611189337596,
            0.43189015303680733,
            -0.445000574559024,
            0.0
          ],
          [
            0.0,
            -0.030620887716971745,
            0.4428144009349273,
            0.21705509312809518,
            0.0
          ],
          [
            0.0,
            -0.020102095386173344,
            0.3131273867789095,
            -0.1855050151471605,
            0.0
          ],
          [
            0.0,
            -0.021019857031207956,
            0.3489519061697861,
            -0.5088312116615845,
            0.0
          ],
          [
            0.0,
            -0.019771165867477472,
            0.30370080977285324,
            -0.11997700372852722,
            0.0
          ],
          [
            0.0,
            -0.029426976556241602,
            0.4355770385135945,
            0.06193243732382053,
            0.0
          ],
          [
            0.0,
            -0.018712837096599974,
            0.29313863671149565,
            -0.1968382532071465,
            0.0
          ],
          [
            0.0,
            -0.024519798274897336,
            0.37440840279878745,
            -0.11610365134428662,
            0.0
          ],
          [
            0.0,
            -0.024298018231562135,
            0.35567882553943053,
            0.10933899493478585,
            0.0
          ]
        ],
        "bin_weights": [
          0.0,
          5246.0,
          351.0,
          24.0,
          0.0
        ]
      },
      {
        "term_features": [
          "Deductible"
        ],
        "scores": [
          0.0,
          -0.47437616993654336,
          0.5896880953492625,
          -0.026478077402096095,
          1.2261011842076943,
          -0.038814245481221275,
          0.0
        ],
        "standard_deviations": [
          0.0,
          0.26938114611149694,
          0.4206961113580984,
          0.0033762026359841707,
          0.12215176752387678,
          0.14929557921162048,
          0.0
        ],
        "bagged_scores": [
          [
            0.0,
            -0.3592410234956668,
            0.7131469187761985,
            -0.031563121638550296,
            1.2623133280786083,
            0.1958778941091991,
            0.0
          ],
          [
            0.0,
            -0.3651180744228945,
            0.7146666441187022,
            -0.026340074489634838,
            1.2959487071013969,
            -0.13644879411260424,
            0.0
          ],
          [
            0.0,
            -0.4721876118523419,
            0.7919636055796119,
            -0.025459892353226155,
            1.1892365060905132,
            -0.05203186095837077,
            0.0
          ],
          [
            0.0,
            -0.3072108133563938,
            0.5904284151209037,
            -0.028595862030239394,
            1.2793863806103434,
            0.009730704780140514,
            0.0
          ],
          [
            0.0,
            -0.37187100168704956,
            0.779747920270581,
            -0.024283957718285995,
            1.2335952530751173,
            -0.17432763556131853,
            0.0
          ],
          [
            0.0,
            -0.21142786671897323,
            0.8352225901727521,
            -0.0242287268512206,
            1.3752411431155016,
            -0.3565149516201297,
            0.0
          ],
          [
            0.0,
            -0.48221136791990354,
            0.7918851306727523,
            -0.0295698477093312,
            1.2678767847746866,
            0.07973268979693357,
            0.0
          ],
          [
            0.0,
            -0.5620786938641091,
            0.8774924670372922,
            -0.027373865705612968,
            1.2853621376023512,
            -0.06340765892346019,
            0.0
          ],
          [
            0.0,
            -0.22274860736491403,
            0.9332970152860275,
            -0.03163261319100737,
            1.4166469455446984,
            0.0037351606052659497,
            0.0
          ],
          [
            0.0,
            -0.2669906140312705,
            0.5412242928371868,
            -0.029403406258406775,
            1.1656253404861272,
            0.19510838431489846,
            0.0
          ],
          [
            0.0,
            -0.44005821722467797,
            0.8085833909765675,
            -0.02613607866719006,
            1.2174875656388489,
            -0.050165092285520727,
            0.0
          ],
          [
            0.0,
            -1.0712887710599197,
